-0.13500591818803054 
0.014020745454586703 
0.030788924381791344 
0.02912262754709244 
-0.1599278339586436 
0.17725923936469182 
-0.14722134772709267 
0.13002001934887278 
-0.010712793962151607 
-0.008888319097212688 
0.055945642939471324 
0.024992804173810473 
0.13462619225881137 
0.156616272033935 
-0.10380811292863418 
-0.0005535790666298009 
-0.15302761460331835 
-0.07447747451508048 
0.11022113943921788 
-0.1730938596147613 
-0.13935347730097383 
-0.1381791556419698 
0.033978789685943256 
-0.11653872181006926 
-0.07013471497036984 
-0.17162477499484136 
-0.17116047878438398 
0.07250228565656378 
-0.14285556112558243 
0.1039015188458279 
0.08044420547003259 
-0.14544991846069 
-0.15829253163796686 
0.1539353600180027 
-0.0600838498903072 
-0.09118104300477545 
0.007483423610851414 
0.04093919791593076 
0.15267825571147284 
0.0352448478136847 
0.16427520683692584 
0.1654362463580655 
0.10773606113562803 
0.08141295885728464 
0.1369786257867934 
-0.14084772060953046 
-0.10373176471299503 
0.0951072437580128 
0.07875102749180193 
0.11948588352675246 
-0.1438091652478919 
-0.0878746814334501 
0.043126540489358045 
-0.1696368663073961 
-0.11071188466908972 
-0.0094997120396558 
-0.05767017824118051 
0.14594139507701212 
-0.16675274644058033 
0.11072549029277487 
-0.04907407132268107 
0.014391755903621656 
-0.0933148297950731 
0.06776708830407016 
0.03158707264210869 
-0.09437970703745444 
-0.12793762294761338 
-0.02240512567180905 
0.06631046736817878 
-0.133040461464254 
0.16801805022872682 
-0.0013573801144931529 
-0.04813593661610521 
-0.125114318435209 
-0.04301504223322128 
0.1086307063176851 
-0.09059896913889857 
-0.0005927279404481511 
-0.14210120787301397 
-0.008634143303469066 
0.12345029893610868 
-0.12615871985300642 
-0.16517469083461958 
0.14473082065289763 
0.059994647290335185 
-0.9963200911999918 
0.08152671283493071 
-0.008373496438565664 
-0.13731162242514353 
0.03930291095766977 
-0.08052072136223537 
0.010559914217905475 
-0.1006324173539043 
0.1398180649899001 
-0.17698707925267626 
-0.14296893667948218 
0.09659227062924561 
-0.10334256019911472 
0.06443067697546223 
-0.0013622283364007023 
-0.18321009038007668 
-0.1789588889099489 
-0.12595896094774647 
-0.1775617343262409 
-0.14555053572142912 
-0.05727377347500584 
0.1391946039306086 
0.1578430352495149 
0.009935826712115958 
0.02673988556741061 
-0.0004797161301514641 
0.1742592070157751 
0.14138565560336327 
-0.04751083219866384 
0.02462850516930029 
-0.17156902427099005 
-0.06620549092880211 
-0.14251596887665993 
-0.05923806180358557 
0.11190721036425674 
-0.019045223882289852 
-0.07537042070611188 
0.10139517228114933 
-0.087677203534518 
0.04538259989255655 
-0.014446671001597161 
-0.1807782189547469 
-0.050979433009878644 
0.030231915172333923 
0.08349131670998602 
-0.07574222387168769 
0.1725551215782273 
-0.142400839679281 
-0.041282339176196337 
-0.05534209422753639 
-0.12346613427037376 
-0.15398355596573876 
0.06705339423424958 
-0.08008932151770029 
0.048468642416841345 
0.17923021124446428 
-0.08352372242110526 
-0.16155014368177822 
-0.03694002341040126 
0.008386793841921952 
-0.0273327997465099 
0.15375805203284323 
-0.17114768717824835 
0.08077897401476772 
0.06574991612902953 
-0.1539734249071591 
-0.16814952264292762 
0.060670110643911895 
-0.060788652676244975 
-0.09321106568591837 
-0.00041226874263711357 
0.17759205155908472 
-0.0927274502619001 
0.17524221517584057 
0.08314688994612965 
-0.07433998588959645 
-0.10340103029924627 
-0.031295203030536095 
-0.1129828742378349 
0.1291971315309762 
0.10173813231175119 
-0.08147292743570918 
0.012663957108819013 
-0.18377655876974147 
0.07768275317200299 
0.1051866485172038 
0.08178611283066886 
-0.04120153182749786 
-0.050947587675504946 
-0.12393822633010781 
-0.020788260157137556 
-1.402988769594968e-08 
