-0.05733421227813679 
-0.0715142158725107 
-0.0445476321967512 
-0.003048097988560705 
-0.1703710131666647 
-0.047392809159499755 
0.13907461596259554 
-0.08391596494750217 
-0.023215711258072924 
0.017446128884659462 
-0.08149479463956477 
-0.12085764039105161 
-0.06964297918587696 
0.045966695363482746 
0.0016822102754299462 
-0.00016875282816144712 
-0.03951389825472246 
-0.14951172251745198 
0.13790298436171364 
-0.04475986354233086 
-0.10104584240825755 
-0.020246219826159567 
0.01969790725418713 
0.17841026691943027 
-0.02113617935480186 
0.13585323610373032 
-0.15216087466502476 
0.1651813161868855 
0.1371278039858668 
0.03497646503992116 
-0.0756564622401137 
-0.08135803289162764 
0.07681622797983709 
0.00818902753533482 
0.1656504500987139 
-0.012044230261985034 
0.028742524435990513 
0.13935941881323824 
0.09351069628643718 
0.024593560428182615 
0.03905628366939559 
-0.01753877519835012 
0.07414507709297777 
0.15518960558321435 
-0.15300938340283937 
-0.1426653613358886 
-0.1750734322650637 
0.165423573953954 
0.02540841753352019 
0.12426523732311764 
0.14517530378364793 
-0.15830682685422173 
0.07552155896442933 
-0.15780573859092983 
-0.10875134650499839 
0.17020394563596294 
0.12399515243109491 
0.13129986439468952 
-0.1800174483050047 
0.13040890124614482 
-0.009753924944690628 
-0.1602024529013413 
0.08876052778804708 
0.1433005478899493 
0.10984779923243984 
0.07941616396448001 
-0.07369271634527631 
-0.03592310418086653 
-0.1745246462779087 
-0.006226432246443869 
-0.15196015465562285 
-0.021314236476846465 
-0.10429026895625264 
0.1411991197351624 
0.05814418951043723 
-0.07482098597239582 
0.02299692733666847 
0.024584905724238132 
0.1646760601392975 
-0.08716878295948276 
0.15063404413671247 
0.11724086040131268 
-0.010196204438193524 
0.004102131770046091 
-0.16976879847121062 
-0.9562856408022352 
-0.06708809541116312 
0.13501327834326463 
-0.07605986496349505 
0.04816457418562048 
0.12980389899315017 
0.0856297223160781 
-0.13711959222403336 
-0.14030217186948962 
-0.11820086882085545 
-0.11968788331460166 
-0.11060948802751414 
-0.05519034877638079 
0.04848377891199504 
-0.021266516165410688 
-0.16166613025714432 
0.17330571955121962 
0.11765143715529733 
-0.037541922179104154 
-0.11667099998324855 
0.086364794227376 
0.18385671171239223 
-0.10273738757457387 
-0.11559321581679069 
0.06412416037977683 
-0.0988820222594843 
-0.16495375228347098 
-0.06687026609375656 
-0.15410583276847611 
-0.0525459495658398 
-0.17303046848639497 
-0.02647373475930967 
-0.07583655966673261 
0.10746510016251717 
-0.05106852898893571 
0.12034403617908326 
-0.10213772793339743 
-0.1652188812288467 
-0.14078357577685036 
-0.17781006234357094 
0.07080495568314785 
-0.03402974677917589 
0.008559985248703383 
0.1655305217157523 
-0.09331869461078154 
-0.0013226151277046516 
-0.13784754234430213 
-0.1141871001123239 
-0.0344325984112161 
-0.17095853443470188 
0.0008598685988107924 
-0.15508507658667306 
-0.028849265421922843 
-0.07953320673058892 
-0.054543466797588896 
-0.15764548974073767 
0.10872672004042258 
-0.1416093240212772 
0.16677367978007 
-0.18389857901648654 
-0.15836819787168638 
-0.14766766581602164 
0.11671146741667274 
-0.052357157437438046 
0.08941427875275895 
-0.156462147063515 
-0.04347858600823351 
0.1622317774818591 
0.10481898207932297 
0.05456158360497937 
-0.0007540838054135581 
-0.07494128423909927 
0.12438632567737837 
-0.11697815054012327 
0.13789698816662024 
-0.1169156068105093 
-0.17403780866825835 
0.15359684871781762 
-0.162449990040954 
-0.01352676665880631 
-0.11253043998232855 
0.011038602429694927 
-0.02779599375225683 
-0.141548276701433 
-0.1834171115338793 
-0.12796530232161957 
0.08079500594313435 
-0.08576026486344472 
-0.0767325482362862 
-0.006893220050683463 
-0.012317892421983168 
1.0256375015756189e-05 
