0.18136888933289505 
0.16228444463934685 
0.04294640471397662 
0.13450043339416315 
0.03129686996360362 
-0.1632068018520363 
0.08879819230363376 
0.1314463631358744 
0.09457574404677413 
0.1720855147466895 
0.04067186243842394 
0.13588811605627235 
0.06673351440920242 
0.07549450701403462 
-0.15659701564275016 
-0.0005707203465389641 
0.04733069433585593 
-0.13458582764008864 
-0.051416077574137214 
0.07718822977479442 
-0.17804569977799667 
0.04696183149504704 
-0.14959934950284576 
0.021433662566763267 
0.11969399232550629 
0.1453985140112243 
-0.1153764197042414 
0.1501790455741732 
0.028901333589862355 
-0.15751275274528542 
-0.0006177914298917953 
0.17624248067309292 
-0.16529812834129093 
0.13708212350475454 
0.029519404116454206 
0.053021315417119796 
0.0052145228893011875 
0.16063328472975633 
0.06375469832538586 
-0.07070167069452592 
0.045952565475251006 
0.091887769324109 
-0.05149854352506708 
-0.0009712591598052545 
0.030803470656021542 
0.14842183113782384 
0.12964880775953172 
-0.06261393128056404 
-0.12355827743077358 
-0.03203806146093369 
0.04873269627403026 
-0.0287731981016221 
0.10301712014069167 
0.16397682984833636 
-0.05408511963998883 
0.158888443395692 
-0.05324799900687033 
0.00860815769486628 
-0.04951507369781982 
0.04594272444927425 
-0.16212191770958922 
0.09534373853112973 
-0.174169823220643 
-0.13787163303682612 
-0.019548362831816962 
-0.1675960826077674 
-0.14617455822680983 
-0.12110496383835896 
-0.07403137288861626 
0.14510638640854964 
-0.1408038747598367 
-0.0026022804356226046 
-0.015427480246646419 
0.07543421564931299 
-0.08512876453872992 
-0.026263550673693514 
-0.07727138862513927 
-0.1516589308281122 
-0.042816457337509106 
0.15044157358188284 
0.029186751480803907 
-0.04300300962169676 
-0.07564510924411666 
-0.0458464641203529 
-0.06399172703191951 
-0.9938696016872015 
0.055470443632262084 
0.10357893245783215 
0.16809032867311566 
-0.03292868444778202 
0.08674079497504575 
-0.14415853505024243 
-0.14372161612592987 
0.08392415279882312 
0.0667371648304774 
0.10399046521719726 
0.06341762706724136 
-0.12576746178216952 
-0.05980667085465942 
-0.002588687750587614 
0.06954681268352583 
-0.11800393915871803 
-0.14380665846051086 
-0.13685238168149608 
-0.0012540863883449271 
-0.1572099659991431 
0.101286024469079 
-0.06453373500934148 
0.08297478196834965 
-0.002573829565797131 
0.05571826893430171 
0.018801502938725317 
-0.1395991783182251 
0.15779526280961195 
0.10360308182050668 
0.13710358772718537 
0.02043940070427605 
-0.05424147353794756 
0.1712890586454244 
0.13314557745197778 
0.11772847107703069 
-0.11539534050653066 
-0.10304145424847458 
-0.02681358345651877 
0.13609677175218068 
-0.147163857768892 
-0.06968053811514854 
-0.11709710516460739 
-0.04227518443322978 
0.026894392575366938 
0.06632353369702884 
-0.11156260989146775 
0.14886363794735766 
0.023891653979546096 
-0.016903307271072088 
-0.007105422200724076 
0.142778838915858 
-0.0028947503650826323 
-0.0006725349058076258 
0.04477704631866872 
0.061824139269157335 
0.03398722673764351 
0.0174471572711829 
-0.10224833769204254 
0.12042231085451197 
0.1486550611647716 
-0.08709778030263876 
-0.014490904805448568 
0.17682187556612752 
0.10694280220812533 
0.11047941819242676 
0.03299371368309209 
0.03253944233956499 
-0.11345824124855097 
0.16650202164129915 
-0.00034827009033954593 
-0.11463151931780817 
0.08349334559036356 
0.08852425487726281 
-0.05854849138034593 
0.0005732527318942637 
0.16402563023799135 
-0.09196584697891118 
-0.07703578880459722 
0.09403000761102723 
0.060466898106034256 
0.11302670422037561 
0.08517662763428688 
-0.10868369479528983 
0.04790461393625928 
0.06821047996549315 
0.01792795097112948 
0.029739521995415547 
0.019549809045863925 
-0.053442151622335954 
-0.0278321698508108 
-3.692533960017206e-06 
