0.04938597984028831 
2.6397215771021997e-06 
-0.13270355784008084 
-0.11138936507353137 
0.04467249592402735 
0.18611106330258878 
3.9122285195376994e-05 
-5.451893703164328e-06 
-7.573557375104604e-06 
0.01901029915985833 
-0.12081071184017134 
-0.006652455305115629 
-0.16543247219592092 
0.04855772647898816 
-0.00010670121798583681 
-0.0005118884414608119 
-0.2020156757029978 
0.041590409995756035 
-0.000555182866301415 
-0.049293869098005726 
-0.026286813645953498 
6.030273702383441e-05 
3.8785223354173946e-06 
-0.13224719034557922 
-0.12761151923376637 
0.04375317494663725 
0.16278795122053255 
0.07281218400836334 
-0.00014700515676378714 
-9.515003258061053e-06 
0.06636940694527414 
-0.18013912672185564 
0.04665230386955375 
0.2183033347911017 
-7.921980187072053e-06 
9.4189010734383e-06 
-3.139187832482055e-06 
-0.08314789649237521 
-0.15562354512524787 
0.0046057050468160405 
-0.15185384147277206 
9.988067955868714e-05 
0.025360460987541456 
-6.38339321318122e-06 
-0.1446138368689631 
0.05862153685651555 
0.008829610278309662 
0.07646488376863739 
-0.11595146258145228 
-0.013546820554085402 
7.812598835166822e-06 
-0.07858028903432634 
0.12044614458216907 
0.0006015174503856743 
0.0735729745812803 
0.0642998757001201 
0.012559640382460553 
1.0403430830729262e-05 
0.17967553754221957 
-0.04382386577643944 
-0.013112788631473367 
-0.09451404211057923 
-0.13795136534547037 
0.013881492716750047 
-2.0967228950362373e-06 
0.05752408225502623 
-0.20664304791618093 
0.017549705454533493 
0.06842273266432995 
-0.00018420447152956408 
-0.03805243611077662 
-0.000520944699620703 
0.023397945827334333 
0.021229337499875246 
-0.004627595947278536 
-0.11725836566626958 
-5.2759883331344506e-05 
-0.05880062073049942 
-1.7410511889198368e-06 
-0.03799246735356987 
-0.13774184284788535 
0.009485171604308165 
0.16809327197918153 
-0.016023444218371406 
0.032594887382310894 
-0.9979351769099254 
-0.037752612047363236 
0.02194884078147721 
0.004782079615903648 
0.1379750567201846 
-0.04648485145679024 
-0.011169778714512921 
-3.6420453507431363e-06 
0.09709018891454807 
-0.2419322269271435 
0.0016083365692002958 
0.023435227594133648 
-0.04795487544414861 
-0.032502303829755726 
-0.0005087856899669646 
0.0010175506416029772 
-0.05274520401430072 
0.003493352161584015 
0.09048341661573031 
0.00016749388904599517 
0.06996778069960208 
2.5101755666190182e-06 
-0.08000875297202865 
-0.11906779885677048 
-0.0030241690272800013 
0.16813611387478633 
3.895466107146508e-05 
0.017146346642734983 
-1.3577297370402992e-06 
0.10205607536003561 
0.10549906308534189 
-0.004080195015621813 
0.06046138627612553 
0.11710273197069704 
-0.03698557923613321 
-2.7413803254131033e-06 
-0.013055958902341775 
0.14612460605118663 
0.001264602535665146 
0.12296007447956463 
-0.06474541688637574 
-0.0035179318782381317 
-1.4226484188788897e-06 
-0.05414894096286055 
-0.14667277513187707 
-0.0032756469316418016 
0.09774373452855063 
0.1393203358317206 
0.037010040200827314 
2.770544137274202e-06 
0.04697105798413515 
-0.20264727989334927 
-0.005764890004358526 
-0.06625244073710673 
-1.7914659924212513e-05 
-0.013590877012127744 
6.399641790101048e-06 
0.02414918967025673 
0.09227446866290373 
0.0029556473229011304 
0.035838785389503615 
2.0430997858916064e-05 
-3.7527688463492435e-05 
-4.554240632086668e-06 
0.0968961816169956 
-0.02986218092681691 
-0.01889395886825314 
0.15568098441330686 
-0.033741510670012305 
-4.5639851291579475e-06 
-0.0005238464853543394 
-0.07804095556442386 
0.16578142483149413 
0.0321742140778948 
-0.21069678831833855 
0.0727811161752743 
8.470903744857445e-05 
2.931561323437249e-06 
-0.13988833097016368 
-0.11667426306879944 
-0.00796190193909835 
0.08715962349374232 
-0.026816832053385586 
-6.743501536692767e-05 
4.058380755688896e-07 
-0.11937117406292477 
0.020073355145759978 
-0.0027179682741912095 
0.13976058797288532 
1.5250559653270102e-05 
-1.6749910721555448e-06 
0.006206917944624051 
