-0.13362652050126092 
-0.03986332742953255 
0.031340333468019316 
0.07821991580981638 
-0.1341926738206828 
0.08447283624469468 
-0.182676106679673 
-0.16665607106559038 
0.05350681031262672 
0.13001860138121094 
0.008331667403980059 
0.05685196689980654 
-0.017719541203653877 
-0.04948056873849138 
0.042638031662632664 
-0.00048821104336223525 
-0.11287286267017263 
-0.004766579849257546 
-0.042451824042762265 
-0.06896028724251377 
0.07166972629975346 
0.18105290267098798 
0.16125695644348118 
-0.09602674096665885 
0.06190128798513628 
0.10701740060840717 
-0.17405298131280905 
-0.15796949592398135 
0.06127702931376022 
-0.12763879005683498 
-0.17682922081920982 
0.06516723965023599 
0.16764283645286762 
-0.155591770784657 
-0.012414409370877344 
-0.14811465835818177 
-0.020003806748522646 
-0.04882629264606839 
0.15797139486287184 
0.1362123298960126 
-0.027863271483101415 
0.1656939034546123 
0.05153723477873115 
0.07784325195915412 
0.031238243735060484 
-0.15284003058097165 
-0.03836160582040449 
-0.12805148613836315 
-0.046744347550774085 
-0.05156984612294516 
0.13688321145280732 
0.05496479536439974 
0.15876812639880958 
-0.008925696354039947 
0.0918930636619936 
-0.16574478782147264 
-0.14394351573138578 
0.12666780587614337 
0.18385586860186795 
-0.11368536669929062 
-0.04032693206890234 
0.17053688446821816 
-0.011108664859544176 
0.03485749815434194 
0.14674571201019201 
-0.13774874143982613 
0.12601512393429257 
0.08643863285841144 
0.06374540111682891 
-0.022252282723659672 
0.05144656380273338 
-0.1221595660317888 
0.10651168081372667 
0.021196000693235878 
-0.006773761447629367 
0.18369781462487042 
0.11103189764509466 
0.0012391206039959468 
-0.044201143285807626 
-0.05262480174516185 
0.0879898714879215 
-0.17380525112328152 
-0.006192412401751585 
-0.026852301661857897 
0.08331587253442294 
-0.7495089051391658 
0.17484197986869812 
-0.01922558777399075 
0.08144939591637176 
0.1370876057229339 
-0.14506118864870923 
0.0017122012242143103 
-0.13412656519326108 
0.07119487535321625 
0.12344142416150514 
-0.018802152115908466 
-0.1553577491637423 
-0.06508862058509715 
-0.040241461548137514 
-0.1223181503390807 
-0.07812779720005725 
-0.07564871969562927 
-0.012405155844337823 
-0.06354354759623768 
-0.15796372535917602 
-0.182065672120232 
-0.08279015307706723 
0.1125630059523188 
-0.18275235055002628 
0.1285370728122718 
-0.1664623875795197 
0.16806415167972752 
-0.10263626460080075 
0.14958240290697958 
0.09136543561284285 
0.031457730643021015 
-0.16152822856891685 
-0.13664322611478336 
-0.08366663512351113 
0.12190638667447054 
-0.17559137721948925 
-0.09376216245028407 
-0.04921559085926558 
-0.12495606176953156 
0.04567401089176101 
-0.06960806998524408 
0.033053354668479445 
0.14905998848777355 
-0.15561640787607742 
-0.017586955713038366 
0.1383437237486629 
-0.16393897674254373 
-0.05233469924774142 
-0.058961616219440544 
-0.16340089507237554 
-0.10957552555437135 
0.11311205779229958 
-0.16579549184511708 
-0.15541179378045805 
-0.1320189155186171 
0.004246239872037566 
0.08556541868341946 
-0.14070216144170733 
0.002443668268932747 
-0.1416678321048494 
-0.05511795746416903 
-0.14891035264371907 
-0.03331886772912196 
-0.05832905219026588 
0.11658680636166005 
0.1003764554199095 
0.13998762495114767 
-0.1509820768704088 
-0.13145230150651502 
0.15938092165862075 
-0.0015277866192255785 
0.024876658470195462 
-0.07104563902219753 
-0.07028375633318655 
-0.07199505678803932 
0.16962063262517915 
-0.02519482539317694 
0.043470624608773656 
0.08139025765643901 
-0.09066783012279003 
0.04339886413719929 
-0.10953586326018466 
-0.13563954439858397 
0.018568354005437493 
0.03347617698684635 
-0.03177104029989439 
-0.1670309320550071 
-0.08320653578502044 
0.004232417831847524 
0.08587720309812633 
0.10544984452233844 
-3.0616692326991533e-06 
-0.13362652050126092 
-0.03986332742953255 
0.031340333468019316 
0.07821991580981638 
-0.1341926738206828 
0.08447283624469468 
-0.182676106679673 
-0.16665607106559038 
0.05350681031262672 
0.13001860138121094 
0.008331667403980059 
0.05685196689980654 
-0.017719541203653877 
-0.04948056873849138 
0.042638031662632664 
-0.00048821104336223525 
-0.11287286267017263 
-0.004766579849257546 
-0.042451824042762265 
-0.06896028724251377 
0.07166972629975346 
0.18105290267098798 
0.16125695644348118 
-0.09602674096665885 
0.06190128798513628 
0.10701740060840717 
-0.17405298131280905 
-0.15796949592398135 
0.06127702931376022 
-0.12763879005683498 
-0.17682922081920982 
0.06516723965023599 
0.16764283645286762 
-0.155591770784657 
-0.012414409370877344 
-0.14811465835818177 
-0.020003806748522646 
-0.04882629264606839 
0.15797139486287184 
0.1362123298960126 
-0.027863271483101415 
0.1656939034546123 
0.05153723477873115 
0.07784325195915412 
0.031238243735060484 
-0.15284003058097165 
-0.03836160582040449 
-0.12805148613836315 
-0.046744347550774085 
-0.05156984612294516 
0.13688321145280732 
0.05496479536439974 
0.15876812639880958 
-0.008925696354039947 
0.0918930636619936 
-0.16574478782147264 
-0.14394351573138578 
0.12666780587614337 
0.18385586860186795 
-0.11368536669929062 
-0.04032693206890234 
0.17053688446821816 
-0.011108664859544176 
0.03485749815434194 
0.14674571201019201 
-0.13774874143982613 
0.12601512393429257 
0.08643863285841144 
0.06374540111682891 
-0.022252282723659672 
0.05144656380273338 
-0.1221595660317888 
0.10651168081372667 
0.021196000693235878 
-0.006773761447629367 
0.18369781462487042 
0.11103189764509466 
0.0012391206039959468 
-0.044201143285807626 
-0.05262480174516185 
0.0879898714879215 
-0.17380525112328152 
-0.006192412401751585 
-0.026852301661857897 
0.08331587253442294 
-0.7495089051391658 
0.17484197986869812 
-0.01922558777399075 
0.08144939591637176 
0.1370876057229339 
-0.14506118864870923 
0.0017122012242143103 
-0.13412656519326108 
0.07119487535321625 
0.12344142416150514 
-0.018802152115908466 
-0.1553577491637423 
-0.06508862058509715 
-0.040241461548137514 
-0.1223181503390807 
-0.07812779720005725 
-0.07564871969562927 
-0.012405155844337823 
-0.06354354759623768 
-0.15796372535917602 
-0.182065672120232 
-0.08279015307706723 
0.1125630059523188 
-0.18275235055002628 
0.1285370728122718 
-0.1664623875795197 
0.16806415167972752 
-0.10263626460080075 
0.14958240290697958 
0.09136543561284285 
0.031457730643021015 
-0.16152822856891685 
-0.13664322611478336 
-0.08366663512351113 
0.12190638667447054 
-0.17559137721948925 
-0.09376216245028407 
-0.04921559085926558 
-0.12495606176953156 
0.04567401089176101 
-0.06960806998524408 
0.033053354668479445 
0.14905998848777355 
-0.15561640787607742 
-0.017586955713038366 
0.1383437237486629 
-0.16393897674254373 
-0.05233469924774142 
-0.058961616219440544 
-0.16340089507237554 
-0.10957552555437135 
0.11311205779229958 
-0.16579549184511708 
-0.15541179378045805 
-0.1320189155186171 
0.004246239872037566 
0.08556541868341946 
-0.14070216144170733 
0.002443668268932747 
-0.1416678321048494 
-0.05511795746416903 
-0.14891035264371907 
-0.03331886772912196 
-0.05832905219026588 
0.11658680636166005 
0.1003764554199095 
0.13998762495114767 
-0.1509820768704088 
-0.13145230150651502 
0.15938092165862075 
-0.0015277866192255785 
0.024876658470195462 
-0.07104563902219753 
-0.07028375633318655 
-0.07199505678803932 
0.16962063262517915 
-0.02519482539317694 
0.043470624608773656 
0.08139025765643901 
-0.09066783012279003 
0.04339886413719929 
-0.10953586326018466 
-0.13563954439858397 
0.018568354005437493 
0.03347617698684635 
-0.03177104029989439 
-0.1670309320550071 
-0.08320653578502044 
0.004232417831847524 
0.08587720309812633 
0.10544984452233844 
-3.0616692326991533e-06 
