0.10372799303825857 
-8.57469317585442e-06 
-0.1411464379495296 
-0.19734914564216965 
-0.012117912252795338 
-0.1504017520831286 
0.00018289853938983208 
0.00021061527385639236 
-9.531658799328395e-06 
-0.16066043358792215 
0.024827615136615678 
0.03840444248803118 
-0.025002883107568978 
0.027000186670497542 
-6.970959000192594e-05 
-0.0005413446502309871 
-0.026647280137762762 
0.14407117962244753 
0.07519693134181309 
-0.016434397668701084 
0.021951387017051845 
0.000389186348499654 
4.076564374797207e-06 
-0.058501876359558766 
0.09644963264524625 
0.0562815204998681 
-0.014556084806430501 
0.04692042630206482 
0.00017870119355470614 
5.628352049050843e-06 
0.011516231638750932 
0.14972881622189033 
0.10264955855372775 
-0.07850943944975498 
2.4726906143781598e-05 
6.174191145270026e-05 
-5.3731130620374156e-06 
0.13632895524921362 
0.08604098908511401 
-0.033423514101640205 
0.1724168802788904 
-0.0008105483643433109 
0.02792513678886143 
8.17952942326524e-06 
0.04053103139998177 
0.07034504108887846 
0.0851250952796764 
-0.023986486862323124 
0.019327650307515654 
0.021887804920158786 
-2.4133767629888708e-05 
0.1221168640058719 
-0.0816915748645801 
-0.034156482302789413 
-0.02032522548286855 
-0.03499979543422489 
0.019832391212592986 
-3.464257284326059e-07 
-0.02053130763600291 
-0.17584355837537266 
-0.0970045723285813 
0.03518173054297105 
-0.04281477798818512 
-0.022599867863874454 
-6.034896459973128e-06 
-0.0268313750161933 
0.1528866919622819 
0.09929005502757039 
-0.028527084627273883 
0.000819425225813287 
-0.047156699576328155 
-0.0013519942978509165 
-0.034099860596786775 
0.10417717049131407 
-0.16321445447116567 
0.13385500305017714 
-0.00039350748528776996 
0.02031471007680962 
4.761327970569452e-06 
-0.1770514583803783 
-0.09928244472454029 
-0.11561613733799316 
-0.1173993676359708 
-0.07299820565052409 
-0.04924433520485074 
-0.996323154130448 
-0.02216627931944892 
-0.141159024722347 
-0.05689267557513455 
-0.15032989217472117 
-0.026277605850958872 
-0.08084848582294026 
-9.495065872074198e-06 
-0.12431203572903299 
-0.12498253616708943 
-0.08750617355820346 
-0.06700925929456328 
-0.10950912334465372 
0.03940081647792091 
-0.0013490917635777975 
0.07258890715753745 
0.025322592689507747 
0.09778084450859703 
-0.10747030878385158 
-0.0008914650034457372 
0.054747125945432955 
1.5091895384848454e-05 
0.022302238646544386 
0.16247283874668558 
0.09889865623041474 
-0.12536957939366328 
0.001025063149909793 
-0.06320604285025434 
4.077943088903203e-06 
0.05599098667951385 
0.08289772438785972 
-0.0893419436893472 
-0.15636600189830555 
-0.021854135425900305 
0.005304553246326218 
9.869650717379413e-06 
0.055818399668448 
0.04887037775589273 
0.07799822123248698 
-0.16083824442561112 
0.011721707600457716 
-0.02113027416033095 
6.991516320526896e-06 
-0.09872926298081793 
-0.06928935227407897 
0.06494790393664272 
0.12012786565060621 
0.021314789860923458 
0.026102972904067028 
-6.542431759959788e-06 
-0.18719896229505084 
-0.058136799586128614 
0.08214985517336909 
0.09939838449513115 
-0.0017457132964516925 
0.11383064209664805 
5.059518370131648e-06 
-0.060024214973863996 
0.007907040217335314 
-0.020540293705006585 
0.14199967496257299 
-1.8329938452982652e-05 
-0.0003315870734190909 
-1.3355071849855426e-05 
0.03971979744129926 
-0.09545453922898836 
-0.1511072309119761 
0.18050839737112032 
0.032525169891664436 
0.001195280230650159 
-0.00041125866589570946 
-0.18897572059561307 
0.18668915441515122 
0.08508143523719768 
0.09749890050750973 
0.0045837015894288945 
5.9943311259031785e-05 
-3.7223786074565547e-06 
0.05253923268350219 
0.10181330143974573 
0.07414192382642838 
0.15304331512732802 
0.0389660319353234 
0.0006101561248146467 
-9.370154870407506e-07 
0.05879289646771813 
-0.13730501612244453 
0.07449384372076343 
0.006726560461848059 
-0.0001062173669428936 
-7.81417397030456e-05 
0.00472705550533226 
