-0.13792667142163836 
-1.087861909194274e-05 
-0.09997363072760715 
0.011622010526628923 
-0.046466034359629656 
-0.07787345916757796 
1.1938692762128082e-05 
-6.13788995968117e-05 
-7.670682269253041e-06 
0.07787592972675318 
0.11733256752862058 
-0.055366275763342944 
0.0521276230334195 
-0.023004901503509968 
0.00027445825171289434 
-0.00045054426787095956 
0.08544395034004204 
-0.04467709565969711 
0.01973104010385571 
0.002327388289823378 
-0.0828165568660744 
0.0010180320233149059 
5.722189361340031e-06 
-0.05302530387348057 
0.04434636635350702 
-0.04959287461457978 
-0.039981408911196885 
0.0002743770058744551 
4.768939164725676e-05 
-1.0486374407519127e-05 
-0.11851868675835485 
-0.14354739854505408 
0.030803306497967146 
-0.12320605727663568 
9.59734922870055e-07 
-6.723381102084227e-06 
-6.809263297423741e-06 
0.12426411857300218 
-0.024328012504340583 
-0.030999248886158317 
-0.054771349745463785 
-0.0004731383123866159 
-0.028832541205708037 
-8.390872985422335e-06 
-0.13582746154065797 
-0.011578476127100832 
0.046739476441596664 
0.045178748890891844 
-0.09081783556707257 
-0.10289123395244736 
4.286770694584085e-06 
0.07888954172784073 
-0.125199805236155 
-0.008511850744749087 
-0.12464621513033257 
0.05686660521243079 
0.02871383412264246 
7.59529445692764e-06 
0.11757460963662283 
-0.06353592217180619 
0.06274559075244959 
0.07329524905770046 
-0.05944350119225165 
0.10428112121026671 
1.952731250034457e-05 
0.1166691602773065 
-0.03575335369479398 
0.03281676882706225 
0.04708216630516373 
3.3030618768606646e-06 
-0.00029846113387359957 
-0.0008855031156123771 
0.09738684726997728 
-0.0019523084341870156 
0.017825905969783586 
0.05675844356595329 
-0.0016273750442870162 
-0.08961645341402903 
1.0698067007115401e-06 
0.019471334647785683 
0.09625969017449205 
-0.05374212449651327 
-0.017547341441661698 
-0.0342799699739876 
0.0570818816867717 
-0.9972423089495533 
0.11417504452978075 
-0.017444500554241862 
-0.03902848402705548 
-0.07973379521172026 
0.05680879192792185 
0.02747114123873503 
-1.823144664576279e-05 
-0.18132767947521788 
0.12629628545639496 
-0.006782398196903054 
0.07449481201371358 
-0.013184373010066667 
-0.05661963428753385 
-0.0008874549637403643 
0.1485011013469334 
0.1590991690409433 
-0.04832292643076889 
0.08323747305799332 
0.0010695809859459031 
0.06167040814113013 
-1.340612524734093e-05 
0.07973658219531876 
-0.005929258536316148 
-0.013111971571602741 
-0.024122837964359965 
-0.0008908953164178222 
-0.0537650292224947 
-7.107153044236863e-06 
-0.13764227182071842 
0.0480880594603514 
-0.004512844719060026 
0.006951155345695783 
0.10577593941819485 
-0.04006086283164514 
-4.5648920043402814e-06 
-0.21373583465653792 
0.07611447072262686 
-0.06575059040690849 
-0.14514511894958299 
-0.06655452635033947 
0.04426786167667966 
8.872327057284054e-06 
-0.025453590150619026 
-0.027892945179344604 
0.03604576737085538 
0.06321085023354352 
0.0739086465024097 
0.0388833821114228 
-9.506156317688755e-06 
-0.0415550072303536 
-0.08137570086485398 
0.08375161622981435 
0.13415728676981487 
0.00010233471564221926 
0.01003943005459683 
1.3220920305819191e-05 
0.007696270896206869 
-0.1980825964547574 
0.060815163514045166 
0.0053181985209240085 
7.187844037533986e-05 
1.8913781745380533e-05 
4.310770758528425e-07 
0.04863737607832423 
-0.13535658343727863 
-0.024474806044693865 
-0.20530926021087834 
0.073841966248711 
-0.00040696089410896947 
-0.0005312155145001353 
0.11722259827542814 
-0.05657535766058602 
-0.03901804918992016 
-0.1589464341093244 
0.054073657256570984 
-0.00029848338887820394 
-6.3537327403610135e-06 
0.15802967155863057 
-0.13920248640651406 
0.07932682618286087 
0.15976531515167103 
0.013698001858680331 
-7.256433269252344e-05 
6.593877042928833e-07 
0.08479164082441046 
0.013841692448860406 
0.018104919191142294 
0.09322316936300927 
7.742661338102273e-05 
-1.3703354308695905e-05 
0.01031763361137262 
