-0.10061764372763396 
0.09709037970245146 
-0.05857271318968463 
0.05643496753518462 
0.11585674980110114 
-0.04199372514704597 
-0.1758124955133221 
0.03292574370444193 
-0.171134129257829 
-0.08940170347485735 
0.14482435106323235 
-0.13118700529279187 
0.08671534120146004 
-0.17921503471656433 
-0.10763736374411549 
-0.0006445218673360713 
0.1084980039717807 
-0.08684981691731977 
0.09201023228372326 
0.06071693497569891 
0.01979569164906217 
-0.06036510118961483 
0.113402971255988 
-0.01643987597560226 
0.0661103211307271 
-0.06303009285108123 
0.18282575970137457 
0.13997522947755972 
0.14401524387775602 
-0.12452542471190642 
-0.09740174353722476 
0.13243857514835203 
-0.10236310270142243 
-0.12012712864854114 
0.12944079605544365 
0.06844434682681041 
0.05881335342875596 
-0.014159838806498015 
0.15069869387305976 
0.04113760167770811 
0.0196044099739785 
0.12739612125742292 
0.10456086976241571 
0.07088640698653323 
0.12033759421554932 
-0.01890216582930787 
-0.12566799473486812 
-0.09699230949443592 
0.020254688245584573 
0.13434982572863371 
-0.07417626817644277 
0.07795686962872592 
-0.14549805512431696 
0.08711802839285651 
0.17694474731542623 
0.11918396346053825 
0.13110000840490107 
0.12757069052457973 
0.09544363357166877 
0.02128908096531501 
-0.10682193294927209 
0.16098031631298262 
-0.06764930432619738 
-0.027271068620763173 
-0.11812430426787449 
-0.06227259430338136 
-0.17799983229870053 
-0.03768953029664948 
-0.10064525769839175 
0.1639356466064413 
0.01992451145953314 
-0.006425675986270564 
0.0023392487931371275 
0.05565019560841264 
0.10491860668525463 
0.13645866928612446 
-0.12052668452389681 
-0.09932736602655423 
-0.10463239686726851 
-0.05102948466397836 
-0.037290670879280174 
-0.07003313669689257 
0.07096477696022555 
-0.026478704198376973 
-0.022572748751977206 
-0.9861701944809812 
-0.0346641383514848 
-0.14362786865967206 
-0.10303145908503085 
0.013954019077078827 
-0.13257058325411653 
-0.11469483716006411 
0.011772261166050735 
0.09998538532771997 
0.05306403498417267 
0.05884909805129687 
-0.02257456534538213 
0.017780453520637368 
-0.11541851212484232 
-0.0064283404034266795 
0.11026173327318892 
0.03499842445850318 
0.01157933506868672 
-0.14688881261456643 
0.17241686398453734 
-0.12786769629506797 
-0.04114053228121908 
0.10355535019830012 
0.026480619917557985 
0.10232827771271183 
-0.15900109872860124 
0.030856818719439905 
-0.1750485161717796 
-0.088927014223307 
0.09113261714233786 
-0.1800561942701277 
-0.08395506612264933 
-0.05208723518934935 
0.09324977784813113 
0.04995460960424514 
-0.16818115722657287 
-0.0035303531278373934 
0.0043918475907265 
0.10541025171865495 
-0.08773575646049545 
-0.1622703793667682 
-0.07668237592749663 
-0.09517589039219192 
0.06665543762628653 
0.11528170611326297 
-0.09196364427197423 
-0.07774814992137405 
0.11683844776300481 
0.05371462620383902 
-0.1442003338937332 
-0.11986609044218297 
-0.13831385133884747 
0.06623452683618616 
-0.16573672866316116 
0.1086793085353975 
0.1271460930744259 
0.02733732355988852 
-0.16507089662156602 
0.06261530673727517 
0.002677934498069634 
-0.044952617201546474 
0.16637885448462156 
0.11925486346010508 
0.11200343714821934 
0.12022754766508861 
-0.07711556011499276 
0.06492688721175796 
-0.02945141151483474 
0.006463313155326222 
0.156490831917966 
-0.0002400654917421591 
-0.17755738367527574 
0.06364996012339103 
-0.11820603872009584 
-0.049729517115364136 
0.054630486661199046 
0.1334302072795238 
0.04131196807839241 
-0.17301183562395328 
0.035095160389517654 
0.11012045129718903 
-0.05026219936255766 
0.1708693413170124 
-0.02764573837555817 
0.03404641265649805 
0.09135721471636168 
0.1833865072477884 
0.08570678182035377 
0.08683625216811083 
-0.039226194613569104 
-0.02182733118930244 
1.0541008620361752e-05 
