-0.13373228011068378 
4.968944934140944e-05 
0.042691363442758375 
0.05298663940956782 
-0.12047222318069721 
-0.09167047228577577 
0.00023753746176655437 
-0.0005033651698568242 
3.602651531234671e-05 
0.18311276562296 
0.15347565548916545 
-0.06601630687466006 
0.03051440328984322 
-0.0034164576653399298 
0.0011134920607147253 
-0.0006276971075311103 
0.07588742795673686 
-0.16959419689937416 
0.02778252768651027 
0.13536103103037292 
0.02243362149532605 
-0.0009058519030715603 
2.167424985743328e-05 
0.09717164308394265 
-0.15127979561674512 
0.029975207164545558 
-0.13628259867059941 
0.05012915529320767 
0.0018853850644492192 
-2.5577077192133513e-05 
-0.03297289047991175 
0.07070541535684816 
0.09331772318959755 
-0.025577259354413268 
-0.00019282809110316335 
-0.0004940229573890029 
-2.8279526655195543e-05 
0.12488838028694807 
0.13275460515039803 
-0.11722210685157039 
-0.12655446837683001 
-0.0006149122856786308 
0.028237538241029703 
-4.540296826195943e-05 
0.07083459896182896 
-0.051777777226059765 
0.015612117634134537 
-0.07859844256514793 
-0.04128112457699656 
0.06888726855870944 
5.9352473754531795e-06 
0.15298088880589883 
0.15961389493528047 
0.19179493168757647 
-0.14083424875215889 
-0.013525279708738392 
0.07822261301070582 
-4.006994334907952e-05 
-0.1386600023560819 
0.02401780484292497 
-0.0011961318491663096 
0.16622635866585303 
-0.02030408530384632 
-0.06230791056728896 
1.5499754309714214e-05 
-0.02230084934652011 
-0.20401922012821383 
-0.07165445063599117 
0.17754852448984285 
0.0018595457530143852 
-0.11411586606241757 
-0.0037878408770960267 
0.2943447689044489 
0.10874229900487811 
-0.0969701417897028 
0.08387122423942597 
0.0010416010290330627 
-0.08589049368644205 
6.843636055349033e-06 
0.3821855006523355 
-0.0640068127570939 
-0.08324990293150103 
-0.1262169912238619 
-0.024298310088639887 
-0.04053947319995993 
-0.991497750256058 
0.29721916534337134 
0.13803493150625376 
-0.022641396575257905 
0.05945044094205914 
-0.026648445372763077 
0.07704030905328006 
-3.5619454145087183e-05 
0.6119032917020489 
0.10278787797818406 
-0.07965889225531374 
-0.03541448689532135 
-0.031205730692303462 
0.027523261865047683 
-0.0038050398090702323 
-0.18222450426947567 
0.02199742330649988 
0.04831473584978841 
0.04572222239559488 
-0.0003757979503752427 
0.01921634113056011 
-8.614960887748774e-06 
-0.36193412374498546 
-0.06598061929273583 
-0.01608934934892389 
0.09760931726820166 
0.0007103454199744991 
-0.10025938003770635 
2.141296792501575e-05 
0.12563547958280294 
0.036741930029680195 
0.008051114811194677 
-0.022338845895182802 
0.017520038173365532 
-0.03526467106273445 
1.224067141316863e-05 
0.06470184624075337 
-0.006088289538339664 
0.004066354903814071 
-0.03450594783548218 
0.0011794843216590923 
0.09996900519895041 
1.3996039582590426e-05 
-0.07141529193926154 
-0.1712604993375379 
-0.03462149036583109 
-0.12457209129496395 
0.0034506279867401587 
0.046996053166668376 
-8.260263843602787e-06 
-0.008233243752068107 
-0.1283790236595276 
-0.09858591713553443 
-0.07521048622955334 
0.00013088523706599747 
-0.01051112957303779 
-4.3354010132254787e-07 
0.09602791177357595 
0.03998241657919668 
-0.14640519696836862 
0.016278758013794616 
-4.1742737171823524e-05 
0.042187002903786 
-1.3828677722686877e-05 
0.25524012460216167 
0.020317410146536603 
-0.15361508895603818 
-0.111588976176041 
0.006975604248003897 
-0.062145777764227 
-0.0002761914700606442 
0.14604126006229615 
-0.04252957508404456 
-0.0502960680682466 
-0.13008051032848406 
0.0030249298889085717 
-0.009510451007831742 
2.3558158617453763e-05 
-0.01776992014700984 
0.016117715987564108 
0.004887481838251064 
0.027664852477549698 
-0.0006787706573551629 
0.03879670081804471 
-2.5323295707104102e-05 
-0.17848934644643066 
-0.06791365937457187 
0.11562127201535785 
0.02198392241795619 
-0.00014286087038956012 
-0.009162217826430157 
1.0282350524339227e-05 
