0.11143756319774355 
-1.7655509292707865e-06 
-0.013298311024544204 
-0.1389223746930861 
0.008977171714884824 
-0.12558954835001915 
-4.502761697868576e-07 
2.1813104131539457e-05 
9.486409704966861e-06 
0.07496770604458625 
-0.052720728809092614 
0.02650408085799379 
0.0102972639601387 
-0.012934723524583672 
0.00014950844484150976 
-0.0004489880665610579 
-0.07181228761242064 
0.0808275820325261 
0.008052415330585984 
0.08075014126133911 
-0.03157885674096078 
0.00023711941914942818 
3.0089854279362273e-06 
0.00017837021069395207 
-0.1369148437037919 
-0.03342786409715056 
-0.19710242741197861 
0.11920011112335052 
-0.0011788323975094 
7.860579278787884e-06 
0.07433319114863278 
0.16066352071076992 
-0.21180209051315743 
-0.2055662935000649 
-1.0584968050714683e-05 
-7.62751037953668e-06 
7.913820500977066e-06 
-0.10844970341495942 
0.02013018891228357 
-0.01628526464453758 
-0.03761166280891369 
-0.00016083196174296639 
-0.012963332786161207 
-2.839912283677834e-05 
0.1180368508008068 
-0.11368542458111452 
0.09592827892813341 
0.12055607490856371 
-0.04418721697282909 
-0.031490631848048185 
1.995786692239262e-05 
0.07970174600875489 
0.09155151083744908 
0.02091407975882514 
0.1536043952626814 
-0.023666732490050135 
0.13341076840744392 
-8.226910112516897e-06 
0.15489103319556394 
-0.07218779280198026 
0.054735362714021414 
0.07926351300369176 
0.015273328811289396 
0.03171005443433046 
-9.771052465705847e-06 
-0.09426753910081513 
0.09883329956745625 
0.0077976581090761455 
0.09687564800249031 
-0.002098998208567098 
-0.12020922041928934 
-0.0007410647664283926 
-0.22714953703682678 
0.1272228698024724 
-0.015695164639409377 
0.03736418411317645 
-0.0006536050706898671 
-0.03683442387780421 
7.473080139579863e-06 
0.02566287315756041 
0.09957482351478406 
0.006921654111879402 
0.12356894586557243 
0.04891841665231027 
-0.0221992759575087 
-0.9975704491234438 
0.002417121033614 
-0.1013431867917599 
0.07128483959096722 
0.09006662813282852 
-0.06240123247433281 
0.0496119433703468 
-3.4314572632622815e-05 
0.045107133155472996 
0.01942708027100799 
0.02655954953034594 
0.1000717456278343 
0.0248237529656406 
0.02180120026264833 
-0.000719775540458501 
0.1357214667626219 
0.16314273009746616 
-0.0881351116640522 
-0.044328509818828216 
-0.0002745571945170705 
-0.012461397742041708 
1.947339468195438e-05 
-0.028413326364053564 
0.007641472879135996 
-0.009440264913133224 
-0.030117246123044106 
0.0003022853259224203 
0.02459638709879684 
-2.0958327858830452e-05 
-0.05304973291827758 
-0.05394636082240363 
0.029539686942206666 
0.03185683203434663 
0.04955082892437208 
-0.07371156117568221 
-3.5827057184664744e-06 
0.12020657939110943 
0.02787889956094328 
-0.003253203602251649 
0.04465644301294016 
0.03159582513311904 
0.09680062313612359 
-8.795324972400434e-07 
-0.1445234634576728 
0.20623878821148928 
-0.017917062074365164 
0.1138343771898029 
-0.01593949661045933 
0.07360542983752554 
2.7750386672133764e-06 
-0.19870719169031842 
-0.12426486250469757 
0.05803479335279148 
0.02253998149012157 
-0.0018268203591191746 
-0.12155800366605254 
-1.4954568221616702e-05 
-0.020701158174599336 
0.16861017175938417 
-0.06376411356293624 
-0.10475324487459449 
-5.081196848147963e-05 
-4.0712007387738336e-05 
1.1383517921156038e-05 
-0.03282254282842799 
-0.10729164226943197 
0.042449662012297454 
0.062374555352719574 
-0.03805218994078357 
0.0001994921313863451 
-0.0004663033024617311 
-0.08793491169209214 
0.026287955455586803 
0.003044532396708695 
0.01612282473750904 
0.11358527997351658 
-0.00045982191539165735 
2.894099822171448e-05 
0.07730272199332967 
0.03118858729134501 
-0.028979234602013532 
-0.07024437618552862 
-0.1880944852810073 
0.0007902109563148275 
-3.198516951806273e-05 
0.13593665663404772 
-0.11880213041708723 
0.021398372264201156 
0.00651914762941291 
-6.777856931503529e-05 
3.113679995391132e-05 
0.031497208213237274 
