0.1569825257546593 
0.10922172844612085 
-0.14945927232932868 
0.17489834139100705 
0.12820449698527422 
0.011559418756348555 
0.09555354767148475 
-0.18184899814270988 
-0.12842923000057188 
-0.17275016486686195 
-0.08132378867659465 
-0.11001014966477933 
0.037489882139808944 
0.05353566288517983 
0.0745224410055492 
-0.0005543147090055577 
0.09159160377590139 
0.16620463540833566 
0.060846917266504985 
-0.1491106425567914 
0.08133412284565902 
-0.12944007956483927 
0.11082774160387024 
0.038878024841428716 
-0.16203783792081802 
-0.09279663174888013 
0.10958671694572478 
-0.14721956520549254 
0.0821323620668282 
0.0523750618606412 
0.08342174130377691 
-0.10025148437070501 
-0.08663833720548733 
0.15035595606265803 
-0.04785785142295021 
0.15252197604511783 
0.03746325888418103 
-0.04573946728982231 
-0.0822588128818918 
-0.14507163941258144 
0.034441282853156924 
-0.1542669528054837 
0.018508591598685287 
-0.0498870538387052 
0.009363632992709259 
-0.01928971930192941 
0.013178535652381917 
-0.01073737574512773 
0.0045315521886595544 
0.004803558241409739 
0.09176732061558637 
0.04631358031094718 
-0.019155429756974762 
0.10417951008193652 
0.1421348728010253 
0.1347530115836673 
-0.16399054867561214 
-0.04752519209192699 
-0.10396725784429496 
-0.08675300382425347 
-0.027826615311715125 
-0.06751141207374957 
-0.12278129041025171 
0.13884261413668783 
0.07100115133258614 
0.011996981156826486 
-0.07507650311989113 
-0.17301732291826116 
0.07723537661944876 
0.13503311418581695 
-0.12211954419067453 
-0.0010821048980436665 
0.11393218922174939 
-0.08795450303100084 
0.0003518591272374527 
-0.03569174194195221 
-0.02332245088596896 
-0.053778619461706756 
-0.06303068154100668 
0.08714751267106854 
-0.16399270015903902 
-0.01963912444696847 
-0.05506377423318207 
0.14789085892195372 
0.04611318569534548 
-0.9968536497680253 
-0.10008615191469944 
-0.07813487011377004 
-0.09798408502649504 
-0.04450241939461605 
-0.1156244747995832 
-0.11480797548332339 
0.1501618843474927 
-0.16527316121785188 
-0.04977427250061428 
0.017809519198735524 
-0.1799939582648269 
-0.005325676978700039 
-0.05856526489837427 
-0.0010827894067300594 
-0.10093590905507656 
-0.13000192449999057 
-0.08300633878047028 
-0.12336008638952764 
0.08585049623300603 
-0.03261660667263197 
0.14640222037598585 
-0.08738422328413974 
-0.09205191984445996 
0.02514651994293246 
0.12807891241500782 
-0.09191300869476168 
0.11142383878565307 
0.1003577958153247 
-0.051991847183947865 
-0.04840762195442688 
-0.06603528448349741 
-0.029022414392630175 
-0.11250657393702052 
0.09217181793361759 
0.12732555991659353 
0.04102129460757328 
0.06056837853019381 
0.1347291908589857 
-0.17174637394981498 
-0.10709232687291512 
-0.17217703209120983 
-0.16832350616376668 
-0.026523430229671657 
-0.11603639895439309 
-0.11148669514660685 
-0.12407667841297364 
-0.08848737251716264 
0.09008700703348813 
-0.05876121016025668 
0.08162213094238727 
0.1195382330294171 
-0.1436168174594851 
0.07929078422739291 
-0.058917116800287356 
0.10445593194019784 
-0.09839632402284523 
-0.1636963990126872 
-0.07329810217152265 
-0.12092567980023185 
-0.014114137678253591 
-0.13995914956205713 
0.07240515063831418 
0.16955348393584754 
-0.07096629644407075 
-0.03500064755617313 
0.08969345305356866 
-0.12091383165853976 
-0.01942184532527666 
0.06258619679254002 
-0.00042539979447817457 
0.03676495031257987 
0.13421702136616478 
-0.16327290858903543 
-0.17735070123247063 
0.17040008149390853 
0.1490629843167389 
-0.05292162246421456 
-0.046968862744497325 
-0.08955998109736842 
0.010991382167897995 
0.10786653679216826 
-0.04572484106084085 
0.1286089851255485 
-0.011996431877847713 
0.10242993669335312 
0.07276011825388282 
-0.10225456724699226 
0.015380622648042852 
-0.1132668547346643 
-0.06687512311532913 
1.3038420942988982e-06 
