0.00521890849802234 
0.019055936158842324 
-0.07667110865257219 
0.04342388272147821 
0.13574458619973415 
0.04807776753883666 
-0.10698245777393918 
-0.12584757357861381 
-0.030504242560494027 
-0.07483327521353576 
0.033527625379806636 
0.07058117571905095 
-0.003239850874070943 
-0.1338397294624889 
-0.12049102319966852 
-0.00043563635497751124 
-0.106011073419861 
-0.043863886518236056 
0.05720915728921211 
0.07376868539550382 
0.02805900112346202 
0.03498102116996965 
0.09166749291373019 
0.06234266440417929 
-0.13770367335654346 
-0.17571964214750135 
0.18022874337533787 
-0.05674280134818763 
0.14578262365681818 
-0.0409917876396822 
-0.0246774648663296 
-0.17917165652894881 
0.15775026220276708 
0.14701548718074067 
-0.1837414687118918 
-0.06610081743424363 
0.1839615480137123 
0.17182430061515833 
-0.11474860581284632 
0.14138040875838961 
-0.08085710500976129 
0.16524740655506057 
-0.05535498215953616 
0.11665104041820765 
0.17101494181445662 
0.03845325040233277 
0.012434792545425483 
0.09483416069760289 
0.056375910794375705 
-0.08403439482759814 
-0.0042441046117907555 
0.11450637133016853 
0.005446051494419679 
0.030907571484378504 
0.04477048621638016 
-0.014858579689070728 
0.04772249222927147 
0.1742997119836208 
0.18318917715419694 
-0.1154461529468877 
-0.1768493969516119 
0.03341713039125238 
-0.050618127996467616 
-0.09944974123329842 
-0.0811333400367915 
0.010510561326298018 
0.001332516783579235 
0.048249152448848615 
0.050708863290651385 
-0.07810308236369687 
0.12163359925585929 
-0.0010992552040415505 
-0.14977902495031054 
-0.01640931224666259 
-0.019063707948862335 
-0.11588450129857289 
0.005870042022076305 
0.061939730665572734 
-0.009012267077770059 
0.1003100812361388 
0.18364914909057714 
0.1401623704401406 
-0.10107304365523079 
0.1785591603686398 
0.08146900323908315 
-0.9968217518608666 
-0.056385984511466786 
-0.024791438262174503 
-0.08452239922165594 
-0.08060958729422685 
-0.053256615050481376 
-0.1319648303996633 
-0.07193118590738919 
0.09748267826398879 
-0.03914641259361956 
0.011138384965637349 
-0.17323388382657293 
-0.032299432162115255 
0.0286115807777306 
-0.0010933555858011982 
0.07538221355997485 
-0.09574852345129596 
-0.03358343432065278 
-0.08242666270368497 
0.05211201103102148 
-0.0077131726626648855 
0.09678907272406503 
-0.11789205491842591 
-0.16264745936230718 
-0.04698498201151827 
-0.042052654525665284 
0.16505461905289928 
0.13782678443242077 
-0.10256070944930293 
0.12856461698521102 
0.08163260914330892 
0.0468530021465845 
-0.03174828759863377 
0.087933699757383 
0.0164065901192382 
0.08530010872497276 
-0.017727260099055203 
0.023020744227845114 
0.16899288138715127 
0.0019292665943088372 
0.051399843158236536 
0.14600691807723856 
-0.0785205126347648 
0.11555733724252623 
-0.0030483676058250253 
-0.13278927658920098 
-0.0903504213500437 
-0.06528985207456256 
-0.008591903220238478 
-0.029653678775075937 
0.12241581058962767 
0.17092113982972676 
0.12533491828966045 
0.12045911660167793 
-0.17332469363490285 
-0.0006685908989246814 
-0.12359892631792879 
0.02704238767778644 
0.16388738027289182 
-0.07737096033409843 
-0.1716667858429548 
0.1780577378727848 
-0.04342466515624713 
-0.1688421714120858 
-0.15533540452109504 
0.06614928595477201 
0.11968634728089181 
0.12254618657910074 
0.03527504480955623 
0.13497023296037028 
-0.000541989676904123 
-0.12613994936162082 
-0.1632003922011884 
0.10621328413233797 
0.15475339713072864 
0.15779005021289613 
-0.1726961557952482 
-0.1822323671715689 
0.016865442991253504 
-0.012065672204858463 
-0.1213745248171079 
-0.1391827129729004 
-0.14659296809432762 
-0.12119768525536169 
-0.10089478345513436 
0.011720023951350078 
0.1366502332770375 
0.0014088446342011562 
-0.07160450237375475 
-0.0920800223169827 
-0.0021503002230550683 
-3.0486068521666323e-07 
