0.02450851652217066 
-1.1854402920791345e-05 
0.5176447405787119 
-0.09470724708401221 
-0.1413146048980823 
-0.030402357819008602 
1.7638148678153738e-07 
5.121051271023203e-05 
-3.0385938645844347e-06 
-0.19626068913104563 
0.06501702035540556 
0.10262433342121316 
0.07554557943985846 
-0.026637762946540054 
0.0006615876615680128 
-0.00039107236603705734 
-0.14955916780014547 
-0.10899631469157157 
0.12427457148429706 
-0.06823792519995495 
-0.008583632086702622 
0.00020370612535791554 
-1.327308552933711e-05 
0.3534720901669109 
-0.07970148180138338 
0.08850595871905327 
0.0956785084460916 
-0.012551420820697063 
0.0002760444211926528 
-1.5822350628041177e-05 
0.054503092220970925 
0.017709886037909198 
0.1385800355646162 
0.1336142357908079 
1.825265882436182e-05 
-6.501800632395948e-05 
-7.1267445109252435e-06 
0.025045720743024767 
0.03155047936349031 
-0.078106014640545 
-0.03524480759122699 
-0.0012658888660188735 
-0.09285609200615119 
-3.305641428689079e-06 
-0.06845292879298708 
-0.10842573504692406 
0.02194043854762796 
-0.10567734001475575 
0.05019833789623554 
-0.03083594215617904 
1.1803013562701455e-05 
0.2514728052740332 
-0.025952074164060056 
0.00934255190670345 
0.04849688912682519 
0.02978979868568001 
0.048429473658776416 
3.760348576405822e-07 
-0.014785663807680397 
0.002309180721931729 
0.05273736794822451 
0.04797020114674902 
0.02548988018991391 
0.02944932840518408 
1.527508433882555e-06 
-0.2594719729426629 
0.11127107538492624 
-0.041731307974125144 
0.00429085485496438 
0.0005752621641932149 
0.043883548254842676 
-0.0018695115033045405 
-0.04253200120260387 
-0.0665571923183056 
-0.07602296196092333 
-0.1668316367262881 
0.0017867337351701932 
0.1153931426029329 
5.1910163686724425e-06 
0.2275305391771331 
-0.09025166811294416 
0.006194515371200932 
-0.030706479601239033 
0.12095959939524306 
0.0646956764007253 
-0.9952695441109525 
0.10684693046514326 
0.1591052216706437 
-0.11457202370390938 
0.04717715073951966 
0.023508645348703054 
-0.05855547999152752 
-1.0862834244371731e-05 
-0.05444315689424297 
0.05715351577302608 
-0.03186186774658911 
0.006695948756633726 
0.08394717767892529 
-0.06768244493878145 
-0.0018646462183438844 
-0.12330330982225095 
0.1298809670954051 
-0.016987230932017337 
0.08142183411864096 
-0.0008506145030076028 
-0.057125742304497115 
5.583312470768244e-06 
-0.19529274528480636 
0.1632657404230542 
-0.024689004829998487 
0.08569399266170691 
0.0022164644813862902 
0.12962905286993315 
-4.2441357111463506e-06 
-0.09261819145127728 
-0.026709664931114294 
0.03530947252912431 
0.005753081849903707 
-0.07024429654439744 
0.01929249415764305 
-6.890948827836694e-06 
-0.06742720065798706 
-0.00981780578275684 
-0.018815782240035682 
-0.05174337164763776 
-0.04098763662647582 
-0.02163900724828058 
6.9701058972192436e-06 
0.1406131037359377 
0.03779091686083655 
-0.006630615777586233 
0.05774115753427149 
-0.03524796907942628 
-0.017976625839123114 
-4.531980873214669e-06 
-0.006618542047597208 
-0.07272530874989248 
0.13589930228393474 
0.12616923492365745 
-0.0018071308444202682 
-0.10751610684800891 
3.382152654238234e-06 
-0.0006177569956586236 
-0.05426658680323754 
0.03687270536725762 
0.012061006017390241 
-3.279238477775266e-05 
-6.010236346778578e-05 
1.531958544116699e-06 
-0.0941000798229674 
-0.032855930731160096 
-0.07284432929860621 
-0.18307937711342318 
-0.10346887470657554 
0.0010235544676152155 
-0.0005813467606884488 
-0.19394761107680505 
0.18231038757128204 
-0.053947536604640633 
0.04587325048480267 
-0.014713373381732769 
0.00011681866131060932 
1.699248230730158e-06 
-0.03360334608226502 
0.17986373222106283 
-0.08774456745124928 
0.015042814018218277 
-0.0857961343962363 
0.0008156879755111162 
-1.4551668327967463e-06 
-0.09563252986193578 
-0.03173580705798962 
0.027465484528630447 
-0.0016426726645435567 
2.5925165199095143e-05 
3.0778424911994935e-05 
0.02183339539862208 
