-0.1690877591126268 
0.046467326992763874 
0.11159289638636402 
-0.10961854045891618 
-0.09793594315189316 
-0.041506597006453094 
0.1764228123931529 
-0.10490105282225491 
0.06286441789156208 
0.08507211952889734 
-0.07995496886226443 
-0.14227473972727664 
0.10527142050047453 
-0.04102300434439482 
-0.004572824490301636 
-0.0004520678914452913 
-0.1115482152302448 
0.15308906129878283 
-0.06999527722138446 
-0.1034431583599466 
-0.14495808931344853 
0.10427582385186543 
-0.054587117588136724 
-0.03900741091017307 
0.16905399566878695 
-0.10656048720731433 
0.15498002709924283 
-0.03838956274373684 
-0.059886076720926884 
0.16692942924757562 
-0.04303319802300176 
0.0467140334879583 
0.08252308569885922 
0.010809361028255055 
0.15201311714085888 
-0.03784431780258293 
0.12095962591037276 
0.11996997952639263 
0.09977079716066464 
0.08710421351333394 
0.08740830576362088 
-0.051522503358697125 
-0.007283738876513457 
-0.0038407701890793844 
-0.12559707668003625 
0.016428859137842783 
-0.07771661201725912 
0.1783172649745491 
-0.12205133199613985 
0.14910750450058644 
-0.021956521467453832 
0.09936575290302821 
-0.0952324579884446 
0.004199396574607717 
-0.13192029561036656 
0.04076580466717941 
0.17815792208931916 
-0.09007876594845493 
-0.15475776628890342 
-0.010187357461966168 
0.08022514869812011 
0.1299239089303693 
-0.04748721062611702 
0.1517498707810694 
-0.14261087964251118 
-0.09791477425194438 
0.16337521938437624 
-0.13368094246061007 
0.08410034303701078 
0.0020356397432042816 
0.03890064009035213 
-0.0008947454125578806 
0.06884394600300289 
0.1361296228087245 
-0.03570457317150183 
0.07699074249064722 
0.0529722573591527 
0.020686318780001156 
0.10960023546604433 
0.08643094939518794 
-0.1454862241976647 
-0.04943645346605505 
-0.026441650780223258 
-0.1454332765413069 
0.0012068165210470105 
-0.9972494245902694 
-0.10127335420970397 
0.14596677401129007 
-0.15443600799264565 
-0.025967489017917095 
0.16902101430394098 
0.11742081730239742 
0.08390978286756831 
0.11091886607224596 
-0.030237440077293093 
-0.10831005391515376 
0.11981826533065928 
0.045642557082297225 
0.17845875915591017 
-0.0008809141991263965 
0.06786891744827447 
0.14563991992991795 
0.11997776943953734 
-0.061390052913500276 
0.04039304757597048 
-0.18220970704509495 
0.019401791930146906 
-0.028348693230263733 
-0.0896254183776346 
-0.06774990281880229 
0.08594017743904622 
-0.1292662075052575 
-0.039952007107498966 
-0.04732733620863999 
0.006906309505236463 
0.18304064175863874 
-0.024900466419000677 
0.052562802768799766 
0.06592335064457386 
0.06221048826552647 
0.01310384638287479 
0.11299142553701544 
-0.07548085909677468 
0.14642075083394243 
-0.13869637927367162 
0.006260933518163092 
0.05257376750703202 
-0.08791382919168098 
-0.053585090501521354 
0.15310346300907637 
0.09363237643407005 
-0.13985554350236104 
-0.12123328939924122 
-0.15461573288453992 
-0.17324646054219722 
0.13598429110408458 
-0.1053088974294627 
0.16257269141645234 
0.005105316806435833 
-0.0220268636402077 
-0.12099669638422261 
0.057924635534454066 
0.170456775145885 
0.15994001845652292 
-0.012279573256272436 
-0.15361577877374416 
-0.025386931532199203 
0.12281007845823314 
0.06311744036589689 
-0.16501147691618973 
0.04948078137926695 
-0.17516973164202726 
0.07559854964513427 
0.12682406355255146 
-0.1293664822283615 
-0.0005203709494702504 
-0.04775833808913579 
0.05304046244577834 
-0.15543293050846865 
0.12952214294874984 
0.00018533576267815155 
0.14697159467760987 
0.0157400289917147 
-0.05072823080293784 
3.850521665460516e-05 
0.1125504299687212 
0.14164416769207824 
-0.05597537287811291 
-0.08343874987991509 
-0.018090344528535057 
-0.1350615467193564 
0.07010436343434553 
0.1371357599484754 
-0.1445801808521844 
0.1723233766377301 
-0.1778535808358598 
1.0776392550833009e-06 
