0.0027149283951893397 
-1.3799545155486893e-05 
-0.026426017465878134 
-0.024348363429679887 
0.006318436985134049 
-0.022888206852107677 
2.2753361072825594e-05 
-4.316403155021801e-05 
-9.104420416738194e-06 
0.029889033201727835 
0.012707997317882668 
-0.11396523778729044 
-0.11612903372874045 
-0.007266042106364747 
7.722760366918194e-05 
-0.0004486678503123562 
0.029651451122177645 
0.02712895450416846 
-0.015381861769445731 
0.015655753425159857 
0.02914587694976742 
-0.0004000084122425728 
-2.8578940865285864e-06 
-0.14723890943834123 
0.06936315172056841 
0.06328862350766533 
0.11101446440549428 
0.0274230531800494 
-0.0004275810499079121 
-1.2921067688659418e-05 
0.09411710654794213 
0.14572540054953406 
0.015401348776809378 
0.1856341908895799 
3.602815626777528e-05 
-1.9328439249495224e-05 
5.762317436653229e-07 
-0.16277293538411597 
0.13339209910925784 
-0.17941098460714716 
-0.165277523804131 
-0.00016912627322532251 
-0.011906263964958617 
1.1413534220743482e-05 
0.16748728536727533 
-0.02406813448914181 
0.06516914322992606 
0.10733363769370652 
-0.04482304403587042 
0.048213969801151654 
2.8474308499991478e-05 
-0.14826001602228184 
-0.15582522563424103 
0.15834827636341106 
0.0462450609919379 
-0.03981932085988185 
0.05713867244933626 
3.878949677156761e-06 
-0.013055952819066047 
-0.03962593141363006 
0.011180021056133787 
-0.02590156020794304 
0.0029030804617205023 
-0.04768901045141494 
7.220999624341454e-06 
0.14053632897890447 
-0.16894263167980778 
0.09519319632227922 
0.0009361810736989106 
-0.0007371473382150311 
-0.04479880333562532 
-0.00110909249652126 
-0.05664667772659063 
0.05486804539428415 
-0.0961094030914986 
-0.12963440360605108 
-0.001048730990849206 
-0.057129349404856325 
-4.541808342456698e-06 
-0.05194455324373433 
0.02628622806867621 
0.039301851920063545 
0.08653973730336234 
0.032663109811254955 
-0.051429497353903196 
-0.9968072774103534 
0.10598634717369972 
0.1250122219389968 
-0.06849060025311558 
0.023072058735666985 
-0.035758786667864036 
0.06216453300762137 
-1.4379454155996585e-05 
0.13444495131969086 
-0.14621888278940534 
0.03678790212069113 
-0.05271175080466423 
0.01513027190421338 
0.050959901670624655 
-0.0011089365021462456 
-0.16271103602959713 
-0.07043722320204159 
0.13569730473932956 
0.14090255333955706 
-8.17252962273584e-05 
-0.004634020148674468 
-1.9926571851799356e-06 
0.007755015314949985 
-0.08980574367845716 
0.03522154032708959 
-0.011070704532714255 
0.00041108150371005803 
0.02423066631345258 
1.3592054472269483e-05 
-0.07547971890257293 
-0.042537687660083034 
-0.012356990613551463 
-0.08487944947861378 
0.05681203107237399 
0.00077411761775075 
-2.4753691735709704e-06 
0.09923194541691024 
-0.10670376457147829 
0.046444662298748295 
0.015341921950499967 
0.051225594519695036 
0.025665177755188763 
-4.3446356938533015e-06 
-0.09080899260159755 
-0.06283000844176174 
0.08360139085436534 
0.10199028390754651 
-0.004617247143178312 
-0.0011799315354479446 
5.23933085275183e-06 
0.1764954184795542 
0.07621005316664912 
-0.01098880980919788 
0.08792595263772426 
-0.0008768558592251891 
-0.050252662239930884 
-4.589888246048328e-06 
0.10426679873804662 
-0.04813560927467493 
-0.061590906729427915 
-0.19118000285842865 
-6.4994283980949675e-06 
-3.4508658139854385e-05 
-3.394511000054458e-06 
0.0013433795216510607 
0.11882943070851086 
-0.08804514079874298 
-0.1166919840037071 
-0.02879399069780966 
0.00013784694297739775 
-0.0005397754752135192 
-0.1750624902164584 
0.0718493993394257 
-0.07087539815174675 
-0.15504041009537903 
-0.0014470101699493123 
-2.229598670510557e-05 
8.560566711258164e-07 
-0.04483857711298491 
0.0006662403432843749 
-0.04597248355016049 
-0.13191030928006137 
-0.05965999190632163 
0.00038461966474808985 
-4.356692265312662e-06 
0.14875587735265122 
0.11451308087791558 
-0.027080839312663228 
0.07335496872090581 
-1.1979866502940758e-05 
4.478753559893527e-05 
0.014389210504749712 
