-0.16070564583839175 
6.635694176427532e-06 
-0.11675845542078638 
0.027520769547637974 
0.010351704539452944 
0.20762105616304627 
9.905788219852051e-06 
-3.855940275769194e-06 
-2.5572445669567863e-06 
-0.03378647048956916 
-0.11260639831339272 
0.006631035997256407 
0.09006567733787406 
-0.07350774904987432 
4.70817395831571e-05 
-0.0005185042228233981 
-0.06252090320455037 
-0.051925009156038246 
0.004583081067524667 
0.007688526274654837 
0.1048895237989269 
-3.195439991019517e-05 
9.073368404135759e-07 
-0.05859913340268025 
-0.17884752506934629 
0.003335845555934193 
-0.17045072569107667 
0.14253111758619752 
-7.038857797883011e-05 
2.562478657207544e-06 
-0.08034347389378609 
-0.014871850174338523 
0.0033921085578118948 
-0.04279186970652176 
1.2147099583232325e-05 
1.4620741529905148e-05 
-9.758942442167427e-07 
-0.09455841386196055 
0.06306921584365036 
0.003051490683990892 
0.14537045700025747 
9.86394942889023e-05 
-0.03690490370238679 
3.2448894587701873e-06 
0.052689407084623135 
0.12046539341072546 
-0.0011585764393876354 
0.06209707446423432 
-0.037340743805981555 
0.05273118741780564 
-9.726718130530873e-06 
-0.0802392044175178 
0.11293122395650089 
0.0026244371129358047 
0.16167300666202714 
-0.0044064372947633015 
0.10849937465375614 
2.894305582897588e-07 
-0.08284617178946288 
0.07341755206703787 
0.005493303307647253 
0.017432291449547072 
-0.09067007306494562 
-0.05273216318558706 
-6.409929036073487e-06 
-0.16521086675940946 
0.18522965913109465 
0.011019668744280122 
0.08219099620517671 
0.00011924569794206085 
-0.07163666378467834 
-0.0005197263185913958 
-0.07689186894531286 
-0.030213684611449455 
0.0025076843102786648 
-0.011541977295282415 
5.312692589126845e-05 
-0.018952720629082456 
-6.515416580372345e-06 
-0.02526539711018606 
0.13925816174092095 
0.007242777373067189 
0.062156697092998134 
0.013108914418929463 
-0.0020713256723765656 
-0.9979184714431182 
0.1432518770337116 
0.051612814609991196 
-0.010845780020725894 
0.10253512635546587 
-0.2299271025204663 
-0.0273795398508676 
-1.4384454095913234e-06 
-0.003894282183973317 
0.13694156614354566 
0.007456463102786101 
0.03933693322885437 
-0.20549203387426593 
0.0018730681176322257 
-0.0005388870158371368 
0.10497357109716836 
-0.12256813954922251 
-0.00838573567861525 
-0.08725981486423702 
-0.0002583388413206019 
0.04601806525301194 
-5.59680187240412e-06 
0.03642970682030937 
0.07793640485799314 
0.004577010500030525 
0.025569274326053066 
0.00028012912392352845 
-0.03113624603765409 
5.966349303207504e-07 
0.0989559432394862 
0.17998212482117565 
0.0018971106327027249 
0.1206154321344405 
0.03677525486268405 
-0.06589629871237732 
9.374211064807976e-06 
0.08251878835407368 
0.015040267685291212 
-0.00892278098088715 
0.04991533530900504 
0.003924901155104411 
-0.0024794216322699264 
-3.9797499472759746e-06 
-0.13361131154796477 
0.18118182526786797 
0.027013909313434836 
0.026040202568383106 
0.08744331658429873 
0.0661209226808825 
-1.043133889226037e-06 
0.15099308257065405 
0.12086136590869477 
0.025941968262632974 
-0.14862413794200685 
-0.00026142961085405384 
0.033610742674969385 
6.211035262977868e-06 
0.05106098169878286 
0.03726060066567227 
0.0019646752445297336 
0.010066753789608238 
-5.276072501690017e-05 
-1.0623136473580719e-05 
1.5016794328056417e-06 
0.14818934613738566 
-0.14348957439175924 
-0.05773743575170072 
0.13009129170770553 
0.05680771531887106 
0.00021076658492277233 
-0.0005005775711617194 
0.007858123485841676 
0.025090242248813458 
-0.018882897513286707 
0.12756287548299836 
0.12016143610210034 
0.00037317382822488123 
-7.2773322968745565e-06 
0.08848426634469923 
-0.13016668886658475 
-0.06408608675834518 
0.1971993227766876 
0.061316917739400484 
0.00018151667235228312 
8.63698179881242e-06 
-0.02651599039370874 
0.08294970962918148 
0.030341835639874196 
-0.07733560755734495 
2.2830396038367845e-05 
8.467910616859489e-06 
-0.0037082517415749573 
