0.07294649029853237 
0.012646121943070937 
0.068539414497893 
0.1691964205478356 
-0.1750412841720385 
-0.02728290939172301 
0.06469832637795742 
-0.035342275312510246 
-0.1588916628029687 
-0.06697141620509 
0.12627059511334768 
-0.07510600295687654 
0.1562477294814519 
0.16441202838343524 
-0.13845961610071075 
-0.0005164963329745561 
-0.0980246736917322 
0.10805730786722598 
-0.09713753693797304 
0.07103757416953774 
-0.10581714673254068 
0.16886602670334003 
0.050809844567213464 
0.10724541461829415 
-0.18299805268549724 
-0.10138255181247563 
-0.030685104470249996 
0.016638725682019045 
-0.08753315842438165 
-0.07094776711559467 
0.1380886476218162 
-0.14749183254272075 
-0.1104595380706141 
0.03183770296215932 
-0.1632803835126622 
0.15630436077631052 
0.07098214700128427 
0.15212520108638197 
-0.08129219213264365 
0.17568947197904541 
0.013084872307600304 
-0.07995854614897126 
-0.10841995200834063 
-0.17943562778319175 
0.061529220487273995 
-0.08746557728415667 
0.07732175846084752 
-0.13663680645208423 
-0.10447441347030267 
-0.17084129284484445 
0.022691181516123232 
-0.09064688786238395 
0.10415034267161102 
0.16541896853624707 
-0.11826777539494254 
0.13912336775283 
0.07289717463118953 
-0.037201229081222614 
-0.17538043696677438 
-0.04974643307372609 
0.002857169474685395 
-0.07048369119957383 
0.07885197758781862 
0.10728828232614437 
0.16356211450596783 
-0.18013706116526662 
0.13369451876347496 
-0.05734180036584771 
0.07988504998297294 
0.06179676549846186 
0.1675836229143057 
-0.0005232257991444086 
-0.03084583164328794 
-0.17497265279749674 
0.11250504203015524 
-0.012160242483818307 
-0.11587873496102707 
0.07961651063452638 
0.1772641325408014 
0.13453391902441073 
0.1181415005989229 
-0.017667587900689424 
-0.07768774130351007 
-0.15249355553650823 
0.10559629515317051 
-0.997934953068671 
0.05610528319803723 
0.04104616984373102 
-0.06719021215809207 
0.07265726322571162 
0.16474695475936527 
0.04165647846045745 
0.12475354991435286 
-0.1763478024370075 
0.13027778494362433 
0.10114716138037247 
0.14063303919925232 
0.11294697589076338 
-0.0852635628277857 
-0.0005265741390013477 
0.025476042332423898 
-0.14725092333097536 
0.15459008117196618 
-0.11022991580566474 
-0.15818190765117476 
0.043590524228853955 
0.15487289451354838 
0.1756577020035164 
0.16369445659591222 
-0.0069799113639095745 
0.1006182300172547 
-0.017540394379022384 
0.1149952952322841 
-0.09248375555695802 
0.09506747233866034 
0.09843873632977798 
0.02963202493851047 
-0.0013132727127759536 
0.052658405791794705 
0.0719640225904862 
0.07113938737453626 
-0.012077011862091369 
0.05925233011148623 
-0.023257738207083628 
-0.043454819439735864 
0.11934326544568294 
0.044851090619323825 
-0.13268803065984797 
0.0813796844470984 
-0.022843770342687225 
-0.16139940563079166 
0.16301860342995153 
0.0895091531961966 
-0.16948246704473202 
0.06492149179606899 
-0.14890684071236066 
0.04957572359965384 
0.02980164087405565 
-0.03663925481865982 
-0.018132572375614525 
-0.14888476490974592 
-0.18009397159522259 
-0.06345330830187758 
0.042511810346915174 
0.13126392053896677 
0.1612022925155809 
-0.12590193610104133 
-0.09023114247053748 
0.15769345021952172 
-0.030049780261397485 
-0.010257023691701894 
0.09335243722887462 
-0.11323524882578272 
0.010206091862209749 
-0.0857121285246668 
-0.0005006589502692833 
0.05220087113340474 
-0.07473125774483054 
0.1099546090919595 
-0.08346350712864561 
-0.11291697005588612 
-0.0031152335902508432 
0.10535624973146837 
-0.052230960438418295 
0.047789229965925606 
-0.053268597660759975 
0.03453210391302436 
-0.12512706942506913 
0.18165570664589406 
-0.14573263420284124 
-0.026722252955004133 
0.05942912283597712 
0.11142193670127623 
0.051554974210767934 
0.08784106035745345 
0.01808696944853802 
-3.881356091216006e-06 
