-0.12566554437038713 
-4.8393763784973035e-06 
0.02323721337099365 
0.13020131380846073 
0.02309368561306379 
0.09011368532215515 
7.61032790109614e-06 
-7.658632473439927e-05 
4.599288744974422e-06 
-0.0647188852464998 
0.055044900975866465 
-0.011546181415885988 
0.08786852375798954 
0.026609055880705692 
0.00046709429308683506 
-0.0005787117829356333 
-0.0344891964859983 
0.06824584575108981 
-0.04230172017137154 
0.13625181506482487 
0.046387329755939996 
0.0004288908098888341 
-1.6341034951059525e-05 
0.03137407361165679 
0.1376647390362311 
0.1263457637105331 
-0.05363167451169985 
0.004182782807368279 
0.0001378470615654901 
-1.8726713184975713e-06 
0.10974780625935371 
0.06054316876135996 
0.12700135288740333 
-0.15011798895995712 
-5.8186511010814015e-05 
-2.6190240432165654e-05 
5.485122033939585e-06 
0.007838211308856636 
0.15803572487728748 
0.0015563212867036615 
0.0914517875015196 
-0.000701255172932313 
0.043828511670054617 
4.110647225529414e-06 
0.10872454029688937 
0.08486504648710257 
-0.024761014782567165 
0.045633333942603264 
0.045089950689674904 
0.07619921699606967 
-8.29701732913459e-06 
-0.13513795608535856 
0.08168660786537112 
0.1782824246455938 
-0.16512157652281464 
-0.005031897358596345 
-0.03666776833439037 
-3.1104689820433016e-06 
-0.15351377948683628 
-0.1263910743286832 
-0.11389739114696858 
0.09663020809055477 
0.013005200120360518 
-0.07616453221480002 
8.76071612129401e-06 
-0.031405604011122856 
0.06826811609434277 
0.15621609077864113 
0.009671883702850857 
0.00015379186389457257 
-0.006548894765691808 
-0.002584704434127257 
-0.0429176019790573 
-0.15161488179552599 
-0.10894746572805533 
0.023212996599627767 
-0.0015018579477135343 
0.11311955519650882 
6.219235085322295e-06 
0.04964473053651081 
-0.17200471197535888 
-0.05320947660399733 
0.00043120265121844234 
0.010438823506200762 
-0.006670407237539834 
-0.9938722932012931 
-0.13519923961739816 
-0.09577555979853648 
0.07104055808356595 
0.01095165116137401 
-0.02754227214906069 
-0.07089937762063372 
2.321856404545284e-06 
-0.06540158633014763 
0.14309373909664289 
0.08888068275966347 
-0.07217170539056553 
-0.0045649888836481875 
0.006346996580641841 
-0.0025809810694525687 
-0.028680232678367962 
0.14631758099985 
-0.1790503152786275 
0.1353566633894025 
0.0005603214211713778 
-0.042381920270454565 
-1.0178278498574559e-05 
0.08304919049354516 
-0.042279582077619275 
-0.1201858212747013 
0.01667900213060007 
-0.0010382304713101695 
0.09294650931275139 
9.435642657898301e-06 
0.05228302422412653 
-0.18057211579313234 
-0.023271627824947592 
-0.1804919638390138 
-0.03241267713166297 
-0.007807635082748018 
-3.018423744563331e-05 
-0.2772957013265639 
-0.06717817696438017 
-0.02766217543073246 
0.040556083715805505 
0.003354856251459926 
-0.13069389557229016 
-1.3555257038559005e-06 
0.0882893816425118 
-0.03607236096639502 
0.16904779591895994 
-0.18415062552483594 
-0.012321117739238425 
0.007221135071780114 
9.485569980563037e-06 
-0.3646713779624205 
-0.03257681740959332 
-0.07577195637137807 
0.13723468383441007 
-0.00041241946456097657 
0.0372560008581359 
4.259685259561142e-06 
-0.06665367606066229 
-0.010147970676712956 
0.14102536311116246 
-0.05180165660523201 
-1.5554929262090796e-05 
8.025578545499131e-05 
-7.138024245166249e-06 
-0.04012587808212375 
0.11721394145523527 
0.16232237010766298 
0.05367891000636215 
-0.015184105206974073 
-0.0007974301321104941 
-0.0003415804554158635 
-0.035503308433211436 
0.005577772643083689 
-0.13047423409572453 
0.08566543946029526 
0.0011817556342997389 
0.00034402092357757645 
-6.592688717960731e-07 
-0.1543519046160722 
-0.11482607838800832 
-0.14721260317572263 
0.02455830593538636 
0.006132245902792317 
-0.00011811475788728523 
-5.589085459888367e-06 
0.06344828853309009 
0.06473437353833597 
-0.10405835865472093 
0.08935019490590113 
-3.390306251864731e-05 
0.00012127473683807492 
-0.01214353717135099 
