0.17566308230350328 
-0.03622523085927107 
0.015850272352793682 
-0.031169637782013926 
-0.13201471215407537 
-0.002926349364421821 
-0.14644699032261826 
-0.048385149161856905 
-0.09654576966446345 
0.032809109611296544 
-0.11087588281800685 
0.1253493308459017 
-0.15009281689732204 
0.06528539553564283 
0.005484057638018736 
-0.0003632741992249295 
-0.15618572776628525 
0.006316677931130471 
-0.04916509217388493 
-0.03912456128707212 
-0.08887948143692423 
-0.04974320937237789 
-0.05672490929036572 
0.04110130580001184 
-0.11519020902020889 
-0.0679620002631467 
-0.08227532642045537 
-0.08863552455201272 
-0.04434665524566664 
-0.05212909837082991 
0.017822240606381934 
0.16944785468532317 
0.09861281246492157 
0.0293904112822993 
0.12546991797839643 
-0.16032926645021017 
0.03637542221740775 
-0.03536295336018308 
0.07659174539785749 
-0.07634451909232351 
-0.017544496144478394 
-0.16833562328247179 
-0.17141295308920124 
0.15515198029159702 
0.1681454599973856 
0.16171257506239436 
-0.10138618270665706 
-0.08361171045393175 
-0.020471555155687687 
0.12011729391604434 
-0.1302091337946143 
0.12060705819544462 
0.04002450531509161 
-0.15311139219662495 
0.084793768937697 
0.025570445226163724 
0.1271258396402619 
0.01664012022776365 
0.1529187246518561 
-0.13425521422831088 
-0.01068867706931198 
0.04048057843407152 
-0.145655888016273 
0.054118043803833976 
-0.10362721271451726 
-0.10081566775748664 
-0.1048464308601853 
-0.05373532900575392 
-0.06899564669094572 
-0.10693138846360978 
0.09296186826244904 
-0.004258556703881877 
-0.14076310794585672 
-0.019017857295062 
-0.156597868559791 
0.1538123220306116 
0.1009169978181518 
-0.11745088762669648 
0.08538146743747069 
-0.11582403148224794 
-0.06341528979536767 
0.06283621110049509 
-0.02263315928912535 
0.10187768988623372 
0.05934044996254595 
-0.9905067110369808 
0.1087552253722355 
-0.017702659805125254 
-0.03142464656279967 
-0.07344538003493525 
0.0851954774230678 
0.0860167273314901 
0.05274715844610814 
0.041810033714299144 
-0.0926172285714374 
0.13071161310035026 
0.16442536149338802 
0.1092069415194972 
0.01018297922819772 
-0.004248671308535921 
0.14479912996612684 
-0.09452360505210357 
-0.05719705661242966 
-0.15303598678437796 
0.11033953508861824 
0.182159753851977 
-0.022088835200488877 
-0.12120694385454994 
0.08956280041223572 
-0.026922453785205247 
-0.005244331662122154 
-0.17632404126765727 
0.03964406078240135 
0.17603751347182686 
-0.08495983848250689 
0.18222469118166504 
-0.15826007150443427 
-0.01722524091022984 
-0.008158939959721029 
0.00406131350542327 
0.005930818183866315 
0.14675534210997818 
0.18310059599818304 
0.07362706885612283 
-0.17130974974544094 
0.1276768430758354 
0.10495264355873826 
0.148302101670741 
-0.07433331763369486 
-0.07065838541001772 
0.03381756362713048 
-0.09860262371374166 
-0.17551602009142905 
0.0029817105110073183 
0.03111419007694896 
-0.06156889077614684 
0.08903187745497895 
0.05362671797838939 
-0.11785553398274926 
-0.1390568066088215 
-0.13130177931611955 
-0.15656991627622582 
0.07649578448516178 
0.06737753235335828 
-0.024070193287979602 
0.008970725066666102 
0.08650322259978391 
-0.10843075061107263 
-0.044518699544925266 
0.1636447704228445 
-0.03266871590446119 
-0.08040138952160006 
0.05421454877385823 
0.05333866663299139 
-0.11236486837669618 
-0.000609418224986387 
-0.07185614632097413 
0.03806934602954695 
-0.17646935952752912 
0.10827029774939814 
-0.12835611415383763 
0.058475008140649515 
0.10121689390657276 
-0.13586885873032306 
0.08152309131355748 
0.18287870015829785 
-0.16745950106750046 
-0.15150349893343398 
-0.030527106316883407 
0.008634182774593241 
0.02341764939858698 
0.006232267075504866 
-0.007699291530717467 
-0.12952019278883703 
0.18239345946145843 
-0.06106847045395161 
7.399957679092044e-06 
