-0.08733519056534791 
0.11486680949675268 
-0.133157646952774 
-0.15395007714887796 
-0.00449856457536385 
0.08769700797838328 
0.14219852987769002 
0.024402432858134704 
0.14675300386250625 
0.04079379314230633 
-0.0821026881754671 
-0.006199386373428345 
-0.1420507626350015 
-0.1572035833654174 
0.0644097798172413 
-0.0005035984172057457 
-0.14736608734341927 
0.12634424265299413 
-0.020950254904639143 
0.048755104979054775 
-0.14133959279417982 
0.023240424652034464 
0.12367053118548996 
0.08752801965394089 
0.0032579177784835545 
-0.0537096947977439 
-0.06855003134322195 
0.06373373910055663 
0.020462114793353525 
-0.12921835901923256 
-0.09811674989748052 
0.11954606712219265 
0.1324894954756656 
-0.06634299563430347 
0.1044566805182234 
0.06865795266846744 
-0.09066145024018518 
-0.10150604360556743 
0.01875335972751857 
0.1669104122266651 
0.10161810517534006 
-0.1827973316278534 
0.059179977759968694 
-0.08428146093210401 
-0.05924592571228042 
-0.033618941962814286 
0.15750947731557977 
-0.035385361723761805 
-0.04923081271208499 
-0.044736217575114146 
0.08506942385128555 
8.384863776339513e-05 
0.1243465668534526 
-0.04282198395002218 
-0.02352785466996865 
-0.17002923458183605 
-0.09544355021229331 
0.02745691789312593 
0.08616407108248045 
-0.11893197320162971 
-0.1072278259771127 
-0.04059157871210606 
0.17702903544425005 
-0.16877398240342772 
-0.12797003295836717 
-0.10926786723191365 
-0.1404938467753183 
0.17218838824988583 
0.13521462828749423 
-0.11079030458706893 
0.10772092235024064 
-0.0005130631917760351 
-0.18309751876061026 
0.15519549368334132 
-0.03334795865060475 
0.015300865488628607 
-0.13381337406480154 
-0.024633020363328068 
0.16110221591843618 
-0.08801460278994878 
-0.17643094583930513 
0.07925023133829592 
-0.10766407462799736 
0.04439126414677513 
0.10706277984866405 
-0.9979447367791612 
0.16227470610416447 
0.06008559396454988 
-0.11750671819955616 
-0.12651681036141232 
0.007872476984036786 
0.020964206735080343 
-0.1417483071530378 
-0.09983668287555168 
-0.1085471462085869 
-0.1209265711093318 
-0.14352852886970313 
-0.046130349090634376 
0.018331950738282365 
-0.0005131132783044766 
-0.08018997636831192 
-0.04394422586610769 
-0.11500882595365934 
0.08699446753921034 
-0.08890884005638938 
-0.0061230056637396335 
0.1333876719886332 
0.11243333355651039 
-0.020931647595063524 
0.025611974745118643 
0.14497774060211963 
0.08897108167509052 
0.16859702942498886 
0.0075359987603841605 
0.055428739115450126 
0.15013736670858271 
-0.10842085173785636 
0.11797134411928631 
0.16646758419533966 
0.03478117678859213 
-0.12466356036232852 
-0.05478137281885187 
-0.060169244905607225 
-0.150210880136399 
0.03427020284027646 
-0.03855891799600622 
-0.0060124044113248065 
0.1773287173485937 
-0.0026085379527059915 
0.02879830088916424 
-0.028551352600549973 
0.1721634714298371 
0.10176466795429509 
0.08096896792437078 
-0.003069188246683424 
0.1239330581056027 
0.047952912797247504 
-0.1316539601525103 
0.023424838979188095 
0.16344635230299445 
-0.06244182423669896 
-0.13714448170417598 
-0.15151109511609923 
-0.12378896827682945 
0.0947183342725815 
0.18162628254605193 
-0.13509773290740143 
-0.0840129056881207 
0.15608271965385243 
-0.08051020127006525 
-0.0013232913076098307 
-0.00862955665611942 
0.010477212615296688 
0.11374744299115266 
-0.12056431264243357 
-0.000520348354257163 
-0.16992162957963086 
-0.14341167739777047 
0.05628692444841554 
-0.10396016438530341 
0.13690234774856022 
-0.08325673182786136 
-0.09647055000700322 
-0.08405695496297944 
-0.017092943021699447 
-0.148426297814421 
-0.10632971144327319 
-0.10621951139581924 
0.03287166675980599 
0.14192271870226067 
-0.025410837146604137 
0.15281818312797277 
0.1396528904786126 
-0.0208139589095534 
-0.1330794096644602 
-0.023615108836869098 
5.212471811004934e-07 
