-0.0949984036184727 
-0.12491617205682118 
-0.05204419265239918 
-0.10479016820605255 
0.11308776967932624 
-0.1447707960078634 
0.17144695870903057 
0.02556672518096853 
0.15290604437885177 
-0.09501203111047994 
-0.13260565160908355 
0.08476854764743205 
-0.1634651357455596 
0.10182632228050689 
-0.04690332138540007 
-0.0004411084186919927 
-0.10233332037152207 
-0.03059835382789411 
0.17621652730090406 
0.027911456084697972 
-0.05642305468171632 
-0.1542045407652182 
-0.08135313380370893 
0.06812251812155698 
-0.09367038448132076 
-0.12255799385291316 
0.13542258946266458 
-0.1834732963673724 
-0.09214004205590338 
0.17523375911637837 
0.0682110842685886 
0.10157803500396331 
0.04036342971988319 
0.14883960370787477 
-0.014346935391666954 
-0.05768275003831716 
-0.07056078187012782 
-0.039786964349798726 
-0.020161325977797517 
0.15834233941437945 
-0.18249585357406317 
0.029630222626945896 
0.17295503617348426 
-0.024212669177615304 
0.03740834097465531 
-0.07423530733840368 
0.11881796728917524 
-0.07412536464921153 
0.07681811538945618 
-0.10606970487878198 
0.0459335584748948 
-0.17773790089970848 
0.12814259152424987 
0.029965508369842297 
0.14170834724304385 
-0.06285275936294013 
-0.0551944209677723 
0.13393219819239852 
0.13408537933545508 
-0.017752372385232723 
-0.13409235863581642 
0.09011061702165726 
-0.031114653956577976 
-0.02761839782718814 
-0.14524091500829947 
-0.1323177278704315 
0.12500604808533747 
-0.0164269045225596 
-0.03830751401025301 
-0.17910950216873098 
0.056171524020252495 
-0.0006517104579393584 
0.02889268819349025 
-0.0984588861780429 
-0.10105939847981928 
-0.07607296042739954 
0.03138873357302355 
0.07597169784451088 
0.16386750881642745 
-0.04386417279713606 
-0.022622676594998836 
-0.14323368680850876 
0.15528993681910472 
0.11580566146695284 
0.04389521651774031 
-0.9977284760631183 
0.1481332216475396 
-0.17731035787086466 
-0.1636308398937094 
-0.018748036214511515 
0.1600276531412899 
-0.01644863126574103 
-0.13378200804047313 
0.04853912863180476 
0.16455573849419755 
-0.05944863343155325 
0.09503206512936777 
-0.025209494990591857 
0.04453124047629606 
-0.000668069278681577 
0.15159130804200713 
-0.14532975510536156 
0.11826052517788418 
-0.06656773228019428 
-0.08822150805631171 
0.08887056505727428 
-0.027216454670628387 
0.1261583522189876 
-0.004372700297489929 
-0.06139168630805203 
0.002374895660504306 
0.08565405676961765 
0.16733072024267612 
-0.11017296904725592 
-0.13360972255452933 
-0.16094081407641594 
0.13986322192978298 
0.02874770219066139 
-0.1349232333715059 
-0.06157016117132974 
-0.046171711980043856 
0.1156087973605188 
-0.1450540070195327 
0.12388235942515399 
0.12553985643138968 
-0.16633833433439396 
0.11962108104761829 
-0.028562557906719716 
0.07178713578088461 
-0.15051480528816358 
0.05056060007440094 
-0.031069514036597745 
0.156615126236008 
0.14733449905737958 
0.02277980706957089 
0.1702220350854596 
0.0455771648765978 
0.07748289493375207 
0.0009064043448807901 
-0.09559764265039722 
0.05739250579897548 
-0.13899341503926615 
-0.12301863304958113 
-0.10433451808470962 
-0.06401870604559386 
-0.029280931756912182 
-0.16966127897185962 
-0.13721066526252845 
-0.004851026055950974 
0.11695284872636444 
-0.019425127368957268 
-0.1120863739894063 
0.17798488370480217 
-0.047843213749177466 
-0.09554934474326442 
-0.0005168458166443376 
0.16870900385705975 
0.05630368348272449 
0.0851533769879427 
0.1289596095512137 
0.05047413794103772 
0.1354596957905788 
-0.030283816483151788 
0.15776335734680116 
0.11476568554348718 
0.16404536791940968 
0.1702108707606431 
0.13823514365121473 
0.027035662820326573 
-0.14997514882464633 
-0.1626621155104965 
0.11940961297561062 
-0.14924954213671543 
0.0787238768913334 
-0.1580181163146741 
0.13937578319596874 
2.773133565742699e-06 
