0.10495279360870347 
3.606392524389943e-06 
-0.05629616152143599 
0.18124147655953585 
0.04299215277504698 
-0.134573341168577 
3.926247926395335e-05 
6.377033386740573e-05 
1.1795060432065517e-05 
0.10836106295825876 
-0.04871482428229713 
0.013790279430137335 
-0.20905779414388642 
0.0012487851608630667 
-0.00011196519812654462 
-0.0005353627231872181 
0.12572672926219042 
0.09728921608643605 
0.02672722528978828 
-0.16603620300995456 
0.06764450046070082 
0.0002326351995802082 
1.0113316391469506e-05 
-0.07534931875422955 
0.08527690705728887 
0.009372658648634756 
0.045399137111114415 
0.13464788418197143 
0.0001804130356366343 
1.8330923552082242e-06 
0.08881332953777248 
-0.05389255703002436 
-0.017022243100285262 
0.04302322490240366 
-2.8768840454736443e-06 
6.784817766037964e-05 
-3.3170454687847175e-06 
-0.09116553629631913 
0.0439950083273615 
0.035761274887356184 
-0.12635491121029072 
-2.572115484337592e-05 
0.000705437870275466 
-1.3768649615631936e-05 
-0.1384296193473619 
-0.0008748621909695243 
0.03248683361601863 
-0.13266357388526173 
0.030174586045833063 
0.037239155615772415 
-8.847533686226732e-06 
-0.05463985630739998 
-0.07812771547358896 
-0.02488709128767252 
0.07528315789228307 
0.13898208906092516 
0.07362351922880193 
5.718601916005593e-06 
0.03382316104101693 
0.01740737204429027 
-0.0370952777370228 
0.2076256010390984 
0.15683942909217377 
-0.03663916818832007 
-6.827315993734377e-06 
0.10557309368240905 
0.02887437368487052 
0.02664216507017509 
-0.15033317219603232 
0.0007046338355607588 
-0.07387867360279507 
-0.0006168637910637022 
-0.014435974827598024 
0.12036190700788638 
0.0494074018080432 
-0.08546581175223877 
-0.00023031668593560134 
0.018050240573610456 
-3.931640641361199e-06 
-0.0988435091794878 
-0.16555646464234752 
-0.024685884524380107 
-0.036267636708663724 
0.00866852317914331 
0.08221791512978492 
-0.9977714526656594 
0.06448802921805524 
0.09849982090620836 
0.050860096875018725 
-0.12954387058470815 
-0.03817261895401891 
0.07400374652116198 
-5.488271472571383e-07 
0.05966111180996418 
0.06896116862647675 
0.010792320434491427 
0.009658062990772745 
-0.022669240564633646 
-0.08237379011291311 
-0.0006095263181070381 
-0.1640137370283403 
0.0771429338357005 
0.011259062508430553 
0.07100274488813599 
0.0011427364420632101 
-0.09210591893846261 
-3.2973944685813435e-06 
-0.005834510510043947 
-0.18515675580170848 
-0.08630416245666228 
0.10492590930661382 
-6.762486405346577e-05 
0.00709466733179395 
1.0935176192072277e-05 
-0.036356805921462766 
-0.09488695908121368 
0.002517724014964499 
-0.0981292507024558 
-0.028185542258354908 
0.0165927582630043 
7.492467387488251e-06 
0.004357161949836576 
-0.05552685135067762 
0.015243354909002664 
-0.10429837350258696 
-0.12810298932450584 
0.05792885959329788 
1.5150699255776368e-06 
0.06798837917026433 
-0.04209787945320925 
-0.06320681455360103 
0.14886280971358173 
-0.14225768393073038 
-0.01751493579948021 
6.132777504342038e-06 
0.05833722495200234 
0.18105175856347047 
0.05466808087088229 
-0.012876829016295504 
0.0010031307517722704 
-0.06570518364513446 
1.0125225555078116e-05 
-0.08877949616196747 
0.09603806089394651 
0.05491226072211571 
-0.024761511352590398 
-1.0419418499457937e-05 
-3.314724109816285e-05 
4.322981063108938e-06 
0.041471720711721595 
-0.07149846619963543 
-0.007302727289751877 
-0.07254993285508322 
-0.00934236421788036 
-1.4087834434619935e-06 
-0.0004759460515012961 
-0.020281417242803742 
-0.13958416271448118 
-0.0389575662033445 
-0.028932698425021514 
-0.023712919464144503 
-0.00013162518920133262 
1.1928626533716876e-06 
-0.08360548735966512 
-0.013621777758471995 
-0.06084390936952874 
0.17742875624904828 
-0.08981390369721333 
-0.000608628450317428 
1.7451839224688904e-05 
-0.018772082555496235 
0.018281567695729545 
0.0439724221625673 
-0.10375037241947946 
4.756309370131235e-06 
3.356748280665467e-07 
0.020851754122045187 
