-0.09403472494766492 
5.8836209188993116e-06 
-0.15141399964112617 
-0.08751335054270676 
0.025438456706051413 
-0.13859317473676264 
0.0002861564432397055 
1.3781077994796313e-05 
-8.001088815387573e-07 
0.06279995996136975 
0.19648641255817884 
0.03144101291088125 
0.07967694243271387 
0.12199032551554895 
0.0006204471329420879 
-0.0005484863452135482 
-0.05092264403718014 
-0.201946734668818 
-0.061236408909338375 
0.011049030287422571 
-0.09506394190226992 
-0.0004912586138407608 
-8.70505331345636e-06 
-0.036800581892520334 
-0.13239276245596038 
-0.07208296548688171 
0.11599400966351071 
0.17079089207495154 
0.0008251372324148753 
4.251364093556467e-06 
0.04190290110357295 
-0.03723801205663972 
-0.022266754191256552 
0.026285245395279717 
-1.4219230357217162e-05 
4.472275739835142e-05 
-3.0821300805170754e-06 
0.16927023392874174 
0.005277966158192424 
-0.05071253209489345 
0.0692959773010731 
-0.0015279734194953549 
0.08902614694898267 
1.995682246193587e-06 
0.19104335008561218 
-0.052437504684185295 
-0.0184237114860045 
-0.05460481841484534 
-0.1044301834023942 
-0.07019565023726584 
-1.4196045205095836e-05 
0.024923602878927885 
-0.16507540237544918 
-0.03490982556147648 
-0.056290637964944226 
-0.018121101868139054 
0.035481494447442814 
-4.8526620045245005e-06 
-0.01568976537485201 
0.07325750428805558 
0.023895164096665335 
0.011030889029284084 
0.10817033666935426 
0.06982779445858243 
7.96695302931119e-06 
0.13326824624642344 
0.19566375415103598 
0.07665612334110392 
-0.012080757719067822 
0.0020084513534203425 
-0.12418994403819784 
-0.000905399757517437 
-0.16518695357358248 
-0.07012678186419553 
0.006757531183822545 
-0.04534740741233974 
0.0016694056782421856 
-0.08713620768128982 
-2.641870655170102e-06 
0.018777839164440927 
-0.001528328580890836 
0.06599075860105355 
-0.143008776139469 
-0.05604767829468424 
-0.014694743012254248 
-0.9971962551819034 
-0.12223440760725646 
-0.16116820673772433 
-0.11153022735170616 
0.10428462621198911 
0.12517451403429425 
0.18114945315128708 
1.1673049750961143e-06 
-0.13882742372165296 
0.11188115789810586 
0.03793407427135467 
0.05530812504199084 
-0.05919741685761462 
0.014244857578006096 
-0.0009137814923260072 
0.03409152130778593 
-0.016456565865990046 
-0.028758105955301608 
0.034128180717699866 
0.001733873517526305 
-0.09340998325139364 
-9.150074924620197e-06 
0.13510036495761393 
0.12857642360487417 
0.02320313147078762 
0.12776314812401898 
-0.0009320458096515391 
0.049560838251846075 
5.48000584320176e-06 
0.03995899161672124 
-0.1042339468713604 
-0.07151041098100885 
0.02004382105691317 
0.0901708299751982 
0.046453489684378894 
1.665292413446561e-05 
0.10974831682571566 
-0.11362333401425123 
-0.1731557467054611 
0.11608009664229506 
0.01363969348786137 
0.040262155228940284 
1.8380056241155292e-06 
-0.11142048418426816 
-0.015066434838339856 
0.023126421160709187 
-0.029405529721886006 
-0.09084498948094286 
-0.04731098621062221 
-7.936088255205668e-06 
-0.12985592850767907 
0.1746957283531699 
0.023473239354472757 
0.14106634962640102 
0.001475526553035251 
-0.08887167038441124 
-4.9054392889182175e-06 
0.08313869998065555 
0.0802960812488925 
-0.1226456237598875 
0.012353098721267641 
-7.794057979638503e-07 
-3.137165685914738e-05 
5.138956902798624e-06 
0.18608109860855956 
-0.011158037756059846 
0.052711725722731285 
-0.1166975716910009 
-0.05342768988569352 
-0.000522257416480712 
-0.0004451462044537552 
-0.14974277321372456 
-0.11991542946999977 
-0.012170451434307315 
0.1141455939916849 
-0.03577370278635976 
-0.00047183357000417175 
-2.8290395883319424e-06 
0.2095525665220827 
0.10761588302406544 
0.06797597080007296 
-0.05837046897161989 
-0.07433966483683682 
-0.0008983402942119435 
-1.1430627821354107e-06 
0.11880025949484803 
0.09810130776318769 
0.13277450014518208 
-0.06568597801125127 
-2.0802769488743345e-05 
1.5631399208253334e-05 
-0.00573611356395825 
