0.13374576160057197 
0.08051613219674927 
0.0010992627022254065 
-0.13645944197438972 
-0.008274171854445456 
-0.14614816216758503 
-0.012181462529064213 
-0.0017466569950557453 
0.050083501467392516 
-0.007337994849434537 
-0.02004451426332604 
-0.04073580260172366 
0.009329330700292515 
0.10409340732253711 
0.039812378744341625 
-0.0005189497710479253 
-0.10384962620624322 
0.09790459831596396 
-0.15837246438741853 
-0.04823055382983743 
0.10662744325853682 
-0.15523800073023356 
-0.17455289232906596 
-0.17938708959692437 
-0.09293364339533894 
0.13373028509619708 
-0.17636012953833524 
0.16325526292266526 
-0.053332636627509616 
0.03786440552431733 
0.018385458441440017 
0.04786137315024305 
0.13851529257339343 
0.04967276078900007 
-0.11347623576617212 
0.13920214691411956 
-0.16156701079616412 
-0.089650983076355 
0.09295239831192506 
-0.06164469288431419 
-0.09396865682349591 
-0.06894496824618199 
0.09858538328677455 
0.05724270405744075 
-0.024242415287405894 
-0.0595807667739912 
-0.09170099127382163 
-0.15296502562841235 
-0.06674946085894996 
-0.13816890145561356 
0.04824715293016962 
0.10144914386843071 
0.17902417176567179 
-0.05982899179142297 
-0.17626971905168698 
-0.06343677339983314 
0.09856326109628119 
0.004768486975165437 
-0.10688868111834382 
0.09552947282260207 
0.09847202797425939 
0.12722876024127414 
-0.03956224361316729 
-0.13622171156446178 
0.15708831456349523 
0.1656845686054683 
0.11247490051638973 
-0.060223193127902266 
-0.04404839552332257 
0.009569424188610065 
0.0956372572847494 
-0.0005369566843942151 
0.07826495605771358 
0.08967317904861369 
-0.027122647512115128 
0.06411863762769232 
-0.1507247720280654 
0.07488913297812752 
-0.14165989761886455 
0.1386115000565565 
-0.13972211468634055 
0.02876054516730403 
-0.14181638842991334 
-0.017794070838524967 
-0.04028151015715309 
-0.9979046478396802 
0.047613798381271444 
0.10155601512782328 
-0.1431577232291453 
0.16975573466730923 
-0.10955132135574953 
-0.1446046544239769 
0.012839261416848935 
-0.03807709732487943 
-0.07525226955911167 
-0.056737107448206675 
-0.04276271068052476 
-0.032365827373502826 
-0.06345432778614996 
-0.0005413610120326461 
0.12195779498736661 
-0.043809022774203094 
-0.03751162196427654 
-0.10894130982342028 
-0.05604748009896926 
-0.15203781417948317 
-0.06793799241254206 
-0.14130919902187294 
0.1406410520374872 
0.1359272726698151 
-0.09756593764601865 
0.05836964692643157 
-0.13297614645702782 
-0.15249014607224035 
0.06625466273563033 
-0.019393088283896298 
-0.07057692461865163 
0.17140707109177286 
0.08284042553419699 
-0.12300185815928785 
0.0022617739315051733 
-0.13988976949132215 
0.1573089439320278 
0.11726776219023213 
0.13359556976322015 
-0.12328705775876742 
-0.03308050838201096 
-0.15025269806690691 
-0.05884874702869636 
0.150661634441534 
0.06376713920483762 
0.10088771054903498 
-0.11639776585245873 
-0.1452888336419322 
-0.13219230666868773 
-0.030962324311046202 
0.02203094476545006 
-0.09782502754776087 
-0.07453522765494877 
-0.11081264992176594 
-0.06828452506407236 
-0.17578084912983447 
-0.05706584298871467 
-0.07527827442177988 
0.1569698190795382 
-0.10517337502163546 
-0.16623403663003022 
-0.08084774773131935 
-0.08599920783117779 
-0.13697690619594907 
-0.04660511988507646 
0.05353123511750216 
-0.04007446420393776 
-0.03153714561499882 
-0.130525440519236 
-0.0004906126492537742 
-0.09712131713342359 
-0.1471225727983474 
-0.07791731971153279 
0.04428911871414479 
-0.016224444324671017 
-0.10498612843514821 
-0.07004717202205148 
0.01482252059586614 
-0.011701425869344972 
0.13181209849008005 
0.029239209295528035 
0.016011106713828382 
0.045655744170355006 
0.06069997791586018 
-0.16060909359836215 
-0.01841097139700279 
-0.0941815657933033 
-0.11538280408250821 
0.008674035388995083 
0.07722068680567198 
2.8311330248463086e-06 
