0.10084116424520198 
0.13833260598229266 
0.08978717746220208 
-0.15687513523228028 
-0.10458687176881415 
0.008354804661938442 
-0.06782496537873019 
0.0592150638909173 
-0.07275165066048885 
-0.009897589749371993 
-0.12246459656097744 
0.1202610111686809 
-0.12545539521104881 
-0.15524706583782885 
0.16491273564770434 
-0.00038467205650184933 
0.05938917686132425 
-0.009108967729548362 
-0.04854868670360804 
-0.1394955440564124 
0.0617993039175892 
-0.1797358330013133 
-0.015298718459031135 
0.15652636571892456 
-0.037220695935523046 
0.11497309549219228 
0.18154892846777473 
0.152776328015121 
0.017921778850353814 
-0.16888075963334884 
-0.08630720182360135 
0.07799142382227622 
-0.06556528675164468 
-0.18013154628952419 
0.08310514074766187 
0.03555810411730814 
0.16591957334932564 
0.13227537139045273 
0.06801062615850487 
-0.005230273843844446 
-0.14383511993201803 
-0.06786487725311595 
0.07173097340560033 
-0.13209827799038804 
-0.05865986073498036 
0.050680779886762395 
0.15952263309579093 
-0.1527169291088468 
-0.15932366635704143 
-0.06135244617112376 
0.1200927602277965 
-0.1752046305949144 
-0.017043511888985396 
-0.08156606643266298 
-0.0059343644802802575 
0.03021104679584294 
0.03623833545521224 
0.15885163973519598 
0.13158914423233628 
-0.03623775716895686 
0.02508372142180812 
-0.11932650576623552 
-0.15692031623650585 
-0.15282415747361955 
-0.005236019985339957 
-0.10883977189549064 
-0.05048046089626895 
0.13188077191111772 
0.07584467967996858 
-0.1649918428993744 
0.08259906904327921 
-0.0026353194312313966 
0.09755999273506885 
-0.08776106452107875 
0.03834535480298493 
0.15657333561409145 
-0.0566649932565115 
0.09443441738396754 
-0.05924914606857801 
0.025700496468995554 
-0.028103961309275477 
0.12402215217489734 
0.16762448247822195 
0.17355145620581017 
-0.08646484973270961 
-0.9937383472438678 
-0.02620134021920112 
0.13219863945896046 
0.1549988840042785 
0.03770657041796133 
-0.018059877300133892 
0.17855382566001746 
-0.16841506392464475 
0.10991008553380319 
-0.1411134282952565 
0.0658041230687054 
-0.042226951724171596 
-0.09504008104443881 
0.05449876609230861 
-0.0026232916913906928 
0.12345840950674483 
0.09410163200793478 
0.08398711222898017 
-0.04072860902995459 
0.12705206536356697 
0.10349530596006143 
-0.16023657986497047 
-0.07072728848616927 
0.15598137727093694 
-0.03875124482178427 
-0.06529738795460857 
-0.003386486975253511 
-0.154736686565823 
0.15726695068630106 
0.16620368936006694 
-0.16615165872896268 
-0.12178402715625378 
-0.003784353259925821 
0.08328755371440374 
-0.14702583865328275 
-0.16936859469930451 
-0.17263469357079236 
0.07400294192451642 
0.13334597215189917 
0.03462729134887543 
0.02055724246392976 
0.0812270959750466 
-0.1312913103127924 
-0.13171156753494967 
-0.12472600651450984 
0.09754846127011349 
-0.11875140035987838 
-0.04328313965434008 
-0.010148393090917751 
-0.13599354803804317 
0.03713271742461183 
-0.11105215724347814 
0.07828096369210294 
0.08453287993252548 
-0.1034803616264586 
0.037758041999393754 
-0.0464150987136496 
0.1110114838807765 
-0.05353598089167 
-0.026794271486013238 
-0.1448368947899792 
0.11640087016332526 
0.07063835379217118 
-0.13754607779553293 
-0.1780510246285557 
-0.06822601428635978 
0.10602694353349715 
0.14191085975267878 
0.16505866203218642 
0.04883596535246995 
-0.000578224580745703 
0.07292151633927205 
-0.0836416148244449 
0.16144888347121042 
-0.15602378193620892 
0.04768561330579246 
0.0038795869929585114 
0.12746400994022886 
0.09267079680607646 
0.09051162221701084 
-0.04555874547336475 
0.11497795581147771 
-0.040438187428885136 
0.13981858514036835 
0.0652561675906799 
0.13762587204281493 
-0.07015304293606224 
0.07871966955632168 
-0.014572383170121328 
0.08176855334073072 
-0.0029411961428524036 
2.493945090558883e-07 
