-0.11115779453511654 
-0.0006045842068709284 
-0.06577683010245731 
0.0789976411206986 
0.16935175634792957 
0.062073950313143805 
0.02749114072852374 
0.03302141714837509 
-0.14116851634723565 
-0.06704733075154153 
0.0626166340151724 
-0.13907557569291656 
0.032834261108263596 
-0.16659584985841944 
0.09270260826287144 
-0.0006506536964482816 
-0.0019951441957500315 
0.09156424027353574 
-0.13879575944559205 
-0.13222719015175127 
-0.14301766643397001 
-0.16903144151988753 
-0.04897248821273345 
0.07911621411980349 
0.1472977978106327 
0.11030913404460721 
0.020781265858399373 
0.13022461005661892 
-0.0472241786668578 
-0.03537915567049932 
0.12460080945377075 
-0.09761257223395611 
0.08225599929341718 
0.09176766459718708 
-0.12776794835879618 
0.04147672891572732 
-0.10466568392528794 
-0.06758586426618603 
0.10271489593460129 
-0.01199674172656126 
0.08499351431657234 
0.06723955764290471 
0.06940419788282223 
0.02533989935330469 
-0.05885701884936495 
0.04062842537671063 
-0.12227961246092922 
-0.1768680995476721 
-0.1691052561557691 
-0.07054620220262996 
-0.11970606235409931 
0.1490594664104876 
-0.00866260143404518 
0.03539408837598032 
0.10781268167409394 
0.17597065389567637 
-0.16173320850735784 
-0.13814434658158614 
0.030495254322084997 
0.09672047957411214 
0.14822276788537117 
0.06665503278980142 
-0.0229142245375748 
-0.011091487115294452 
0.0015689673442581542 
0.11380815640485395 
0.036667166804493556 
0.07234349635834672 
0.08864351687962499 
-0.05691627369608018 
-0.0021659370737352746 
-0.017031450929069613 
0.05564084428950766 
0.011646305967732612 
-0.1780270331811791 
-0.025048680667490414 
-0.10448894114235716 
0.16376236572053557 
0.04672727036379451 
-0.16657700909760864 
0.0974707016552295 
0.09922307168005481 
-0.0902693541020042 
0.1666850262251677 
0.1039006352978811 
-0.9648877218959667 
-0.16050481637292013 
0.01874368464571083 
0.07573012441253071 
-0.03940064950831906 
-0.13020206715893867 
0.006011507222854345 
0.008327126806382312 
0.0837531424147798 
0.033758055343294485 
-0.08491706132446272 
-0.11789710282436536 
-0.1315427043065005 
0.10446243543620645 
-0.017079341794946787 
-0.10416251873797008 
0.010728750269775406 
0.09488987283698139 
-0.18168734734380076 
0.04088411762036526 
0.05934802624346469 
-0.009936469944407611 
0.053847867521820136 
-0.06908708002113437 
0.10461327630097608 
-0.17847696948126646 
0.0431924506476819 
-0.07465022706288967 
-0.07428543671572281 
0.06290683594928911 
0.038473266738967976 
0.13082782746252167 
0.11677944065773979 
0.09824923950221029 
0.026102509959709613 
-0.12914395125828523 
0.1592043329446586 
0.1610280847859004 
0.003866099727075606 
-0.07988091140745367 
-0.017071868141924462 
-0.02399784574719438 
-0.14748614708127905 
-0.023419537315460925 
-0.044707822302110733 
-0.08232193820681086 
0.05439166148758387 
0.057695050868692366 
0.11735641380287279 
-0.01145856424290534 
-0.14321847647836017 
-0.0942783423542375 
-0.16771824373065672 
0.12367649939840034 
0.08960134347264134 
-0.173748747177627 
0.08584150252643383 
0.037933305037840453 
-0.018852479829158747 
0.04122784984360181 
0.12807554411797525 
0.18339359703407374 
-0.1752349672195645 
-0.18059778217391867 
-0.011593018611429473 
0.13771598117714565 
-0.17064049016394506 
-0.02007097321363563 
-0.10542834118337464 
0.17220461095288267 
-0.00013769509530856864 
0.04377758064560455 
0.04803785930733137 
-0.006413407264696247 
-0.14078497867207834 
0.029228956404570766 
0.1276479120169152 
-0.1659583736287732 
-0.003723330995896168 
0.04552569318689295 
0.1222094756736454 
0.03467359047927432 
0.04003788189408522 
0.12566850667085014 
0.07728971968140605 
0.054303360400337675 
0.07957211556987501 
0.051343202224344436 
-0.039905908837678805 
0.17369490004372887 
-0.15132905138798666 
2.719115035962787e-05 
