0.020822625319154492 
-0.11290804055714643 
0.1163745031083013 
0.02601659704209175 
-0.15338203371182163 
-0.10441903097405697 
-0.08640551847207376 
-0.15886353168792214 
0.17785247656765554 
-0.12674416862878798 
0.024367260295048265 
-0.13195605602342536 
-0.0759803166506111 
0.16434065019562785 
0.09236845998047286 
-0.000447320567676202 
0.10910368011563795 
0.06750897767601041 
0.15951144912041806 
-0.009705171665270351 
-0.07636248548649167 
-0.1392368918703257 
-0.015025027723411938 
-0.043041223578436066 
-0.12829816095332536 
-0.13289472486655324 
-0.1057810080262448 
0.05245144361273921 
0.0910988801060709 
0.1616062351856559 
-0.10148123568955215 
0.04335908205077904 
-0.05039017618218572 
0.15126537397529152 
0.015768177375905967 
-0.16442978249829382 
-0.00520959826561998 
-0.039908884619813206 
-0.11021816383097138 
0.17220729180083363 
0.008131640114260624 
0.17905500641341557 
0.042450839552689745 
0.12180469906918953 
0.007357679105274878 
0.11255535936863678 
0.1633386703028221 
-0.07468194649179256 
0.17588681880559884 
-0.055590604101076996 
0.13868664777753428 
0.13617166513113846 
0.14702897167616594 
-0.056414352609886004 
-0.06467222445214268 
-0.018511622595418664 
0.17040932823905394 
0.05748788711351188 
-0.10224501569595314 
-0.14121574666722522 
-0.04918157069803156 
0.04486670083957969 
0.10136472357616408 
0.08057079369698314 
-0.1221080090467973 
-0.06894743982793441 
-0.15403283010937366 
-0.15479564395620857 
0.10415897882506195 
0.08098299520332145 
-0.12441239975266045 
-0.0006111832636757896 
0.15594641009303697 
0.15820207386620375 
0.18136106407921168 
0.039056498146332747 
0.03147846501511001 
0.08383385313905459 
-0.15204251749937914 
0.03943859440602923 
-0.17000374844659474 
-0.01016745636542618 
-0.11179096873504002 
-0.05526887760540894 
0.18270622697684816 
-0.997808461501112 
0.14664740303415028 
0.12446326688658013 
-0.08698300540698736 
-0.009974005589420437 
0.06373765552463145 
-0.10472844386177282 
0.15915257389576246 
0.13407860784791778 
-0.14961433530920695 
-0.08845402210782662 
0.17921621419202718 
0.11480839813231133 
0.13594310143930297 
-0.0006144714222404437 
0.05541146180745907 
0.10723839842140573 
0.014920439036826771 
0.16016874722099197 
0.1524274863728806 
0.13922655473791642 
0.17300667313707943 
0.12740870805911966 
0.07380655821765206 
0.11178260944687549 
0.14552542919591457 
-0.08377639707290772 
0.054309585222206275 
-0.16326897194544895 
-0.07702705151461398 
0.04562779604908773 
0.10529132015052103 
-0.0773377687385578 
-0.04855284087815845 
0.10249307188757764 
0.16173512507424817 
-0.05749856332172987 
-0.17860519348160792 
-0.1447116678773306 
-0.022416469295001046 
0.10171187854677186 
0.0018230465661882855 
0.15064807958536422 
-0.051775263389748555 
0.18023486413395548 
0.018081024647513766 
-0.11756687458862931 
0.12670252067923063 
-0.025123401132709167 
0.10287381880931465 
0.06620730759597762 
0.1797135550854603 
-0.07340929572090768 
-0.07114334358009723 
-0.040199433414262964 
-0.05592619375349592 
0.08569074021249337 
-0.09539834472325079 
0.17370130900040207 
0.13343694633312328 
-0.12189391989983359 
0.09914560388717722 
-0.11310379864734206 
0.1228332000958818 
0.14743697529943986 
0.0640067410420253 
-0.07844830078693482 
0.05874985797108173 
-0.03653613330501285 
-0.025551692840995094 
-0.0005302701030634505 
0.030649632277315125 
0.145595327309106 
0.020382709984662684 
-0.11217957670220155 
0.18002640086052205 
0.015414339337362443 
-0.14765879764661222 
0.11918490936164503 
0.11376905917109983 
-0.08747316656351894 
-0.1283102723937179 
-0.1310698151436041 
0.15512767681212572 
0.07438295734021746 
-0.1213686062446851 
0.0060486905230216215 
-0.1205235693247314 
-0.163425646913385 
-0.04550003150042742 
0.01611808413768409 
-3.741334627457298e-06 
