0.05360787135123672 
1.8595692146917657e-06 
0.0867652133635398 
0.02072053212828518 
-0.008188261755199659 
-0.028739158869923537 
3.3612756973244086e-05 
3.9230929117367e-05 
-5.610139231088242e-06 
0.0927998150744861 
-0.10184640589244728 
0.009527349425496613 
0.0900004491745447 
0.003757391329255166 
-1.750825683645022e-05 
-0.0005199607584160125 
0.07709601030603778 
0.11858352885760189 
-0.027793763130001984 
-0.19907192241684146 
-0.030274600164621565 
1.7670692757473746e-05 
4.156309132029958e-06 
-0.15709575310202845 
0.06618249591517705 
-0.005541729725926338 
-0.11838826379158471 
-0.06878548256255183 
0.0001079240825931673 
-1.4796588029201538e-06 
0.1458222766595762 
0.10230536551714252 
-0.021601009051328654 
-0.08459365928357244 
7.607099261896166e-05 
-7.464592528239797e-06 
2.814559261859813e-06 
0.12124946373876011 
-0.06617937938904009 
-0.004437398372123542 
0.005688550743377004 
5.763311360034836e-07 
0.0018322486173094122 
-2.8438928630526508e-06 
0.06990319699183964 
-0.13370496414716082 
0.0006970462986475186 
0.041507972795807466 
-0.19996262405446075 
-0.015261713690917576 
5.226904093172115e-06 
0.09822986276700116 
0.09504344452687569 
-0.010166468098850124 
-0.11277936541393563 
-0.09181214487922097 
-0.036717895359039056 
-4.929272814470336e-06 
-0.14789609206420914 
0.04167308433643147 
0.009401629205239216 
0.10914931842861349 
-0.020637090596472816 
0.01540438850711757 
1.965201860143139e-06 
-0.13641875570805007 
0.12339338098930812 
0.00032605300613492826 
-0.1439091837927095 
7.461505318630355e-05 
0.03485066118875595 
-0.0005129611061429099 
0.10313987796469534 
0.22647272787853134 
-0.0026379112034062503 
0.12648646465238508 
0.0001594704301510668 
-0.10045647794248255 
1.0909411920570266e-07 
-0.07465493869815841 
0.08407205188595945 
0.008705875001054528 
-0.11259540429745031 
0.013899828087005997 
-0.04608009249037748 
-0.9979464135948115 
0.03691266957707601 
0.09662090422480443 
-0.0006436788456196487 
0.03536791641149344 
0.10934259495963619 
0.09001496500877325 
-4.796269470723459e-06 
0.026350212172295173 
0.08446238029021391 
0.0026347307087539883 
-0.07487847354285039 
-0.03958438376886283 
0.046115394623110886 
-0.0005068291584281488 
-0.08760887233292726 
-0.11882614628289012 
-0.0006484119411646162 
0.0903258156901888 
8.134848358855835e-05 
0.010391964247510963 
-7.052066884381903e-06 
-0.1545545556953395 
-0.1483971226918488 
-0.011744183026063585 
0.1160963013858631 
-0.00010319955135690634 
0.008944537991879286 
1.157540649718832e-05 
-0.21140965343848067 
0.12279418622964426 
0.036029942061099884 
-0.21112489245797134 
0.19783977942458547 
0.04024818178896464 
-6.700507114892149e-06 
-0.12198823765665967 
0.17149712561745525 
0.024733268926583857 
-0.07232897500246688 
0.09131310011338403 
-0.06397008271913014 
7.833796192754648e-06 
0.10600960786303358 
-0.02941518918259441 
-0.006638355000414033 
-0.014312887128010472 
0.020815519813284205 
-0.03997404661808098 
-1.3464558601437386e-05 
0.12040198076671993 
-0.1515242620873334 
-0.010671566072716755 
-0.09619949943801127 
-0.00020364377374380336 
0.05517888739105263 
-3.890435473618714e-06 
0.16251867500274583 
-0.07058033083858592 
-0.002281305154825365 
-0.12242479121995113 
3.009393447416319e-05 
-1.2729559149152778e-05 
8.491348389161906e-06 
0.08386333821581951 
-0.0022247538466007425 
-0.025431521049385123 
0.16268693182736588 
-0.017140100436106268 
-6.605868063356547e-05 
-0.000507965921871583 
-0.010873817303279494 
0.08348140381817551 
-0.016669330089758305 
0.22005965114899714 
-0.07658341008584668 
-0.0001687421796145566 
7.389532444627144e-06 
0.05249869746631442 
0.03028428369341267 
0.01759044386486084 
-0.13049307087667328 
0.10566992232205066 
0.00023226168296527872 
-8.007082235306518e-07 
0.17300114419464038 
-0.19243780797846627 
-0.03660117988610154 
0.023967957648555395 
3.670857620552864e-05 
8.222036236110023e-06 
0.012778687087562583 
