0.10188862943866248 
0.021547456879370958 
-0.06943147311811997 
-0.11237135553383137 
0.07947134599312541 
0.07125326268269896 
0.17274994798982754 
0.18343655025202096 
-0.05433992676556579 
0.156686687182873 
0.10690260827864426 
-0.05053380319889922 
-0.08006096158628194 
0.0873399964829327 
0.063003099153737 
-0.00047958909478237297 
-0.0405099194949948 
-0.011941158743741548 
0.13331308037159653 
-0.12855873676802704 
-0.05604884079478353 
0.054385079924624935 
-0.1351739197937532 
0.10151548605821523 
-0.17000336188992493 
-0.01726456765159215 
0.13316084138602305 
0.07084150871415926 
-0.03307560384377306 
-0.019396790733570146 
0.06886146465057161 
0.14491293511739498 
0.05833490742299893 
-0.1367570746574983 
0.09629253635102028 
0.15556936308938749 
0.12236849380865913 
0.05107359991983029 
0.12883486217828846 
0.1673136097270824 
0.10601143361410434 
0.007323867732229761 
-0.1504309151536265 
0.10076005803989876 
-0.12347164999449636 
-0.08225434214990382 
-0.1487951446612359 
0.0776495388565345 
-0.030368165369775352 
0.0888385938695743 
0.04280025500435952 
-0.05209809275678645 
-0.11227597147389431 
-0.10218394973463531 
-0.10527702689217416 
-0.013231304728673315 
-0.15291812312131078 
0.07455423009607451 
0.013941044814579973 
-0.11016765981627018 
0.15189713339192465 
-0.03227934303158908 
0.0813235605715609 
-0.09174633319572535 
-0.06852909217512683 
-0.09792287437508046 
-0.02693262189303422 
0.04292058481623903 
0.17791085959132044 
-0.18162459777840434 
0.09314398207395228 
-0.0005724890853869196 
0.1785598710260161 
0.10376630782481314 
0.1697718822389899 
-0.027794014705380093 
-0.02205647880605277 
0.16898547112333265 
0.08149642197208909 
-0.05373279456386024 
-0.16443015182049533 
-0.16042050842959 
-0.11150040005376191 
-0.03984789488234103 
0.038390393090887875 
-0.9978589376331373 
-0.18106478006999382 
0.00853797729709857 
0.10855513778773199 
0.06474341623440522 
0.038723486671681795 
-0.07513590264825798 
0.03292709598923635 
0.1097427007962444 
0.1121527380268598 
-0.14050167258142818 
-0.1468136395860291 
-0.034470310697266915 
-0.14210389013549551 
-0.0005639353804173646 
0.09779467241278303 
-0.11399092492218973 
-0.022790829137827928 
0.016976108109259203 
-0.04439575183452987 
0.15187705880081445 
0.04396901502462913 
-0.04092051987647349 
0.16018734508672336 
-0.16765536047241572 
0.09239089111508028 
0.12039208811204485 
-0.096406734057344 
0.13205729593037638 
0.1519346242508938 
0.0358912561424479 
0.06389363075987961 
-0.12852439804945842 
0.06629948005101108 
-0.10233317639344017 
0.16414508613728454 
-0.1343079713216061 
0.009877884538714077 
-0.16681761331277703 
-0.14550768884882098 
-0.06583240929606837 
-0.11542506485804017 
-0.015633025547627466 
-0.0855760076637782 
0.13271982455364337 
0.15465304398044546 
0.12239454496850946 
0.05349562470135094 
0.10956307704414678 
-0.02399906664311585 
0.12364123105679917 
-0.033941523924095496 
0.07145448696626086 
0.1830725650984806 
-0.05857731360206242 
0.05587734779215997 
-0.12472234047405377 
-0.07018345237916357 
-0.17728927857930818 
0.1614583516439291 
0.0042468729269805605 
0.18071143669962683 
0.11768140116009415 
-0.015657084311062636 
0.06940693542745083 
-0.13722171465290212 
-0.11082243954366215 
0.07968162921727115 
-0.09355120998626593 
0.1120238863677955 
-0.0005283551818199992 
-0.07892577410424727 
0.12443840226197248 
0.09107720110998455 
-0.09857972573083275 
-0.15857040330309477 
-0.13041904254861125 
0.1802156645617746 
-0.049143496752109966 
-0.03156796460892586 
0.100665867567 
-0.031475199599309334 
-0.012169329520702932 
0.038957342401579026 
-0.15591946167167894 
-0.1764662855668344 
-0.14965536569919513 
0.058136678980824585 
0.03175995850908214 
0.14728921995165287 
0.04342424524301075 
7.702773947870863e-07 
