0.020846841214116254 
-1.286173689366963e-05 
0.10033089886044592 
-0.0008100844520122819 
-0.04978068088042095 
-0.18370819519714854 
-5.3901293879368e-06 
-1.0060206770466295e-05 
1.2799664473894868e-05 
0.13292943683884395 
-0.06812519863624938 
0.005910041657320393 
-0.008592630022407939 
0.003976595384325413 
-4.33796638926959e-06 
-0.00047823332798914333 
-0.16998070060557166 
-0.0975663918386239 
0.03321082019001822 
-0.0024902497349170685 
-0.008988238848093973 
4.313705314858632e-05 
-5.099272703678093e-06 
-0.10784785565372991 
-0.1651642303086681 
0.02418440474954636 
-0.09176798432448459 
-0.030708984009609083 
0.00015226102275578388 
1.8475967038345076e-06 
0.10007954452604752 
-0.020328046515121295 
0.013415944828964545 
0.06217747798483047 
4.07315250838916e-05 
6.831179047194684e-06 
-6.624435318341706e-07 
-0.020868473795795525 
-0.03915635714045593 
0.012766488394030374 
0.02505277899264015 
8.524137180894566e-05 
0.002320291574872231 
-2.313271081166792e-06 
0.0014028058672579473 
-0.0756829897671198 
0.035627032824761554 
0.12254423384639654 
-0.04628064076115002 
-0.0051357148558100855 
6.568298589644992e-06 
-0.019591180111750796 
0.01104537230270885 
-0.002330603626855427 
-0.008077427153493057 
0.0877877226233395 
-0.020690592961342687 
-5.632714736034245e-06 
0.14118187597189677 
-0.08791786477766042 
0.029817768324465806 
0.12254439019166043 
0.04608004813343348 
0.005141711755979279 
-1.1325065221775384e-06 
-0.08880260707891637 
0.1288208466520498 
-0.02979191065897787 
-0.06481941749830414 
0.0002385500356935526 
0.018072482360384796 
-0.000547680419444958 
0.19091248313846162 
0.18510808376267118 
-0.036915025793982134 
-0.025917707040256338 
-0.00023287479577700193 
-0.02534367750069099 
3.010949848744842e-07 
-0.10768541643434484 
-0.015717536064073504 
-0.008020458439931627 
-0.1254646859416513 
0.13835348101362457 
0.048049955735400794 
-0.9979128451596055 
-0.12996667078633806 
-0.032255140276831955 
0.0033912052783962574 
-0.06108372734107816 
0.06789984537061883 
0.0504534499929584 
2.9715556181803276e-06 
0.08983969701254287 
0.0029436165218212347 
-0.020127286452879253 
-0.11815593055823129 
-0.13160662691057243 
-0.04803450202254036 
-0.0005441713337794528 
-0.11291151674403574 
-0.16733163702158704 
0.03980165397066965 
0.10002311814897033 
-0.0002997493313032054 
-0.02523468349779683 
-1.9133817045958033e-06 
0.06504358789461044 
-0.13397718860236327 
0.007072776378407998 
0.006012010096183979 
0.00036551353945152976 
0.07428165283495279 
-3.251880008387821e-06 
-0.1425863455171176 
-0.11207693646777943 
0.006631444339885031 
-0.1224229270835738 
0.04861475192382217 
0.030075390483690043 
-9.934470429677477e-06 
0.04369652121718252 
0.10453611230756234 
-0.018982642674581062 
-0.11946140797464837 
-0.09326489030747089 
-0.15990198123794824 
-2.498415693185021e-06 
0.15505777683221422 
-0.13581217916613494 
0.007616274749730373 
0.07415819456606719 
-0.048403715382852444 
-0.03007858407452515 
8.899402300857103e-06 
-0.12766221813817558 
0.08296939837995722 
0.0002182978577020697 
-0.002743231334393244 
0.0005373908823638522 
0.08575936493257111 
2.0645153164949264e-06 
-0.05372380873245805 
0.001615484870875893 
0.001550411889159372 
-0.04674035033860428 
5.287920329411404e-05 
-1.4692644130511317e-05 
-3.873554861859567e-06 
-0.119405487336296 
-0.032183823075367914 
0.004902137429377926 
-0.08032825760091762 
-0.1463959554060765 
0.00010509125898966564 
-0.000521819351146934 
0.133292597879784 
0.031022253146925697 
-0.0075892333868681095 
-0.001145488241103703 
-0.05956884649082143 
-4.450225331707978e-06 
-6.873985711788288e-06 
-0.16213588187695904 
0.03854910798382498 
0.002238278753637712 
-0.20481427070929226 
0.16910165971189323 
-0.00011912564028761572 
-1.0784743230340614e-06 
0.06459920469685117 
0.2418672755494794 
-0.012616775788204119 
-0.13524083620979302 
0.00012520484694216472 
-1.7805566625632594e-05 
0.008153495190760795 
