-0.016514964217719863 
6.575121910360322e-05 
0.021252082224861177 
0.11459670692786769 
0.004151966590145332 
0.12074040828391401 
0.000724611370528232 
-0.039375263714739754 
0.00017981510846497393 
-0.04805881893202934 
0.0046982462694946095 
-0.07945366395306039 
-0.04502847986639935 
0.002074733509804987 
0.0640239660379014 
0.00020139347400117822 
0.2167251312642201 
-0.08259946274637198 
-0.19311431472095822 
0.00857138036591629 
0.0014876990161898323 
-0.030646628174718776 
0.00011408704337399346 
0.10650499128912506 
0.06000217407604068 
-0.005961929544471906 
0.12531225489532666 
-0.0008519006821128832 
-0.016563323918451132 
6.811293551286111e-05 
0.023690339567335485 
-0.006294418725068736 
0.10961127542280998 
0.04469335244729313 
-0.0010081242826955696 
0.0009851030962961123 
-0.0018249003526992298 
0.005860470480018315 
0.13634479003798272 
0.03767507600862485 
-0.07191774961522798 
-0.000638970028836801 
-0.06598581383351547 
-0.00038663269305029877 
0.009158060767816922 
0.06277001894800932 
-0.06766033057992513 
0.03262602345626764 
-0.0022599226577084508 
-0.10105512991379592 
-0.0031121860216001104 
0.12668034277912316 
0.08435151670570674 
0.14010103600484566 
0.13647401572218823 
0.003806777599516286 
0.2029797039745004 
-0.00030082437983059736 
-0.10732638783341157 
-0.011464277492964782 
-0.1583464293420064 
0.053777532238764934 
-0.00029990958605534645 
0.0344063658583889 
-0.0017331370123330637 
-0.06931381888209602 
0.084196695626539 
-0.1894574371052738 
-0.14070068628358698 
0.0017570902635767943 
0.044048790718267734 
-0.11978963260864596 
-0.1469118685884857 
0.0667479990222145 
-0.0071344205025377135 
-0.032459903514006454 
-0.00030323663715396324 
-0.27528507950155695 
-0.0007593199977970929 
0.07007590477980553 
-0.008312748723014317 
0.12156215946407879 
0.08406338391441806 
0.0009291929070804875 
-0.019975350088665137 
-0.7478146739514208 
-0.1200409937262277 
0.11113393191411448 
0.13866657951721365 
-0.0811810126859705 
0.003137426000740757 
0.010470342993579828 
-0.0008387089048582944 
-0.04910286425553796 
-0.10509775146580211 
0.028092250489040134 
-0.0440570886133699 
-0.002075339726093613 
0.06828448826899092 
-0.11995695147083651 
0.0230873174236635 
-0.050463955085726014 
-0.07077866319077754 
-0.08704336905012149 
0.004348783277701765 
0.05985728015043428 
-0.00021310608683807695 
0.110998166332634 
-0.10341410502107143 
0.12955325146318578 
0.022866949195036672 
0.00040788430679483223 
0.15650075531390434 
-0.00011882304523542142 
-0.002765929826741445 
-0.09859479913198563 
0.07237810719716942 
-0.09886426687302552 
0.002120426845250338 
-0.006866870365877547 
-0.0008628947738072238 
0.07338799406985531 
-0.06051903760030276 
0.039205027719984825 
0.017713278609698613 
-0.0013984614244881442 
-0.04730746677637817 
-0.00013300883371843722 
0.08471899317742629 
-0.016551504254033053 
-0.09449025739346566 
0.013265762906784242 
0.0029554641696213175 
0.06926456680246336 
-0.0004048132125802194 
0.06778625284257511 
-0.07054576099126564 
0.05459377630959543 
-0.012970563690426543 
-0.0017839624875556374 
-0.13082950583103498 
-0.0006661386371991878 
-0.0962882978156379 
0.028799402695329355 
0.04740677896920715 
0.0056753559593743326 
0.0013271496542142482 
-0.0017933662384709023 
1.5053354364160392e-05 
0.08628272539656419 
-0.09661365688940372 
-0.05460841095351998 
-0.08145929625177596 
-0.01042552476933201 
0.006884482312328324 
-0.0013916452816744756 
0.024739032112621764 
0.005069844962135723 
0.02878828117245314 
0.042866874296395664 
0.0020371884768158673 
-0.022316654020369604 
0.00016089791166031838 
-0.11580701180262422 
0.17040263279894868 
0.10851273023448607 
0.15461896196989544 
-0.007919280693177903 
0.015299415857601162 
-0.000603350810852746 
0.04417706912845754 
0.037551227454906806 
-0.17383310928535892 
-0.019868380451685794 
-0.0010105180227723634 
-0.008891231934756307 
0.01513159753544527 
-0.016514964217719863 
6.575121910360322e-05 
0.021252082224861177 
0.11459670692786769 
0.004151966590145332 
0.12074040828391401 
0.000724611370528232 
-0.039375263714739754 
0.00017981510846497393 
-0.04805881893202934 
0.0046982462694946095 
-0.07945366395306039 
-0.04502847986639935 
0.002074733509804987 
0.0640239660379014 
0.00020139347400117822 
0.2167251312642201 
-0.08259946274637198 
-0.19311431472095822 
0.00857138036591629 
0.0014876990161898323 
-0.030646628174718776 
0.00011408704337399346 
0.10650499128912506 
0.06000217407604068 
-0.005961929544471906 
0.12531225489532666 
-0.0008519006821128832 
-0.016563323918451132 
6.811293551286111e-05 
0.023690339567335485 
-0.006294418725068736 
0.10961127542280998 
0.04469335244729313 
-0.0010081242826955696 
0.0009851030962961123 
-0.0018249003526992298 
0.005860470480018315 
0.13634479003798272 
0.03767507600862485 
-0.07191774961522798 
-0.000638970028836801 
-0.06598581383351547 
-0.00038663269305029877 
0.009158060767816922 
0.06277001894800932 
-0.06766033057992513 
0.03262602345626764 
-0.0022599226577084508 
-0.10105512991379592 
-0.0031121860216001104 
0.12668034277912316 
0.08435151670570674 
0.14010103600484566 
0.13647401572218823 
0.003806777599516286 
0.2029797039745004 
-0.00030082437983059736 
-0.10732638783341157 
-0.011464277492964782 
-0.1583464293420064 
0.053777532238764934 
-0.00029990958605534645 
0.0344063658583889 
-0.0017331370123330637 
-0.06931381888209602 
0.084196695626539 
-0.1894574371052738 
-0.14070068628358698 
0.0017570902635767943 
0.044048790718267734 
-0.11978963260864596 
-0.1469118685884857 
0.0667479990222145 
-0.0071344205025377135 
-0.032459903514006454 
-0.00030323663715396324 
-0.27528507950155695 
-0.0007593199977970929 
0.07007590477980553 
-0.008312748723014317 
0.12156215946407879 
0.08406338391441806 
0.0009291929070804875 
-0.019975350088665137 
-0.7478146739514208 
-0.1200409937262277 
0.11113393191411448 
0.13866657951721365 
-0.0811810126859705 
0.003137426000740757 
0.010470342993579828 
-0.0008387089048582944 
-0.04910286425553796 
-0.10509775146580211 
0.028092250489040134 
-0.0440570886133699 
-0.002075339726093613 
0.06828448826899092 
-0.11995695147083651 
0.0230873174236635 
-0.050463955085726014 
-0.07077866319077754 
-0.08704336905012149 
0.004348783277701765 
0.05985728015043428 
-0.00021310608683807695 
0.110998166332634 
-0.10341410502107143 
0.12955325146318578 
0.022866949195036672 
0.00040788430679483223 
0.15650075531390434 
-0.00011882304523542142 
-0.002765929826741445 
-0.09859479913198563 
0.07237810719716942 
-0.09886426687302552 
0.002120426845250338 
-0.006866870365877547 
-0.0008628947738072238 
0.07338799406985531 
-0.06051903760030276 
0.039205027719984825 
0.017713278609698613 
-0.0013984614244881442 
-0.04730746677637817 
-0.00013300883371843722 
0.08471899317742629 
-0.016551504254033053 
-0.09449025739346566 
0.013265762906784242 
0.0029554641696213175 
0.06926456680246336 
-0.0004048132125802194 
0.06778625284257511 
-0.07054576099126564 
0.05459377630959543 
-0.012970563690426543 
-0.0017839624875556374 
-0.13082950583103498 
-0.0006661386371991878 
-0.0962882978156379 
0.028799402695329355 
0.04740677896920715 
0.0056753559593743326 
0.0013271496542142482 
-0.0017933662384709023 
1.5053354364160392e-05 
0.08628272539656419 
-0.09661365688940372 
-0.05460841095351998 
-0.08145929625177596 
-0.01042552476933201 
0.006884482312328324 
-0.0013916452816744756 
0.024739032112621764 
0.005069844962135723 
0.02878828117245314 
0.042866874296395664 
0.0020371884768158673 
-0.022316654020369604 
0.00016089791166031838 
-0.11580701180262422 
0.17040263279894868 
0.10851273023448607 
0.15461896196989544 
-0.007919280693177903 
0.015299415857601162 
-0.000603350810852746 
0.04417706912845754 
0.037551227454906806 
-0.17383310928535892 
-0.019868380451685794 
-0.0010105180227723634 
-0.008891231934756307 
0.01513159753544527 
