-0.04209112940721371 
-0.046577907410949554 
0.07148533767983375 
0.16599598792631873 
0.13916043835533434 
-0.05639777079913336 
0.1738962853862119 
0.03100471562339832 
0.10728859629171297 
0.01562769679107029 
-0.06882954691966417 
0.09128012562487567 
0.046156621905727196 
0.12020232300923026 
-0.15509707465792982 
-0.0006096546607438938 
-0.18012450291883422 
-0.07906482020393081 
-0.15499291894119124 
0.0077303496662308735 
0.14550383762865418 
0.15566041922963572 
0.06425145652904649 
-0.14302521470764046 
0.17665006209443354 
-0.047838512039437925 
0.15648992921526791 
0.10831699757329419 
0.05146873748589964 
0.12883221551430526 
0.08185595786309421 
-0.06737834579988577 
-0.07021023887729617 
-0.03413166171357704 
0.1279246782542022 
0.020718739146789428 
-0.06546260046688057 
-0.08621045958849252 
0.13949221815725618 
0.1695474426833423 
0.1079361564056929 
-0.03003249936133484 
-0.14553988638746035 
0.09428596344779563 
-0.09023326553671715 
0.13281189305774224 
-0.14916035146085233 
-0.17415575603647873 
0.008122462697723432 
-0.05528707908680974 
0.0785594419403973 
0.063730785679909 
0.04661028502169812 
0.11913914382932309 
-0.17944211142446986 
0.11875811690049534 
-0.053901988299748405 
-0.042078695581206 
-0.08406049961310225 
0.01610986274263726 
-0.11250632671361016 
-0.05211026584168715 
-0.08615314833062304 
-0.10681581931901642 
0.05287380412202605 
-0.178425564066533 
-0.024777796370129473 
-0.016674211769933694 
-0.07318052823082058 
-0.08194122780706152 
-0.14788745497948982 
-0.0038406520552186347 
0.07365614704229681 
-0.06580657525559999 
0.05848593975282118 
0.09751622872198676 
-0.17652638593121953 
-0.14244447611338118 
-0.1411342688816612 
0.1481622974967233 
-0.1564344453204222 
-0.06784472571918 
0.14502956992975333 
-0.14136950922767277 
-0.031083543730290458 
-0.9914629616893746 
-0.08936915807482254 
-0.03663306669619179 
0.0775334954377764 
0.12100776211800837 
-0.030087068705021952 
-0.07441729326977949 
-0.009068144246235338 
0.16974075478246362 
0.015553755413406617 
-0.019305628303810135 
-0.0492841159212401 
0.17681974184814417 
0.0928454472793667 
-0.00381722817561101 
-0.11959458908943235 
0.0025970398169413433 
-0.15475307531373322 
-0.0965073557699546 
-0.1412292981485631 
-0.03568216701732177 
-0.18163651096424885 
0.12917176141230627 
0.09500300824099286 
0.12647114480592717 
-0.11364402952173956 
-0.1164788318804984 
0.0052262883322804765 
0.1648852714820976 
0.14127627293722703 
0.1215564749271181 
0.16600356489646947 
0.0472934452760399 
-0.16444493678089422 
-0.14367092579892493 
-0.03741453799129796 
-0.08846435427242581 
-0.07726997017403692 
0.04667983249869476 
0.14247482259111002 
-0.09660891870440458 
0.1710561346774028 
0.12439667768823001 
-0.07508541007739945 
0.009905587970667984 
0.027141859951762215 
-0.10411906180631217 
0.1389851470213043 
-0.1155694330136951 
-0.0531558155722823 
-0.17337670804804797 
0.06030036986469703 
0.06506147321206002 
-0.17808922905640046 
0.10469183422670378 
-0.001528016447409214 
-0.018110540398650843 
-0.042943370085885224 
0.1267787201350105 
-0.06684830136474125 
-0.05758818295197535 
-0.1141448373859765 
-0.09057234236816436 
0.0928977747080921 
0.04041913588370072 
0.08888283151982948 
0.10905045398992538 
0.15416025196795394 
0.16520165706065507 
-0.034095479993747124 
-0.0002725385284112527 
-0.05980318085389463 
-0.1706193160643936 
-0.0906643819557897 
-0.037663336365889144 
0.14338569180615648 
-0.13925433206418156 
0.11743333711982143 
-0.026431146365465452 
0.06765818869171744 
-0.04065138378132857 
-0.10950343588928454 
-0.050134427718406344 
-0.08926939334781156 
0.09876056949936021 
0.11038700589559433 
0.18308005011397363 
0.1287025566792456 
-0.03973726628490076 
-0.17389757886944626 
-0.09198757267098992 
-1.3685810848559813e-06 
