-0.035462405785651165 
1.3851128566477758e-05 
0.01447178064610054 
0.05822926714350245 
-0.15889497089247034 
-0.17277345547203143 
-6.819169107201581e-05 
0.02583050793034902 
3.9629021854492137e-05 
-0.0867864165508277 
0.04545202340183446 
0.1551391564850225 
-0.07401913382001238 
0.0015059031096435686 
-0.02728890318384246 
-0.00014853231118165642 
-0.01983635416769484 
0.014235539313358461 
0.0230907821919034 
-0.07254638439392265 
-0.00015948418932914478 
-0.021780997179455835 
-2.964797867911542e-05 
-0.004009487174546383 
-0.05725954258121706 
0.042304718302480705 
-0.12240549052352073 
0.0017456112618809522 
0.028826412278786975 
-5.3687053853999035e-05 
-0.1057295566214679 
-0.15274618837699144 
0.10474764555978242 
-0.08459961473068928 
0.00023312765483266272 
0.0020518851727191717 
1.3214897511266474e-05 
-0.12537041106142405 
0.22151366491816396 
0.047695658613896755 
0.014278821511935663 
0.0002570043893841902 
0.008383516814068721 
1.400112602753791e-06 
0.003879726735387877 
0.13644641831755847 
0.1739024342699072 
0.12904478532624325 
0.000256962819925474 
0.01002750552715577 
4.812565131604935e-05 
-0.0863122829446731 
0.15896617759629317 
-0.06555141565576726 
0.06902973142265821 
-0.00015929235961419577 
-0.00895897747869479 
-7.090595454914371e-05 
0.03920470020506052 
-0.008421509431491583 
0.04717946288494747 
0.12218230033562325 
-0.001645155366764171 
-0.021980990044301506 
-3.5452038620216236e-05 
0.11668184456816015 
-0.11403613059619186 
0.12799419420087146 
0.019042189760069897 
-0.00024884205979694603 
-0.010276458660959708 
-0.021240197323717687 
-0.001520291696198653 
0.07541173738504978 
-0.10629188892560837 
0.043545017724198526 
-3.76833439465017e-05 
0.025822922531251465 
-1.575453033027757e-05 
-0.021744673599507276 
0.03421713176876948 
-0.1728946783982097 
-0.031957501144389555 
0.004992314186034109 
-0.013613664274607102 
-0.9562510756935447 
0.03594982111311854 
0.05346791662978622 
0.14660126332156306 
0.12183371487791321 
-0.0023809306717306614 
-0.07550775910723516 
-9.770542367062262e-05 
-0.12067509385133623 
0.057971862836553596 
-0.030040870121384792 
-0.0349371698170957 
0.012616867206036164 
0.014450059126580352 
-0.02129444457134963 
-0.0843616110066553 
-0.033993424113178475 
0.060767147676378745 
-0.07467675894104785 
0.000353160718255999 
0.053122090831183355 
-3.443687942902251e-05 
0.024580467626569937 
0.08211756971524144 
-0.09137644962218565 
0.047042803456436244 
0.0008839713068232573 
0.07366733677318511 
-4.086008485253719e-05 
0.030924053441386823 
-0.08954584109119501 
0.1555856211141455 
0.001147983801982116 
-0.001916639132574221 
-0.024798901093064606 
1.5835541039918715e-05 
0.009841581501635898 
0.023148640631334042 
0.08740006950896997 
0.07003624451806681 
0.0019850443992982833 
0.10518330622647333 
-3.767494413925814e-05 
0.11462605091639602 
-0.08833228529518627 
-0.15747269366580027 
-0.11704461316092729 
0.0037805657938921092 
0.023047566925095467 
4.4341114578094924e-06 
-0.04992912369979529 
-0.09739985193475745 
0.08044332961945976 
-0.07924036278748003 
-0.001549667185776206 
-0.17997367757553198 
1.2630287575826426e-05 
-0.40839023628796867 
0.03168341806593576 
-0.0845823644038893 
-0.15825817573453266 
-0.00011575809201714585 
0.00031581658965333523 
-2.927319665153976e-05 
-0.22951337153607063 
-0.14782712727714206 
0.1415639537433745 
-0.11992088469217697 
-0.012215503101548003 
0.0002874043319660849 
-0.0007449316772205578 
-0.1895668641047164 
-0.11708163848842004 
0.12327117404373177 
-0.08984479006908645 
0.00398440292541788 
-0.0003686066909282573 
8.848664694531894e-06 
-0.45317879232427716 
0.117961778817538 
0.005406880136857201 
-0.0217853463472823 
-0.02934144291645872 
0.0007523341136359322 
-1.840778192710282e-05 
-0.3312637893924876 
0.07637770184188998 
-0.14278351966568184 
-0.12999980088494353 
0.0002957559813864675 
0.0003302632814106077 
0.011293993401797844 
-0.035462405785651165 
1.3851128566477758e-05 
0.01447178064610054 
0.05822926714350245 
-0.15889497089247034 
-0.17277345547203143 
-6.819169107201581e-05 
0.02583050793034902 
3.9629021854492137e-05 
-0.0867864165508277 
0.04545202340183446 
0.1551391564850225 
-0.07401913382001238 
0.0015059031096435686 
-0.02728890318384246 
-0.00014853231118165642 
-0.01983635416769484 
0.014235539313358461 
0.0230907821919034 
-0.07254638439392265 
-0.00015948418932914478 
-0.021780997179455835 
-2.964797867911542e-05 
-0.004009487174546383 
-0.05725954258121706 
0.042304718302480705 
-0.12240549052352073 
0.0017456112618809522 
0.028826412278786975 
-5.3687053853999035e-05 
-0.1057295566214679 
-0.15274618837699144 
0.10474764555978242 
-0.08459961473068928 
0.00023312765483266272 
0.0020518851727191717 
1.3214897511266474e-05 
-0.12537041106142405 
0.22151366491816396 
0.047695658613896755 
0.014278821511935663 
0.0002570043893841902 
0.008383516814068721 
1.400112602753791e-06 
0.003879726735387877 
0.13644641831755847 
0.1739024342699072 
0.12904478532624325 
0.000256962819925474 
0.01002750552715577 
4.812565131604935e-05 
-0.0863122829446731 
0.15896617759629317 
-0.06555141565576726 
0.06902973142265821 
-0.00015929235961419577 
-0.00895897747869479 
-7.090595454914371e-05 
0.03920470020506052 
-0.008421509431491583 
0.04717946288494747 
0.12218230033562325 
-0.001645155366764171 
-0.021980990044301506 
-3.5452038620216236e-05 
0.11668184456816015 
-0.11403613059619186 
0.12799419420087146 
0.019042189760069897 
-0.00024884205979694603 
-0.010276458660959708 
-0.021240197323717687 
-0.001520291696198653 
0.07541173738504978 
-0.10629188892560837 
0.043545017724198526 
-3.76833439465017e-05 
0.025822922531251465 
-1.575453033027757e-05 
-0.021744673599507276 
0.03421713176876948 
-0.1728946783982097 
-0.031957501144389555 
0.004992314186034109 
-0.013613664274607102 
-0.9562510756935447 
0.03594982111311854 
0.05346791662978622 
0.14660126332156306 
0.12183371487791321 
-0.0023809306717306614 
-0.07550775910723516 
-9.770542367062262e-05 
-0.12067509385133623 
0.057971862836553596 
-0.030040870121384792 
-0.0349371698170957 
0.012616867206036164 
0.014450059126580352 
-0.02129444457134963 
-0.0843616110066553 
-0.033993424113178475 
0.060767147676378745 
-0.07467675894104785 
0.000353160718255999 
0.053122090831183355 
-3.443687942902251e-05 
0.024580467626569937 
0.08211756971524144 
-0.09137644962218565 
0.047042803456436244 
0.0008839713068232573 
0.07366733677318511 
-4.086008485253719e-05 
0.030924053441386823 
-0.08954584109119501 
0.1555856211141455 
0.001147983801982116 
-0.001916639132574221 
-0.024798901093064606 
1.5835541039918715e-05 
0.009841581501635898 
0.023148640631334042 
0.08740006950896997 
0.07003624451806681 
0.0019850443992982833 
0.10518330622647333 
-3.767494413925814e-05 
0.11462605091639602 
-0.08833228529518627 
-0.15747269366580027 
-0.11704461316092729 
0.0037805657938921092 
0.023047566925095467 
4.4341114578094924e-06 
-0.04992912369979529 
-0.09739985193475745 
0.08044332961945976 
-0.07924036278748003 
-0.001549667185776206 
-0.17997367757553198 
1.2630287575826426e-05 
-0.40839023628796867 
0.03168341806593576 
-0.0845823644038893 
-0.15825817573453266 
-0.00011575809201714585 
0.00031581658965333523 
-2.927319665153976e-05 
-0.22951337153607063 
-0.14782712727714206 
0.1415639537433745 
-0.11992088469217697 
-0.012215503101548003 
0.0002874043319660849 
-0.0007449316772205578 
-0.1895668641047164 
-0.11708163848842004 
0.12327117404373177 
-0.08984479006908645 
0.00398440292541788 
-0.0003686066909282573 
8.848664694531894e-06 
-0.45317879232427716 
0.117961778817538 
0.005406880136857201 
-0.0217853463472823 
-0.02934144291645872 
0.0007523341136359322 
-1.840778192710282e-05 
-0.3312637893924876 
0.07637770184188998 
-0.14278351966568184 
-0.12999980088494353 
0.0002957559813864675 
0.0003302632814106077 
0.011293993401797844 
