-0.17582595513856208 
-0.10225202907611265 
0.013322629110702283 
-0.16019228096936608 
-0.0059602071613234775 
0.07644799008248929 
-0.05535461738898714 
-0.10298987403955119 
-0.018471180938411325 
0.0077395286506455885 
-0.05689672841391605 
0.159978228488346 
0.01972924933345746 
0.04474004497331954 
0.14959815322199957 
-0.0004520813162221048 
0.027060251014848546 
0.06333488392808218 
-0.10454714666474493 
0.12578933340570733 
-0.11600047021638925 
-0.1795345947762002 
0.1178017396499478 
-0.09464651688999601 
0.1603173097702247 
-0.13366543961023936 
-0.04783794579280734 
-0.16790877127196355 
0.08624026888032613 
-0.1543602730030284 
0.09757132204845428 
-0.1559111288917821 
-0.06601134958001083 
0.054870932791434984 
0.03224982819706909 
0.16194038090266696 
-0.03488795072161502 
-0.16164493659594242 
0.12630488196696874 
0.1716849009203004 
-0.030157515204989604 
0.11772951274632323 
-0.009930179824810925 
-0.11746160577167135 
-0.12414071083025387 
-0.09725958819861955 
0.06919402693323537 
0.17672655787176214 
0.16084988129977565 
0.04745526180820661 
-0.022756225926493984 
-0.08127396230642946 
0.0006198771770462852 
-0.0293282552898452 
0.17206665364215054 
-0.09461252377290114 
0.14870398097751145 
-0.02008893759527619 
-0.15294678947453802 
-0.12046766913539407 
0.09773572102283598 
0.11279740237284833 
0.16754368685048135 
-0.05570431993740069 
0.07732857714624189 
0.14643186227758034 
0.0856041373153352 
-0.12269551380131696 
0.039904199147638875 
0.12658918665571164 
-0.16319624093091165 
-0.0007338508409929725 
-0.05486037503242508 
0.03029482504662892 
0.13315846391654088 
0.057279400530340335 
-0.0555876375309442 
-0.0334757879546054 
0.16099920507048834 
-0.16243122004202445 
-0.03693341707869499 
0.07262473171137332 
0.13888360209526782 
0.0066797969825218295 
0.170341358180664 
-0.9975646878542888 
0.16134804270935418 
-0.09539862542993802 
0.07126862096580724 
-0.0435863163226958 
-0.14050609484680704 
-0.13388799737384038 
0.07930824207016687 
0.05861190353231119 
-0.1384872166118798 
0.061040644655629916 
0.08274789614285685 
0.06656822538739757 
0.08472432316052034 
-0.0007441098675448635 
0.17137497452353204 
0.07566442719763541 
-0.1569892496469089 
0.08220594794559946 
-0.07755169722354564 
0.03270255853366649 
-0.05227084325290626 
-0.16452519631843984 
-0.028676638525685777 
-0.09378156465013929 
-0.09854521470234953 
0.1816056744489641 
0.0707846743411554 
0.11649827102741425 
-0.05114706091653948 
0.1629366694112425 
0.09792288030445298 
-0.021318473589551523 
0.10174802622896592 
-0.06961759287710906 
0.05649433663017486 
0.06943211102768479 
0.16048818020456126 
0.17553399275475365 
-0.16795893497548667 
-0.16177639637935226 
0.11251442940657794 
-0.1720385504813262 
0.1490413729820024 
-0.15711702316587772 
-0.1595421678300668 
-0.16434521463637508 
-0.07492466992096315 
-0.02334237614336168 
0.08592226288964613 
0.11000803058939587 
0.130937655007992 
-0.03472237498448166 
0.11315537504822396 
-0.1078966732485851 
-0.04371936979429655 
-0.10725267677678868 
-0.04812202684341288 
-0.015647513936448365 
0.11027013622419621 
-0.10948308576397274 
0.06969588352364972 
-0.16227210432316416 
0.04732824175735864 
-0.1734476724960589 
-0.027698278944866123 
0.08150246783014262 
0.18150813225787424 
0.04436303439150416 
-0.08745269154384427 
-0.0005016511531515899 
0.13677488400156237 
0.08654280031059527 
-0.10762887945300471 
0.11456337254602691 
-0.1425889303024016 
-0.008954119537219973 
-0.17122328646841053 
0.024478505533940348 
0.16318593532872153 
0.06365337325102602 
0.1813954198473258 
-0.09895913541140197 
-0.1198923283386039 
-0.024156328849878367 
0.10193950739449362 
0.14696509980501185 
0.1139189235893592 
0.16868991258291519 
-0.17758851712303453 
-0.0771562089140423 
2.345269530735846e-06 
