0.07484836515204374 
8.625338680444556e-06 
-0.037699632109545085 
0.12196709688197868 
-0.040685253332835125 
-0.10686608531964464 
2.10232419633963e-05 
0.0041808736439289985 
-1.8589288034240764e-05 
-0.15105206695042886 
-0.028972979959342282 
-0.07804029219730857 
0.11999605754556326 
0.0008508860112771628 
0.04254490362567217 
-0.00024161846926442032 
-0.12403394876109584 
-0.1772509542183625 
0.16590606244301295 
0.14005193331208765 
-0.004419591993003575 
-0.021768006138426624 
-1.5086923810754762e-05 
0.15733211109198575 
0.1642684730752974 
0.07728831985831952 
0.00404622038374142 
-0.0013790154228220265 
-0.042732876535044054 
-3.4998826293536326e-05 
0.05188873612474762 
0.1458551481424534 
0.0316483024178375 
-0.12985219313569893 
-1.950955065160194e-05 
0.019198774601800868 
-3.57995901153745e-06 
-0.0831489064738558 
0.04620363610668484 
-0.10780959212872473 
-0.041933106472930366 
-3.615442570262704e-05 
-0.015805275089585794 
5.098892685901563e-06 
-0.09060982353577599 
0.10905055064119144 
-0.0853223989086166 
0.019910696388579768 
0.0009648361590742605 
-0.0952169143014555 
-2.12790880575438e-05 
0.19365370607324722 
-0.10782989454272071 
-0.054105393631974086 
0.01155810620050498 
-0.007817035856005494 
0.08955084418349694 
-7.321934910067713e-06 
0.14240808059546994 
0.033821935338907615 
0.009331372108305926 
0.13529063823867024 
0.0001670986204354743 
0.09084212162977366 
-2.3305975853055533e-05 
-0.041126551945668846 
0.009303255597864225 
-0.06294282459592816 
-0.03787588666201354 
-0.00027425402253336345 
-0.06916288218806356 
-0.007995005159573482 
-0.19343686070205074 
0.057748871772691085 
0.08158412120108215 
0.01508482954676197 
0.00019809924774965424 
0.02331788490914776 
1.7582149276622885e-05 
-0.08656362659798832 
0.04479733755723433 
-0.06440134827165907 
-0.02283401868123475 
0.012415102517095886 
-0.10996760791010557 
-0.9829267026473337 
0.004663174546790456 
0.11807822001624704 
-0.03461679087431917 
0.10069790810915902 
0.010247253062653127 
-0.029629837497130017 
2.443039203744759e-06 
0.13357069624161727 
-0.08179557887795767 
0.16090886372481372 
0.058394244844082156 
0.014121902854697478 
0.10719588462901097 
-0.008016943754280617 
-0.11549805688199852 
0.0739226698447181 
0.11234357605028382 
0.0784720389567813 
0.00026444764961495933 
0.007256109583357283 
-4.972318345657045e-06 
0.19845573638926264 
-0.13707667847984442 
0.10298345101556466 
-0.0017509088786064097 
0.0006587501884095145 
0.07446468572917404 
4.129400381639903e-05 
0.2737908809179445 
0.09726344048555814 
-0.13570189638934743 
0.08868367980804016 
-0.0033280279128689205 
0.02590689034527575 
-1.0239074533288581e-05 
0.49686905797060354 
-0.09038439347753728 
-0.06545984599691092 
0.0204229128689524 
0.018038577718860953 
0.0364028959422 
1.988445567665685e-05 
-0.12842305995845707 
0.13976839413025827 
0.08536608980235465 
0.15942257038469784 
0.0008162269965993395 
-0.026155420969465378 
-2.8885333578878016e-05 
-0.1095563935275186 
0.16955313662855012 
-0.004550127383997025 
0.1317992540476732 
-0.0011876012058574 
-0.1109408317928547 
1.6047181886374794e-05 
-0.07650685364309523 
0.004578768785385471 
-0.07165423744069026 
-0.0829488905859376 
5.174228048871551e-05 
0.00030750165328442396 
-1.2560102158196295e-05 
-0.07718725289543969 
0.058493716555563284 
0.049766161692788205 
0.0852727105429796 
-0.021344083651855292 
-0.00017872661264995985 
-0.0006764808588262046 
-0.018617409822746924 
-0.04897352530333012 
0.003329695278561349 
-0.05068939629440945 
-0.007342823827569146 
0.0006584639836142333 
-6.236928993405427e-06 
-0.07550630737946983 
0.062448824467394234 
-0.08214949622780494 
-0.03436038794723125 
-0.031896448335366034 
0.00014238756182804397 
9.931678620114934e-07 
-0.09347900449696107 
0.14587374196664005 
-0.10922334672591616 
0.018812250572416294 
3.928080054263149e-05 
0.00011194086186984288 
0.006821704927366647 
