-0.012170045470602348 
2.8353127114526385e-05 
-0.03553346269044106 
0.05198132458380225 
-0.14556371414937905 
-0.14977247880768213 
-0.00015877747582004702 
-0.0002544229337257917 
-0.00011596837552711992 
-0.1567432376164089 
-0.13926345203119006 
-0.14778638674788322 
-0.13642117195574224 
0.00010338438293238117 
0.00038902045364808417 
-0.0005023501197353606 
0.012365746048824225 
0.005906580470353235 
0.07026634262020745 
0.1891407677398027 
0.01764505581086213 
-0.0005029752345345012 
4.6269988155422e-05 
-0.008659097034232476 
-0.0655191454596806 
0.17674843122092448 
0.08124053170380181 
-0.01854681684739884 
0.0005772865441302944 
-9.049085825077494e-05 
-0.1106330087383936 
0.07463397107743618 
0.026468689102564294 
0.04019470412245774 
7.500591728577214e-05 
-0.00034269556745337044 
-1.3796040404960217e-05 
-0.20657107510611752 
-0.12367073095034724 
0.003971741771416181 
-0.06088434401643929 
-0.0006734137326628243 
0.058266509320393116 
1.4636601858486285e-05 
0.31436061988651587 
-0.061698425831566754 
-0.09505676290523865 
-0.09395009497332237 
0.03489755376752895 
0.09345959438725913 
-1.9144208825806258e-05 
0.19925409516639453 
0.03679997129294143 
-0.08775838390471995 
0.035406623954356634 
0.008822892632691598 
-0.10848704673100162 
4.020836221139529e-05 
0.3635530510926837 
0.05859183643390117 
0.01811301851877216 
-0.06956767127359287 
0.023847024369912612 
-0.11124962222444668 
-1.628007056623731e-05 
-0.2857459523431614 
-0.053692690184676796 
-0.10353517668688705 
0.11048789239479051 
-0.000804857062066744 
0.07006276340578652 
-0.006468698273529517 
-0.1550568070791429 
-0.0015318130276170514 
0.045265100086016356 
0.04358592826877929 
-0.0015767706415809415 
0.2183507448452192 
-6.007587712211307e-05 
0.0653390476255354 
-0.16317561399992814 
-0.027634973644469114 
-0.18041744812555305 
-0.0006114190631259056 
0.04815570123828981 
-0.9862000341073351 
0.07540131118651673 
-0.022362993614678143 
-0.004881706461868011 
-0.049032807411347065 
-0.029072293039942923 
-0.08403166375776155 
-3.08484280402574e-05 
0.049706679126303534 
0.11514357376149288 
-0.05053637868894072 
0.11694577338452017 
0.01182655575110906 
-0.044653976532585314 
-0.0064202937467772265 
0.3650016821336464 
0.04265127462914267 
0.03293971743095545 
-0.12927672874283383 
0.0011738262838745035 
-0.13843248567358807 
1.15155398093699e-06 
0.07495683900659468 
0.07568018164221002 
0.00525298310345351 
0.02204939598314133 
-0.0006928646378953601 
0.1322173103323545 
6.940995111852983e-05 
-0.06522649980133437 
0.11863343823685879 
-0.05881461561859893 
0.18086167586704832 
-0.014416139585836695 
-0.20532744962580898 
8.447471097019712e-06 
0.12012162597482036 
0.07832910172840749 
-0.06800849185753277 
0.015785820539906868 
-0.0042383168032498544 
-0.08803519628874665 
3.080512815199439e-05 
-0.058941062229467225 
-0.010664467483392417 
-0.10508792610411408 
0.06003373669273541 
-0.009437785248710416 
0.16247076024269327 
1.4681470879044006e-05 
-0.04978744391552933 
0.026996538584572332 
0.10079978905912501 
0.03270377365892902 
3.7975844327177606e-05 
-0.002915398654922996 
-3.507647155077235e-05 
-0.0594100627384243 
-0.054146350416973014 
0.16059039927628488 
0.06460271926254231 
-0.00012474234991320294 
0.006213591220719261 
1.5698854925959657e-05 
-0.025534401474422996 
0.13590274148493522 
0.13450826154274803 
0.1451380186444176 
-0.0015368395280967435 
-0.08935404501567012 
-0.00021585622514562808 
0.0018014931900824844 
0.03974384033591661 
-0.1556048130100599 
0.08761059438436511 
0.002348416180223507 
0.06914848138618995 
-2.577050399650069e-06 
-0.04955102834779517 
0.02474891522224624 
0.044511418588583145 
0.09397674035111363 
-0.00020249090890264276 
0.09654527012172963 
-3.1692861640042926e-05 
-0.013666989179561799 
0.02282469981618083 
0.12994396100558442 
0.0487472091924169 
4.326459370382892e-05 
-0.0831933793288229 
-0.0012000870392821447 
