0.09999067689304766 
-0.16616323461884147 
0.061692618775402636 
-0.075688911058861 
0.1474026687884847 
0.15853401510744855 
-0.10315797787353416 
0.06628762645372258 
0.013075342423148478 
-0.1171478977109651 
0.08322020185560616 
-0.1517577398819914 
-0.11188555795781077 
0.10169244687262965 
-0.037609143857832095 
-0.0005211305774526125 
-0.1442801220902343 
0.0955408177305048 
0.0004880418972898204 
0.04768199755290492 
0.07827953684427338 
0.14819098918683185 
0.16999833194050903 
-0.00863424783260372 
-0.11383075948396836 
-0.12924304837145445 
0.09214690194421546 
-0.03892237710818114 
-0.1778873616554382 
-0.17662138742958172 
-0.16128727295077677 
0.11555445255142963 
0.10176826170049955 
0.17881976767283805 
0.1170975016906746 
-0.16936066929270305 
-0.1531730040839707 
-0.06146451882275511 
-0.12305915762779833 
-0.10992551313892598 
0.11267155988441171 
0.03306058203881301 
-0.1103414936752166 
0.1275551198666028 
0.153324753586524 
-0.1576631061511323 
0.001665446217644334 
-0.04900997343212654 
0.13552548526461713 
-0.00580773564936965 
-0.023702907609956136 
0.1174035735054765 
0.030333008678790213 
0.16535866529501345 
-0.042636503951958254 
-0.14401969870067702 
0.14977357435993752 
-0.11862959233250014 
-0.11766405615883875 
-0.03851923890643136 
-0.1414888159230543 
-0.046644046447685744 
-0.15913548500582456 
0.10686217356366404 
-0.07015675017970087 
-0.07383794325849119 
0.060582277741168256 
-0.16576947539500267 
0.059132303331968394 
-0.08660718646972325 
0.07372817809127577 
-0.0005806737718726632 
0.026925958565296337 
-0.1725211054846208 
0.03843690416056375 
-0.011233962077993126 
0.10440487262839668 
0.032853407023779785 
-0.12208339556864915 
0.04946578688055711 
0.14432747272341998 
0.0937425300338601 
0.0764057225803845 
0.1799885226581949 
0.007708618052161498 
-0.9978423897608943 
-0.041748495066221 
0.052321236217511 
0.09486068058381728 
0.05200319677727125 
-0.040997819391688506 
-0.0823172896562382 
-0.05250243585632164 
-0.18099645393300917 
0.08946362302618269 
0.031111145667404444 
-0.16972171929315347 
-0.0002632681099857259 
-0.07382237773688562 
-0.0005724417306403601 
-0.1300436809644377 
0.12940791192980414 
8.018803646187012e-05 
0.03748524454098931 
-0.04905378794429793 
-0.027086713238421017 
-0.029461945597294176 
0.08813757218107474 
0.0745557698619069 
0.17540227968591207 
-0.1751085803514303 
-0.001082860140738523 
-0.1688259129024209 
0.036902985919678166 
-0.02647915650657831 
0.11055265476549722 
-0.08916137628049255 
0.12778887166598543 
-0.14254720935912862 
0.13391841929307444 
0.11152793171107814 
0.026017303371779626 
0.06361822804360678 
0.17213921195516632 
-0.15351543638957157 
0.0062647507751524 
0.08196036536217641 
0.14394564385894046 
-0.07274223582297124 
0.09838944106742617 
-0.12757504495434774 
-0.06541611191187946 
0.10982239366121485 
0.11949411566477822 
0.03602128666990992 
-0.11667983467462371 
0.15688125004460265 
0.12953859748300053 
0.027452125147668233 
-0.13322246032221308 
-0.1685912541284416 
-0.1287147966781416 
-0.18057369243588095 
-0.140236296585835 
-0.18375919758478876 
-0.02623453762868369 
0.028218313691353802 
0.02016489177063613 
-0.019971013504939655 
-0.043526468047776656 
0.11065511187192364 
0.1812495525435491 
-0.025378280429309896 
-0.021792038511394718 
-0.0353582286355659 
-0.0004834062826559082 
0.13535065679090516 
-0.016785388596295386 
0.1758211895204039 
0.03898920808559769 
-0.111972890617773 
0.03191544711815897 
0.03226249135020934 
-0.16609272366897423 
-0.1398555951598774 
0.1533933123683057 
-0.09054056244743243 
0.13728086522410995 
-0.07437462571116335 
-0.13718767215515337 
-0.1833174046299315 
-0.01629577325691109 
0.1213149131553414 
0.032790488578431476 
0.0630325648793423 
-0.11311437198351175 
-3.412011619972791e-07 
