-0.16452808662558052 
-0.033066808055052105 
0.00990016588705575 
-0.1818335117055151 
-0.02669401817464409 
0.11825937760437691 
0.09237922765481169 
0.1513158972954086 
-0.06135587968127565 
0.12471130774275682 
0.07133725500235846 
0.030251546850054295 
-0.06534353257502362 
-0.03800698196448707 
0.057849913573137346 
-0.0005598354749207825 
0.055953392473776564 
0.10947791871571325 
-0.12086275177364833 
-0.14921150176799966 
0.06289215106364474 
0.06550337828418609 
0.1181072849445571 
-0.044113857331576745 
-0.009832261125541503 
-0.11106998228454526 
0.09224199629234223 
0.11898397920887346 
0.08784014471178644 
-0.11476281928291936 
-0.040421751709990766 
0.1600797807649972 
0.1625903399143124 
-0.11302039390916219 
-0.1427884222683499 
-0.16073996807098132 
0.017416588283344137 
0.11696271614101797 
-0.030356876694888096 
0.16701415302053477 
-0.08423482120131286 
0.09091503135329934 
-0.04590288140488344 
-0.12631349464572605 
-0.03214670261136959 
-0.1097213430629551 
-0.17313727747293972 
-0.03050580349945256 
-0.037722213461763354 
0.027337617914132945 
-0.08906559784554202 
0.08405761085859995 
0.09677499380848706 
-0.03914989923085396 
0.1235835027856019 
-0.13698041933433355 
-0.032941871598842626 
0.03475847427333437 
-0.07736559924448548 
-0.02145532079540599 
0.08933426269950387 
0.09343904243781495 
-0.06642936754579248 
-0.08095037353865894 
0.07153285644587817 
-0.014880562639307288 
0.17929335574316077 
-0.12816468443720896 
0.09984407183333474 
0.17137398898894782 
-0.08157398661390342 
-0.0018141947087682072 
0.004787316203182873 
0.07180450440072558 
0.13631279573463065 
-0.0003800831521608983 
0.07161206987340116 
0.016941720992271703 
0.08053109242482723 
-0.059266890670349015 
-0.17939916153831853 
-0.00890546382897811 
0.12426314777847017 
0.18052945435993958 
-0.0582047363497491 
-0.9954221800809185 
-0.024200433871964883 
-0.009100847383157334 
-0.029004052964215987 
-0.059674452066020664 
0.16840118150934788 
0.1356818238891748 
-0.11086002145482447 
-0.13054800255074198 
-0.06800165961086943 
0.12593456015142748 
-0.0376510106261172 
-0.05495931143604718 
0.06792259641283219 
-0.0018033802353356408 
-0.11425980538670204 
-0.16353065423667149 
0.182736092945011 
0.0280613026563874 
-0.012832796862061902 
0.03905554368169714 
-0.012926370401502324 
-0.027516881973613072 
-0.17391360817013843 
-0.06019149902731588 
-0.1035544225158978 
0.039128610681205905 
-0.17763845934106917 
-0.17047509412498146 
-0.12060142396817083 
-0.11200802177121845 
-0.14355186936322964 
0.003984917725948722 
0.08038507392393454 
0.04526570190641788 
0.002368558478251903 
0.0362844707401172 
0.17803871199074314 
0.08151157069346768 
-0.03621807764448498 
-0.05484945563654722 
-0.05452480131217638 
-0.08414647301649045 
0.05603764520179588 
-0.003550642241408386 
-0.183939640162164 
0.02984156053891704 
0.13697038254777935 
0.12999829539960647 
-0.1503302305688386 
0.007812145270415072 
-0.17840183400305487 
-0.13903472614819617 
0.038386377216918066 
0.14775430650854124 
0.14454390002441755 
-0.06774517244015639 
-0.04140591759826273 
-0.16649278488845942 
0.07999767949769956 
-0.1807147043050439 
-0.11255522554305472 
0.16846785258058486 
0.1584486976291957 
0.07733602492571442 
-0.022887019604625164 
0.1351956891740305 
0.009769569370623066 
-0.03648464413743818 
0.14771668164764926 
-0.00039939540676345466 
0.03589872692864102 
0.14729740042430037 
-0.06091997514406483 
0.06378283477698057 
-0.10959229524653762 
0.020817232095178967 
0.12925604357320383 
-0.05191098786314724 
0.03825100207180071 
0.1741306333448043 
0.17736116496056273 
-0.14256209134606834 
0.1733070459348888 
-0.18231780645362253 
-0.11800126873508573 
0.022157708773674595 
0.15169222679707658 
0.052985556532621825 
0.1547973987344822 
0.061504661970777 
5.633339188121862e-07 
