-0.1159648884918772 
8.18014121308906e-06 
0.18979376895290345 
-0.06895608574603655 
0.04327777664393403 
0.11793942988990912 
5.762329648161563e-06 
-3.3888839316956e-05 
-3.4436910016588527e-06 
-0.04414373684843794 
0.18100497073354374 
-0.043296034415956974 
0.027383565124436494 
0.01338167850289043 
-7.736024709754264e-05 
-0.0004844664990151517 
0.03037488953162135 
0.003834980172551732 
-0.010889718433517704 
-0.025303794562975778 
-0.06987019722027764 
0.0003563726623372594 
-5.655516788640383e-06 
0.16764271358240496 
0.14010898399011185 
-0.06939658163612915 
-0.05153375847378288 
0.0022957066498296755 
1.0225428425221736e-05 
-4.2735116572015854e-06 
-0.014742778896512673 
-0.1654835319635578 
0.03305295479101277 
-0.05930918011382881 
-2.2981871451645057e-05 
-2.1478126234413662e-07 
2.0826615985180464e-06 
0.15245425483042516 
-0.032757019965647734 
-0.004950307737698377 
-0.013727389478945346 
0.00010708984379934663 
0.008683144393709902 
4.506777626042879e-06 
-0.1637489031731928 
-0.062150831343198265 
0.03959410329411504 
0.06136304323946913 
0.07699228925499318 
-0.0455401863690183 
-9.349399884177286e-06 
0.0907160625580117 
0.014144796564694842 
0.036481436158521986 
0.1911240011078517 
-0.04889613493652927 
-0.0069885564543566555 
4.245687214482857e-06 
-0.015299839522367553 
0.10940707319138886 
-0.03648099025300103 
-0.04787003946624044 
-0.09330747677972932 
0.04556209008742984 
-3.0200206786457438e-06 
0.1758164816247412 
-0.0027512050687923174 
-0.009614996595997346 
0.0027446792188751163 
-1.1862911004327784e-05 
-0.001479701145400411 
-0.0005681364744627045 
0.10060914615362655 
0.11741088353537622 
-0.025927756231571508 
0.0055050402098528435 
0.000394770368604346 
0.045719919257857816 
2.698793180212787e-06 
-0.09091650525663998 
0.012258675191245684 
0.000539704899405776 
-0.01368894757652391 
-0.07789010061575581 
-0.02849444987455431 
-0.9978572604820249 
-0.012471939871735012 
-0.11225959041173095 
0.013514758424015392 
-0.0410894211497371 
0.10285408410727181 
-0.10130810696094404 
5.196299295881308e-06 
-0.1321568031075499 
-0.0984939235570115 
0.01463152354200636 
-0.059369237938484504 
-0.007633242283138046 
0.028730621810609522 
-0.0005708396523611228 
-0.08432903771089031 
0.03854152409124288 
-0.03331406271025707 
-0.17329225252841057 
0.0005959375908599768 
0.055276426042858415 
-3.744335030046165e-06 
-0.04683760458237226 
0.13642284725668066 
-0.007405039820592951 
0.057686492021236865 
-0.00017130901990562134 
-0.03449145960767002 
-2.2675688406173173e-07 
-0.0805694691617743 
-0.09614874814335922 
0.04017306758215148 
0.18804780673167912 
-0.08330231134116824 
0.015085245716934537 
-9.313655449695782e-06 
-0.1864800826274139 
-0.023605671555820006 
0.01196926585924281 
-0.008583324758813578 
0.052624926842833084 
0.031417209090718504 
7.147028835846601e-06 
0.16963335261848372 
0.014236810152838368 
-0.029425485492264054 
-0.14642827094506447 
0.10055585320922639 
-0.015137592819253098 
3.571314884559835e-06 
-0.0909420760899661 
0.038079706465281436 
-0.007038174340258379 
-0.05671305212599334 
-5.02406754751692e-06 
0.002975593017765509 
-4.0015784789895615e-07 
0.13162615766216385 
-0.11802161463579122 
0.000366375441860621 
-0.021447000942935644 
-6.976376482032338e-05 
-4.7184441096672474e-05 
-6.5080859561652865e-06 
-0.17655499300326402 
0.008905360240100378 
0.017503387254901175 
0.12048153765926499 
0.06609049561467639 
-4.786224959483263e-05 
-0.0005296078363628495 
0.10873264448683553 
0.035053780300268296 
-0.020409871298116177 
-0.1625286136144549 
-0.028637620926793998 
5.92602248442883e-05 
8.426543994642523e-06 
-0.005874384490563101 
0.017238885650432387 
-0.005620749900562305 
-0.062208475235717584 
0.005683333034442585 
-4.750459274064716e-05 
6.097285575377747e-07 
0.10623832451260401 
-0.0548323455385625 
0.0028887602017375314 
0.057756957687500124 
6.309139801281988e-05 
6.1893071090238775e-06 
-0.013649407362932962 
