-0.08770457934283915 
1.6382304059239794e-06 
0.024154916212964932 
0.09307951898089538 
0.0013785262256237089 
0.0026390967304352254 
-4.5040487508201e-05 
5.630476408298179e-06 
-5.015242493233136e-06 
0.00978410596261091 
-0.17119771773362996 
-0.0007967795199246795 
-0.15213121157525758 
0.012219423314022508 
-8.619991706407829e-05 
-0.0005215871304348637 
0.13658991499717302 
-0.06586063577300531 
-0.006397289876802536 
-0.10633385609414565 
0.0648424790250069 
-1.2423845509242858e-05 
-3.743704581670961e-06 
-0.11303932246809757 
-0.15651929351930555 
-0.003250283669374826 
0.20156234265455233 
0.030739003138166007 
5.3205059210417686e-05 
-4.5245894903622705e-06 
0.041660393946741384 
0.02908474624323241 
-0.004725392941575085 
0.13887258908575614 
5.9467144757227186e-05 
0.00010554777460151895 
1.8114070883153993e-06 
-0.12443966863420204 
-0.20476855793993157 
-0.02611426282326514 
0.22602944293551974 
-0.00010621747932943745 
0.006218763527714765 
6.50988745285318e-06 
-0.04181656523202107 
0.16939041999943044 
0.00487519412203251 
0.1359866402156727 
-0.11015853956144372 
0.03274538432258834 
-5.0979680313382515e-06 
0.0902029837890807 
-0.058807803059056356 
0.002269974658174649 
-0.13801315679879714 
0.05860442203832424 
0.009510045714185497 
-8.189336151484475e-06 
0.03848927890693411 
0.08196634885312516 
-0.012104256016700737 
0.2113547151405966 
-0.20186521799854346 
-0.033184160228310236 
-5.4242538039058e-06 
-0.14483034229845868 
-0.22321187330398068 
-0.01125888195420046 
0.021329868458983027 
0.00026236813820155975 
-0.015673790935633862 
-0.000547515968496727 
-0.12372290460927085 
0.12859109608316888 
0.02217626166265114 
0.005719908613008689 
0.0004689832628823686 
-0.05748183894079606 
-1.4573382215712437e-05 
-0.046321898287455296 
-0.08648052595873189 
-0.010369374486305611 
0.012156958140369075 
0.0981785948613757 
0.030788041142008612 
-0.9978853556828216 
0.1579523932958907 
0.006351548964130952 
-0.017078260014456403 
0.07120976030595039 
0.03947560246841528 
-0.04802994629519381 
-1.1948664343025648e-06 
-0.04069572245316577 
-0.1438800160114936 
-0.026365472017928784 
0.08461741053016555 
0.0013008606145111733 
-0.030537062072960267 
-0.0005368897337423768 
-0.05476106654720497 
0.16507594151900912 
0.03183726871346311 
-0.0621613843296709 
-0.000961081952755152 
0.10558518078583731 
1.9572589156750218e-06 
0.08578814876777181 
0.02437546654061624 
-0.0009170150292787099 
0.002885353999666009 
-0.0006220074247935475 
0.06054123261131356 
-8.897573939854818e-06 
0.07334211624939549 
0.14879902678206383 
0.04051780208245501 
-0.09898696338009823 
0.10392159132658313 
0.05628746948275822 
1.0869478667711496e-05 
-0.1648817649606086 
-0.04668833145326013 
0.02311670401737308 
-0.11895403975898752 
-0.05518212158388826 
-0.04367052234529037 
-4.0402877164765805e-06 
-0.03670647116237482 
0.07609337373115305 
0.027496642150343246 
-0.06297813388567183 
0.19310014185890817 
-0.05537450635400735 
-4.865037090751914e-06 
-0.12952534306121152 
0.0034023809597543216 
-0.020958528632310514 
0.15890903388395744 
0.00023845770880458956 
-0.017094356047066477 
4.028408407164421e-06 
0.10609157449624616 
0.022913155279667644 
0.02569166931445549 
-0.11318125318718453 
-4.516930015332636e-05 
-2.12164713336638e-05 
7.076955667310479e-06 
0.08324291546945535 
0.11567227487756421 
0.005300394458658084 
0.07125940802332284 
-0.10279923799471474 
-0.0004264565964656571 
-0.0005033545784522716 
-0.1512233626372682 
-0.11056204399605575 
-0.029024912872858393 
0.04922217777338806 
-0.095097268918452 
-0.00035380829024320696 
1.6229071377058852e-06 
-0.055950154985429226 
0.1306617955621076 
0.06385161295546878 
-0.12343637295242141 
-0.029130002963447796 
-0.0001062681746653016 
-4.6652982915861035e-06 
0.06650010924962381 
0.13813540969017044 
0.004108216376808955 
0.10471499869984037 
3.8696492017605406e-05 
3.4798205383056907e-06 
0.018573478517610813 
