-0.06078693225356954 
-0.0001631045209335205 
-0.3560274437642751 
0.03652361464240208 
0.04353152896981139 
0.12109446931501167 
0.00011406276333175 
0.0010741885435214872 
1.8850348589700556e-05 
-0.3592320895293229 
-0.15147666402376153 
0.03915145940010058 
-0.06855561152057504 
-0.025681824264660376 
-0.0030074838972765795 
-0.0006791799048202483 
-0.2226619519251661 
-0.09903058237059052 
0.09492595881235229 
-0.09452190136379827 
0.02645980715070638 
0.0022019929153943092 
7.522170181984875e-05 
-0.0005622412885646483 
0.09699722792062815 
0.0865583562582034 
0.037478416301835654 
-0.0157208647112383 
-0.0010867574989975417 
2.4145030425488765e-05 
-0.1047486650267344 
0.04774654689868006 
0.08549225951335925 
0.01863471664205576 
0.0002205010360611979 
0.0001922240012337696 
3.133267743066204e-07 
-0.031557672760220964 
0.1469433735172555 
-0.059566469198802326 
0.18848058860806732 
0.0016918389872758331 
-0.15830957615553526 
-9.91689801692901e-05 
-0.19944374920574132 
-0.014442656256179996 
-0.11351768008325408 
0.12929952675688042 
0.0012136490531881208 
0.1644957925473875 
2.5215491615498824e-05 
0.15597976493834037 
0.09297870415571995 
0.011871115558934284 
0.019670356887739295 
0.00989381893189741 
0.05906653966414783 
0.00011662455819128798 
0.09382141235072264 
0.05421671882632686 
0.10272368549059363 
-0.0368678262891502 
0.00543722635337844 
-0.16007375783151534 
9.256733160312167e-05 
0.2961586245491007 
0.05654018013041856 
-0.022613736159694742 
-0.059549014514581965 
-0.0004924720317434829 
0.0957082684145929 
-0.016873811309290533 
-0.05780603905882532 
-0.1770472710727392 
-0.0850448756021398 
-0.10905813709617164 
-0.00039763111251728007 
0.04696578498620128 
-3.380036011234064e-05 
-0.11406647917734905 
-0.017821681165586994 
-0.05689135909098775 
0.0736245840853777 
0.011545108849592584 
0.13208308593629 
-0.965113064961843 
0.0030153551750140045 
-0.05435481284276172 
-0.05793126464747806 
-0.03511974808205768 
-0.012340366270321541 
0.023869424182921282 
-1.9443358806670424e-05 
-0.11216081494418621 
0.06076256674620975 
-0.056610404414248576 
0.15088100019321343 
0.009648318059651299 
-0.1371855422324973 
-0.01697262122371553 
0.04351123273131135 
-0.004607653576090305 
-0.15663939143027025 
0.014374113412911227 
0.0003371967081981919 
-0.06469075844230535 
3.098547624521536e-05 
-0.01679215645054879 
0.1281578648299241 
0.03509162984153144 
0.16529585338427835 
3.76443453285053e-05 
0.04845315114483191 
-6.768860798878718e-05 
-0.017942970712548762 
-0.04837329426282026 
0.1093421669583185 
-0.05375651551216621 
-0.000648409371424705 
-0.006369147614087254 
4.317211448170026e-05 
0.03545606304783153 
-0.1449172577416359 
-0.19108195260284055 
-0.13683373437308166 
-0.0020063639217365536 
0.04955462190488392 
-6.59631297867047e-06 
-0.06452066883071943 
0.039691269907403084 
0.10500364982225166 
0.10779011233134517 
-0.0006780882942405333 
0.062046824749726386 
-2.1079740519828528e-05 
0.08701892503375715 
0.014821292948053849 
0.11225841362137892 
-0.15816207633919158 
-2.2933383549171934e-05 
-0.15479224661391025 
-7.178048850507368e-05 
-0.10157637891822376 
-0.19181088983541794 
0.09985930978077602 
-0.012096659338138537 
5.0382542881919935e-06 
0.01283715643830439 
2.066543873534596e-05 
0.0776453100526573 
0.018047170926835176 
0.06728285461284617 
-0.08472431725503356 
-0.0002883799018738536 
-0.037092254901185055 
-0.00011495197845029095 
-0.04090192697538789 
0.002497063565728244 
-0.007521826641504094 
0.0033159830447884457 
0.00023866714313626304 
0.01789063359842552 
1.0577590056031364e-05 
-0.024174124003902436 
-0.08351335870934977 
0.09975523230441126 
0.009540911787824544 
-0.0010390495394834046 
0.0201958527434876 
-3.179941380133153e-05 
-0.05207167411528613 
-0.050824825724012354 
-0.03069030148260274 
0.046688169004551174 
0.00034375012631285637 
-0.01573953920696448 
0.051559338160607295 
