0.07983037678599106 
-0.055657958450103295 
-0.01192296560877229 
-0.18259793488315326 
0.1686926265205986 
-0.1081238617658442 
-0.0034658133230989208 
0.01142174188487699 
-0.16885031126044586 
-0.02729649807443607 
-0.12388024628651788 
-0.11249223526482159 
0.1017090360168553 
-0.07521334946040187 
0.14923081034471578 
-0.0005376130287024091 
0.022365182157944946 
-0.1362124185441326 
0.13493294874918302 
0.16096286977898058 
0.0017154730000843443 
0.11811699013844648 
-0.0030262744221663807 
-0.14081369586148623 
0.024405517339410404 
-0.0919965349331613 
0.0739124546539611 
0.03036413899781326 
0.116022839615078 
-0.025617562131973942 
0.14834125498863213 
-0.1487108495906451 
-0.15647299019995636 
-0.14291248075674556 
0.09179457461896132 
-0.12279739844869425 
0.1547309444966163 
0.09931028671235917 
0.16313362506874377 
-0.06620436772311739 
-0.1418098769773618 
0.08893075979991824 
0.11732569593977685 
0.09692174350887026 
-0.15313032958840406 
-0.05657631764017909 
-0.09458848385462558 
0.04269598124767274 
0.003272428916607145 
-0.042811205617137194 
0.17341811579226293 
-0.05714233461167073 
-0.13152967399830082 
0.024214478304921627 
-0.006663422200498398 
-0.1592344176937974 
0.11633134461452518 
0.14318023546530476 
-0.09028915908433563 
-0.1553633944115356 
-0.03618825154080005 
0.09451665722027555 
-0.06879487809796889 
0.06425407803222463 
-0.16246538352189843 
-0.08201690219086136 
-0.05227014237758068 
-0.13477148905329445 
-0.06979527847516188 
0.11759850349615633 
0.13451447279521392 
-0.0007845419485899438 
0.1408059194676752 
0.0800357201624167 
0.1343225353533354 
0.06314907271080136 
0.1424252876816786 
0.18110273649876177 
0.12069288448310203 
0.1817869037373593 
0.015843153299168022 
-0.03658470492556909 
0.038785966425399054 
0.15856780258403305 
0.08382332450757188 
-0.9974387617138666 
-0.05745778566086776 
0.033164125088568225 
-0.01734317070307337 
0.12238376593844383 
0.028757223093341805 
0.11302195239323623 
0.16387616796280516 
-0.06997091383418058 
-0.004941774557005424 
-0.14753233028281157 
0.09526643987567027 
-0.17804724224794227 
-0.03564878636006549 
-0.0007780343023304764 
-0.16848071846402016 
-0.15463631241054632 
0.16685031078795862 
0.08389680102869243 
0.13201333990110783 
0.016043817078188916 
-0.13497502220258112 
-0.09695923289210047 
-0.09753055811601963 
0.09527992761913753 
-0.011309013177382171 
-0.09601164095563498 
-0.08769436028546801 
-0.15347775157015592 
0.005791415888411977 
0.17988147808220303 
-0.17002155594863125 
0.12408098105902757 
0.014138477856746157 
0.06625261977024074 
-0.09924133511427881 
0.08446564104804508 
-0.022402323260457907 
0.1221758159755427 
0.041388609056731696 
0.05742482338228844 
0.056756020492084 
0.12506068714837545 
0.009590010155038159 
0.04922177236049671 
0.047156318016583626 
0.17962714130941268 
-0.09113175009985815 
-0.022006413730712354 
0.029082735072737287 
0.08057124200306401 
-0.11563618495879588 
-0.05102399169515756 
0.018531770092099775 
-0.11049173378626466 
-0.1747270392576413 
-0.08782606296070856 
-0.0556378959918547 
0.13566103442360286 
0.06972681333536321 
0.01235370162901439 
0.13682979243872193 
-0.11514363842599398 
0.0961754815218516 
-0.04522921761852797 
0.020226815176175805 
-0.06606177048865797 
0.053993980213116244 
0.016641814767264007 
0.05894684454474916 
-0.0004585048419498354 
0.08022319832088617 
-0.0846683462702411 
-0.15209539036821862 
0.011160182595276513 
0.10632193405733145 
0.09455473987579063 
0.09067413017142231 
-0.17689873314673404 
0.11632295390077371 
0.07827311605744677 
0.17365063528568722 
0.02963699869596048 
0.14769049458284553 
-0.09706759724200824 
-0.15855512694641244 
0.16332944518788908 
0.04361282881191436 
0.13534335316006238 
-0.17265059517945833 
0.15748666407635584 
1.2843988111078222e-07 
