-0.11801454806104449 
-1.67484538568724e-05 
0.04842598619804889 
0.13099230030463604 
-0.0017768188360255685 
0.11809497626979731 
-3.5183088912819014e-05 
5.994259810970036e-05 
1.9614676659926948e-06 
0.03230999130304252 
-0.0373274902455176 
-0.00890908306448133 
0.059658052923297705 
-0.040353988587410745 
-8.316437216523033e-05 
-0.0005215719085817494 
-0.0822988476740725 
0.020120785370941013 
0.008660269633466944 
-0.03295797013968973 
0.07442649531228823 
0.00012717579345594105 
7.926417541326406e-06 
-0.011647595326378334 
-0.09943070504799346 
-0.015744319316437723 
0.11430723823933685 
0.05544673808615506 
1.5848868509735008e-05 
-1.7008941406255122e-05 
0.014090440263680662 
-0.06252787399191534 
0.004840128018173894 
-0.13719519043087233 
3.686776549495439e-05 
1.4014895200567129e-05 
4.427213336628893e-06 
0.03867415551581864 
0.10190658096544769 
0.028042865279887124 
-0.13548843921365067 
0.00022556305719068572 
-0.021080316111091596 
-3.6840143160592013e-06 
-0.0022504059888263516 
0.09182670487663744 
-0.00489808266040729 
0.13162052996978657 
0.031650425075140404 
0.03890111089717419 
-7.095165393057296e-06 
0.018471191762084428 
0.1559418593529103 
0.016219760682491206 
0.017944301338325135 
0.029435134667907523 
0.05001506107292768 
7.419193576686911e-06 
-0.07145761034202223 
-0.14326958723598976 
-0.03372660733240418 
0.15468983836548753 
-0.010710456482296977 
-0.03882099375867388 
-7.34380188699948e-06 
-0.14214504035997919 
0.012374769396160588 
0.03467218513238332 
-0.20117486175693405 
0.0002224761877917297 
-0.028906647300182994 
-0.0005752399149171948 
0.056466316442452584 
0.08020948029261367 
0.041454054374649885 
-0.16822585626780098 
-0.00018324317475256887 
0.017528138046580707 
7.474769922033463e-06 
0.036351970183336975 
-0.07026489820788072 
-0.05131750024021723 
0.20163343815633397 
-0.03524784862126154 
0.016293176266045133 
-0.9978477252247416 
0.11068055629599069 
-0.006496334037464143 
0.009966385826283121 
-0.09564133343780104 
0.006920904665855904 
-0.02358755870995444 
-5.14678918320954e-06 
-0.1793081126264276 
-0.12983026281176502 
0.019209344954911806 
-0.17810594123564844 
0.05376855957760624 
-0.016240651010267986 
-0.00058111272237206 
-0.0733191972220462 
0.11370273613512244 
0.05467175088153664 
-0.1671751963619371 
-1.3041357208997385e-05 
0.006056477433947764 
4.478495815900122e-06 
0.19141801078759976 
-0.05636876387277352 
-0.02120737483724238 
-0.01700079609356105 
0.0006347022669346916 
-0.043211825977494456 
3.0107199901692064e-06 
0.17465136025003397 
0.025711197213099744 
-0.017934528095427806 
0.05556303280452904 
-0.030405055582842615 
0.045493337109858 
1.0362243061270928e-06 
-0.037790034583149286 
-0.13414822573986535 
-0.01738170984909114 
-0.05210846445525032 
-0.029323265393868383 
0.10567363858434194 
1.3730878822145548e-05 
0.12539282745938923 
0.03760472568291683 
0.01895103927122801 
-0.0750549368218096 
0.010980162364524032 
-0.04554428824960144 
5.855528590231753e-06 
0.0014672548443927873 
-0.031586617573414195 
0.020898387022052604 
-0.11954026810782156 
0.0008562286619864076 
-0.06258056490435905 
-1.7671910565633606e-05 
-0.11404380349780294 
0.0041163055932993495 
0.030824926784749806 
-0.0717399761626031 
6.0131300994479027e-05 
1.392636111483769e-05 
-2.571292031549594e-06 
0.10285795618819105 
-0.0223156431434855 
-0.058720322445010305 
0.14863209070109565 
0.06682169669177393 
0.00036516335647033963 
-0.0004808326215489831 
-0.1022098233388353 
-0.14663573732736593 
-0.07826589504902175 
0.13626632980761685 
-0.07057471455156913 
-0.0003546329227792011 
-2.9538107278005855e-06 
-0.1403990302814369 
0.09665489992786776 
0.0864083577934782 
-0.15712979531406945 
-0.09677319818476764 
-0.0005273989592594481 
-5.332721639344717e-06 
-0.07848529205644543 
-0.12882714521545358 
-0.07811761031807227 
0.1482278453374225 
5.501024968127332e-05 
-8.561313031675203e-06 
0.0031710538992840193 
