-0.05673130287529255 
1.8142828697674376e-05 
-0.008839459879010964 
0.0016716496739783715 
-0.05560802761717562 
-0.020891190197862612 
1.7947032165515368e-05 
0.01309162119130905 
-2.8646262769624646e-05 
0.14780251059496913 
0.021840735300976834 
-0.0801938397936848 
0.10094043603365296 
-0.00048416055434057835 
-0.006955518408079208 
-0.0003256608088557174 
-0.12161962784467313 
0.027688285699026018 
0.060816242254718794 
-0.038934346114796965 
-0.002667346666375448 
-0.018984575212405753 
7.068983840264276e-06 
-0.015516625918263697 
-0.11478337171702471 
0.1913951150206725 
-0.0691218235043275 
0.00044797028008020844 
0.007016784597214557 
-8.178682342761595e-06 
-0.0840145025495778 
0.10528669507080199 
0.20670908979706218 
0.107780795690166 
5.8389729458444745e-05 
0.005937029556311338 
-2.4080645418906792e-05 
0.028224775245430715 
0.046506249730204965 
0.013657798489127525 
0.06542205623988899 
-3.842341333979222e-05 
-0.006447110589746584 
2.583998059973713e-05 
0.2607742756777461 
-0.01105181242991636 
-0.07167522233396488 
0.06501826769536863 
-0.01852523362126725 
-0.03572635241841219 
3.5097562074726142e-06 
0.43870415631549337 
-0.07309245993540149 
-0.08049475184998724 
0.07465830622073803 
-0.0022256877956766466 
0.013110401121119978 
-6.528878253590247e-06 
0.210309953156411 
-0.05658131146607623 
0.021794953022320016 
0.04423741148335232 
0.0035260243224623736 
0.03613777215418787 
3.052730417693236e-05 
0.22702581845747355 
-0.10297601640767125 
-0.04156249840548719 
-0.026380860117492393 
-0.00012535521948997384 
-0.0064889362070480365 
-0.0042359033995562016 
-0.11073955023799516 
-0.08534530153763883 
0.18428479587199226 
0.01045828588972443 
-0.0010779425787277282 
-0.10679298589300847 
3.1004245622825136e-05 
-0.5434084743602939 
0.10277942541585623 
-0.010675906787786425 
-0.07785591691507651 
0.004483999171338675 
-0.017542731319996282 
-0.990535162121134 
-0.3000135215295016 
0.13457802280874798 
-0.01432577594687369 
0.028900422912163343 
-0.0060301208710922295 
0.12366121389444586 
1.810702960655233e-05 
-0.6241220212599513 
-0.011382013599502727 
0.1447426070059898 
-0.10714306004098705 
-0.012702219650509916 
0.017842530164076505 
-0.004239995953826375 
0.20973407884854675 
-0.003515490037041593 
0.023047853771092853 
0.07953754072375492 
-6.46192155875705e-05 
-0.016903987320124703 
-1.3825461008138003e-05 
-0.18474887752789107 
0.11301653114818844 
-0.1527935032565669 
-0.0788477124531317 
0.00018417541201248881 
0.012978517848976986 
-2.1334840623517538e-05 
-0.24852641376925333 
0.12620317669537914 
-0.16380425818299701 
-0.09274750263730373 
0.03006125551516212 
-0.046359910758156424 
-2.4431122744821296e-05 
-0.10064883111136765 
0.12021328761939709 
-0.021056113603368988 
0.07419813843722299 
0.004281875699537396 
-0.05413018224961564 
-3.1806156744312496e-05 
-0.051748195247169504 
0.07917132145356487 
0.04199920564741292 
0.10514464418079798 
-0.004273556375949749 
0.04578710352019989 
-2.3579760128560783e-06 
-0.03407670322182449 
0.07150930583830363 
-0.1369606845586698 
-0.06600032513344324 
0.00047660147924459426 
0.04104689969058002 
5.450437087141827e-06 
-0.14414112905412957 
-0.10853639470239021 
0.07165774013418716 
-0.0562472342028467 
0.00011831517988066917 
6.130766837812552e-05 
6.277460291829904e-06 
-0.009957896328744978 
0.022798565851748793 
-0.026443880500230842 
-0.010971914243668552 
-0.00559940950973856 
0.00010652832381117456 
-0.0006249839452778398 
-0.03676250365150458 
0.01697923781707125 
0.12154987591920938 
0.1533169175208739 
0.02015314403527839 
-0.00028810497173826274 
-1.668176587621333e-05 
-0.1057290299221427 
0.0057327392855665476 
-0.0018955590706227845 
-0.020726104196580282 
0.018045882013671494 
-0.00030146896904943824 
1.932508420885459e-05 
-0.07912573338575042 
-0.10432104012452287 
0.0910653272317766 
-0.013961397273758643 
-1.3789828879499577e-05 
3.0349252400894676e-05 
-0.029063789406859893 
