0.06495144628641397 
3.0224783027632188e-06 
-0.07922109279398795 
-0.10948193904186605 
0.11021293066341586 
0.11591362996041384 
-4.355402251918159e-05 
5.759713484922387e-06 
1.0906344517516976e-05 
0.0819039041251217 
0.05291863565821247 
0.0093748218579968 
0.09011550700889247 
0.018495967225113954 
-0.0001234937558811189 
-0.00044519949107414296 
0.09221520964900125 
-0.13528565237359755 
0.038024778423780596 
-0.03329125622545811 
0.028257533702333783 
-0.00025294577892435717 
5.311019287942061e-06 
0.07217692590091182 
0.030913403673482658 
-0.09334826905633614 
-0.1591597511179465 
-0.09843600013292418 
0.0007560906376375609 
9.900855878838186e-06 
-0.11377029543952462 
-0.07135828991496283 
0.07701086832062237 
0.07435037499527339 
-2.018469641537503e-05 
1.4389641285266623e-05 
3.0074218342432403e-06 
0.1152265693505977 
0.13472427100739603 
-0.12417621584250446 
-0.17354056122468123 
0.0002797090979561511 
0.01561168985317504 
-4.859325806034077e-06 
-0.16795046806833586 
0.14492969002263142 
-0.0648845029848897 
-0.06430494604000894 
-0.11525705360980913 
0.02459925292109758 
1.4905733836381592e-05 
0.058782175490524384 
0.12738295119030274 
-0.10285774382265978 
-0.13578756589590116 
0.03652119787502831 
-0.09878362385644142 
-1.7692222917586872e-07 
0.12926733739956311 
0.0025861687621117906 
-0.03877821053701584 
-0.07399834463212351 
0.02419761462417404 
-0.02406614811288878 
-2.2091374775384974e-06 
-0.10433705125573582 
-0.05774944869887567 
0.06128820252627608 
0.08443083369652418 
0.0012981750541235391 
0.08283306203841866 
-0.0006517781451523549 
-0.051581389589454595 
-0.09809123854081976 
0.017266297044093926 
-0.052610561742638035 
-0.001422584284588268 
-0.084186891738542 
-1.6816315350177523e-05 
0.16602796535795278 
0.11186370778711163 
-0.02855491527885795 
0.05516475970829267 
-0.03953936281013851 
0.027985906104732935 
-0.997712470157779 
-0.026896959457529672 
-0.061200214878871693 
0.03083240026531822 
0.03471156169742933 
-0.11348749627969562 
0.10257662407215629 
7.950080442056143e-07 
0.12400640354512912 
-0.02974438949955616 
0.01842679845046247 
0.05969344612220098 
-0.035950102902221254 
-0.027576849850566028 
-0.0006561741140711897 
0.038593456717913324 
-0.13621561816258496 
0.038312660550681985 
-0.0005026068519211881 
-0.00027874590264025074 
-0.017924868258970224 
1.0704090088894634e-06 
-0.10289713542670621 
-0.14532900126006965 
0.0696791444679544 
0.12039339113885181 
-0.00012281494353614123 
-0.012098767824960558 
5.167766235032216e-06 
0.05321277659749612 
0.0727804660466237 
-0.04939187288265158 
-0.12105341079102551 
0.12950953859223402 
-0.05365431704792009 
-1.7916922138162598e-05 
0.18443412543132529 
0.12772669934355527 
-0.029805213443489922 
0.05045357386303573 
-0.04434014592549109 
-0.08435382380725581 
-8.120323746922266e-06 
-0.10377522076293133 
0.09820424792752604 
-0.05240234729503027 
-0.14901590700965914 
-0.026741194722620567 
0.053263789702323025 
-1.0543251328270194e-05 
-0.03839291530099037 
-0.044759374288219106 
0.014460768101523015 
0.005938248395930004 
0.0014840906299146298 
0.09655660530503402 
5.0772515944205985e-06 
-0.061407282226413284 
0.06700561241492518 
0.021924705286106835 
0.1692002138871866 
-4.207670426555843e-06 
6.551487272690567e-06 
5.451752654972528e-06 
0.14847522529124094 
0.03883055283960543 
-0.043193744592364726 
-0.1534304716416267 
0.020599760792659256 
-9.71987497769791e-05 
-0.0005333521364712081 
0.06655004875308851 
-0.012197386879206117 
0.009180703460943752 
0.060029932317060095 
0.09034596163229369 
-0.00027723740049957676 
1.3229619339363088e-05 
-0.08873376734256465 
0.21295533855988932 
-0.043092373299688874 
-0.05437435833988946 
0.16393999678932308 
-0.000490117851125922 
-8.775127507425554e-06 
0.11951431309129028 
0.12306080877033172 
-0.006133791035864546 
0.12720745187926735 
-7.686610161223195e-05 
-9.355358472032205e-05 
-0.005652912982591533 
