-0.16873625171014045 
0.08826903029516411 
0.09231103785798792 
-0.0065272360799281115 
0.1462039914082768 
0.06072986354249524 
-0.09404483356902105 
0.1054063213425109 
-0.16696172852228966 
-0.17194036505227223 
-0.04170899278059709 
0.03314721853814906 
-0.026122084736201034 
-0.11459284098855933 
0.0007967269924393505 
-0.0004301525038268942 
-0.06616346073040884 
-0.16418856771382045 
0.12257695073553146 
-0.01262945736551413 
0.11501330269747664 
0.10264813770355988 
0.17830777772840042 
0.13079127096362822 
0.0785027214523257 
0.07176503149692817 
0.025766239165980948 
-0.11574843620922745 
0.12024559959099226 
0.09340416051602193 
0.003659722078171751 
0.03308182675992474 
0.16028727133520623 
-0.04045784560427165 
0.09141595692498714 
0.08126942749186747 
-0.13238918385742615 
-0.019219815710363797 
0.16871020326840439 
0.1797453719082903 
0.03668447251134266 
-0.008133109144612877 
-0.08733109248142587 
-0.0005790519922442561 
-0.03644892778224085 
-0.04029094421002588 
-0.016138897171551064 
0.00092773684912692 
0.15181405188644267 
0.18334224854984818 
-0.14991236864470342 
-0.058476669575594775 
-0.09003225996994613 
0.03860846784395969 
-0.1378692253663243 
-0.17612956610880864 
0.12140926133119864 
-0.13313911395539843 
0.019780683415664774 
-0.08906478423786907 
0.10527923812054688 
-0.1431067707354936 
0.13625819245189716 
0.15177171045435936 
-0.10958372950558566 
0.03768085953629735 
-0.08075446441583871 
0.09291505808195952 
-0.17423016920185247 
-0.028044451270672455 
0.03635318664600923 
-0.001400351974979257 
0.0963772589544293 
-0.08308483739644049 
0.07365470269606736 
0.13510867533710527 
-0.1626889210857173 
0.11774836570474242 
-0.14169844937163545 
0.08166434703417533 
-0.12171086558424046 
0.11615925319670925 
0.07213163150054644 
-0.15428673452244637 
-0.17574651208311085 
-0.9962211351561225 
0.1625277503986637 
0.007429517685724085 
-0.14033681593500694 
-0.05902366667897249 
0.08970172646323069 
0.05793052586299066 
0.029609074005573888 
-0.15368517271899262 
0.03460318982978208 
-0.10433963364317271 
0.0075655573470603255 
-0.15606551792727777 
0.0969810942410966 
-0.0013955019650082861 
0.10612567584894925 
-0.051714994926177454 
0.15344055162709644 
-0.14172863200429564 
-0.0614096107412901 
-0.038864541159116195 
-0.0522059395891174 
0.11159263054588911 
0.017450334318326682 
0.15868994237878695 
-0.11322625073669063 
-0.008905153533536214 
0.047500188967385226 
-0.15417357640454557 
0.13803104694425836 
0.12208937034940084 
-0.13947372672084765 
0.15256683537082646 
0.06259992604977141 
-0.13183501600447034 
0.13910914071575733 
-0.16570086734709383 
-0.048676767830409334 
0.14670174334613575 
0.07570426252996817 
0.1754031755308351 
-0.05355930929322025 
0.16453806725248296 
-0.14094912977680168 
0.08523228857054257 
-0.13209725380792792 
0.055894929583031244 
-0.16668913321918183 
-0.01673200658266341 
0.07732781136690944 
0.1106154527846043 
0.005383038252157107 
-0.0952821063122624 
-0.009174388733418581 
0.10475508929574354 
0.12982843622441156 
-0.02262162284893693 
-0.10479667064057475 
0.14118654546687484 
-0.06817476722532345 
-0.1099120594812594 
-0.14336748595865273 
0.10811222145298852 
-0.006013518880457314 
-0.16896347647858737 
-0.13801678363199404 
-0.08480900265324068 
-0.0777584225190887 
0.07543123794151144 
0.1465753206334605 
-0.0005587916544928264 
-0.07500073411842091 
-0.07432916558763987 
-0.16889604185020704 
0.009030523175587363 
-0.1328212269688479 
-0.09776614179814906 
0.012953589820606515 
-0.0073470431961815685 
0.02919496188125556 
0.17547031427511814 
-0.09029496638980668 
0.0992604816391989 
-0.13414548987665795 
-0.16925141254960724 
0.13943296594925944 
-0.08806121951431213 
-0.165436207068775 
0.08623468124401443 
-0.041284151476720515 
0.030486048683386724 
-4.725963347918159e-06 
