-0.0917886809366791 
0.06915722766707869 
-0.09820783953929639 
0.059823117090565314 
-0.13036425401222146 
-0.0929889768216656 
-0.012927018239880184 
-0.17232545305925623 
-0.09877728095043907 
0.017359679676007878 
0.04498551053903893 
0.038064206547215845 
-0.12027274735034568 
0.033433286788683014 
-0.0012062145635357013 
-0.0003951133300110071 
0.11854495027195958 
-0.11185267563197655 
0.031922214455646025 
-0.14802297133125672 
0.07339421051630476 
0.1345147740032406 
0.03612329309020587 
0.09201216805101722 
-0.11588056842694233 
-0.12042556606418103 
-0.17729144582469045 
0.11360443789066124 
0.0034222838717536397 
0.12404248581723701 
-0.007618027712766567 
0.16210374681732423 
0.1481779848806616 
-0.0910643912486163 
-0.08259137867019538 
-0.07567669080223623 
0.04789444126564538 
0.07726123538338289 
0.10790516156239485 
0.1413221982646856 
-0.14092256175356582 
0.10362979845013151 
0.15216908042120472 
0.057369074177829354 
-0.12456996494560701 
-0.05979541508069497 
0.18223481252853865 
-0.14783070684389918 
-0.17437157542569745 
0.10988157576044075 
-0.02368600182824826 
0.08460126306641139 
-0.16116813402507413 
-0.13826736245522342 
-0.02002250121984875 
-0.13214371051163726 
0.020139519395229316 
0.09466724486985104 
-0.027853522448433338 
-0.14067158822781692 
0.12662839083432528 
-0.08389750675050094 
-0.17182902332152683 
-0.14630019190772642 
0.1547571130723124 
0.14722613204880766 
0.09562415037246982 
-0.16128824506318845 
0.1608490969157542 
-0.15804217042599522 
0.028923933415527903 
-0.0018670638502852348 
0.0766639543357279 
-0.08409530511249864 
-0.10582563066026689 
0.12459581531446515 
0.02192348805577321 
-0.0034988392337228502 
-0.17288996958408817 
0.10990308932194517 
0.00031831269134077744 
0.15871011537991983 
-0.09677309097084592 
0.1631757001820883 
-0.08654775434396486 
-0.9952721453023935 
-0.012208728238173483 
0.09823202672193174 
0.10555422539375489 
0.010545209441386844 
0.1337455165221845 
-0.003667477435738642 
-0.05921459627887195 
-0.06631132376704339 
0.08049147242082691 
-0.1264666085760729 
-0.07600577381157761 
0.16577186126203922 
-0.16398577200692788 
-0.0018743804291012983 
-0.039180677936048236 
0.12026346470643504 
0.08870230922538705 
-0.17591119554114132 
-0.016440768728613525 
-0.013377303202012497 
0.04061737941642046 
0.11182532232123024 
-0.04351740305414703 
-0.11944339773430171 
-0.12154719778978527 
0.034519474424307584 
-0.08145109106902693 
-0.08458050416228297 
-0.15544963347602994 
0.013676701330343738 
0.0047129868955504695 
-0.007221017884022962 
0.05177820534359637 
-0.0482667551394417 
0.15626125346280403 
0.14133364581785393 
0.06976151195905986 
-0.11807781456679826 
-0.15200514130678874 
-0.13947488696647978 
-0.18269326676055025 
0.13877860064432876 
0.1736126858624598 
0.09941685728658531 
0.16118796957114054 
-0.17398802613099615 
-0.03710963607506956 
-0.11409238525570234 
-0.11502870980195815 
-0.048518098695228856 
-0.16990420760625563 
0.08490795554822775 
-0.15603124088811762 
0.03925008800750229 
0.15281532193263006 
-0.11549497587337791 
-0.11473619186700021 
-0.0069057488859828875 
-0.14049433397452027 
-0.05798367060720713 
0.019833910333606042 
-0.060655012804592415 
0.14913002445915727 
0.15623607865073588 
0.10659171895015537 
0.0507630804640522 
-0.16650864335935056 
0.11856263081310223 
0.07416054523564067 
-0.0005690696613509371 
0.11904581600215766 
0.17684392718506795 
0.044964756332451006 
-0.13438650151184625 
0.1799078376506477 
-0.0923206281864836 
0.134325452662068 
0.10115013605549802 
-0.15949627887360215 
0.1761020292483839 
0.1546029452383428 
0.010131344610518206 
-0.1067270688931656 
-0.15792964316049066 
0.15400169938743782 
0.11494593772578413 
0.02869239727833331 
-0.06680099039150164 
0.13598807710530655 
0.11525132730314389 
-4.369753956646163e-06 
