0.12455659430432409 
1.0194397106715512e-06 
-0.1824652461589612 
0.1308340887241429 
0.046286177552814924 
0.09435335223630893 
-7.374744397070891e-05 
0.00015536339792247058 
-7.388660189109331e-08 
0.14219152412260197 
0.050104623827602515 
-0.019502915001373435 
0.06288495720737428 
0.0602880988182287 
0.00039174412580245246 
-0.0005639060472760686 
-0.17853396755796797 
-0.16917757198504668 
-0.23799297609697867 
0.1735798722422181 
0.030430777496781518 
0.0003679579599438494 
-1.287474987642279e-05 
-0.025420865865544113 
-0.161232006471572 
0.008834372715063743 
-0.13795911297720742 
0.13349498879290583 
0.001234563597514985 
9.420121556826345e-06 
0.15599816804726155 
0.016526883205840302 
-0.050752392731654425 
-0.001490896305840164 
4.988829102008705e-05 
2.6446476173985747e-05 
-8.039325272453238e-06 
-0.14298252900697933 
0.04277033158612979 
0.12973437636805887 
-0.15559706691568442 
-0.0012772825111725542 
0.07454454467296669 
-3.5330613384282512e-06 
0.018472539093979223 
0.16512146241777004 
0.029857490694834104 
0.16553220712975525 
-0.044868756352032454 
0.037266599417570496 
-1.5792359676492387e-05 
-0.07489763202423758 
-0.06602792990254808 
0.1622521782051258 
0.08328130920825125 
0.06639242367297553 
0.10214171366890831 
-3.7783150462031486e-06 
0.09672619752818767 
0.12491257935444341 
0.13885801515905366 
-0.1657170678744081 
-0.07197425777745424 
-0.041587040132472095 
-3.132395431740285e-06 
-0.185433159454585 
-0.1751373928216989 
0.13212028724842362 
-0.08074532687429357 
0.0027104469279075573 
-0.1612542141616066 
-0.0017976587946685202 
0.018104719969209655 
0.08108061127640828 
-0.10160690816106328 
-0.10987321054716731 
0.0010600809834575245 
-0.06864894713446237 
-4.663214690063894e-06 
0.14454694643569377 
-0.038241830639765696 
0.0615737220469228 
0.08137414942930402 
-0.054014151869845144 
0.10570665971063031 
-0.9954275491036201 
-0.10956128405661067 
-0.13155990181689553 
0.1891007269917818 
-0.005702819490494216 
-0.032654217062527455 
-0.08353354762334594 
-3.82761735549544e-06 
-0.1461612243079865 
0.19351202577412766 
-0.07617465263537693 
0.059981827100171206 
-0.11434567194058792 
-0.10676390108139511 
-0.0018084005613705299 
0.12605293760717654 
-0.04452637702630482 
0.08701671908383524 
-0.03415398885194126 
-0.0014924163737543383 
0.09437721159993202 
3.4432614980888936e-06 
-0.04714818220595576 
0.16337518087811476 
-0.15441889273572776 
0.05031414370494706 
-0.00028864463664616863 
0.023248495874648233 
-4.272135302926595e-06 
-0.11998794463017967 
-0.10003474480682163 
0.1201777751115558 
-0.014346010662272536 
0.0176436817508729 
-0.05283271716768203 
1.2805804266861424e-05 
-0.07604966136389421 
0.0673759860780712 
-0.17183802208261387 
-0.05997970819128307 
-0.03793919444920396 
-0.045583036045988734 
9.31058935454542e-06 
0.12004322978111198 
0.14962866729165678 
-0.06327790005324758 
0.021593085829699977 
0.037659558195807644 
0.05388664419483579 
-3.3954284481730967e-06 
0.18120301051045415 
0.14756345789668993 
0.0582702296685347 
0.10899743332709338 
-0.00031323938425020787 
0.021623984442968293 
-4.550986432912443e-06 
0.1374638489726607 
-0.06024652652105844 
-0.025169321190816187 
-0.08630958315579153 
1.8122788494595703e-05 
8.977193626592357e-06 
3.3686073883195677e-06 
0.38596949472218495 
-0.029424320835839193 
-0.14806779595938072 
-0.04678414347320501 
-0.006706264121542036 
-0.00018840821113975956 
-0.0003854696386195972 
0.14924433111008398 
-0.04607223231434796 
-0.11062636167912623 
-0.01498239508289079 
0.015262001175891268 
0.0003476264782901975 
-1.0036537290378694e-05 
0.3568474933157636 
0.059942034621789916 
-0.007694875125514402 
-0.04814670566928096 
0.006179954352772932 
0.0002803758211634757 
3.9071163406460445e-06 
0.04630702036550483 
-0.1481985849492061 
-0.05040498196287026 
-0.12708497310002514 
-1.9966520301329095e-05 
-8.960017113262055e-05 
0.0059749356054233805 
