-0.11961810352461559 
-0.029761276829655514 
-0.011735718616372431 
-0.17572538711348767 
-0.051651428369367064 
0.17855839860428582 
-0.07985700392151629 
0.12850815989073103 
-0.12684225482161868 
0.0024368891668293813 
-0.12721736929455865 
0.008698016937535386 
-0.09555054952341653 
0.16005066741244547 
-0.0393162457171575 
-0.0005168484622256448 
0.09214734176545189 
-0.13993613275710387 
-0.1353297247251895 
-0.15649288727089877 
-0.026348266884041127 
0.09318363835311125 
0.13235501875322017 
-0.16513757453316621 
-0.023649171569632338 
-8.935415214342268e-05 
0.17399994842377145 
0.07031409459935825 
0.08965495551625771 
0.015666858513100096 
0.12400480776742592 
0.07077387733824717 
-0.053912916117121346 
0.006269897030693361 
-0.10913301137111556 
0.15335564552589123 
-0.02493984344155345 
0.05096180138236708 
-0.018625638894429947 
0.071729175346563 
-0.05295256036780144 
0.031063705674715364 
-0.08832483723654964 
0.044297474047762686 
0.17894076023628205 
-0.1761240918234803 
-0.1430761974582201 
-0.07848858329898997 
0.02629870845347984 
0.11462130817678876 
0.09226593410041797 
0.003847819017740034 
0.1777037964420278 
0.12502025956308402 
0.04935460251174298 
0.1684194531169579 
0.04674134866435822 
0.03727276000380825 
0.07908879374747915 
-0.025132614431398775 
-0.06900066551253659 
0.13796198086118192 
0.026053686889788402 
0.1298097447157979 
-0.1592923255890305 
-0.009910216368616304 
-0.14449958062033275 
0.037049891937204094 
2.9721441307667407e-05 
0.030613934135516635 
-0.00559508010659121 
-0.0005150899123766284 
0.040859631045862294 
0.026826200752156915 
-0.08180269739169647 
-0.12059090914582414 
0.1812870208966981 
-0.12222140137424492 
0.14455881429191483 
-0.17106470533638052 
-0.033920269475597536 
0.162436883304342 
-0.11265125457860704 
0.08933719475592392 
-0.13653767262885902 
-0.9979382383353667 
0.05561482381993765 
-0.12527769354671237 
0.037884171636891784 
-0.12942497465711508 
0.09978675813012242 
0.06961976538377831 
0.07299096573141114 
-0.18254953015232275 
-0.15715416366608229 
0.011339761505381324 
-0.043541544473837124 
0.1498893236439164 
0.09196910261140798 
-0.0005164423899647651 
0.027482149530163397 
-0.1040782884910438 
0.051814129050415936 
0.09692585151561559 
0.07726507279911995 
0.050483162729055064 
-0.07898112415413407 
0.010621372807734314 
-0.17500067949492332 
0.16766601101612008 
0.07671861390691428 
0.08212025052579539 
-0.15963446268959924 
-0.08916661027016146 
-0.021975862633673265 
0.12531323692153692 
0.09162879002526439 
-0.03572535341703792 
-0.07778963172082755 
-0.12964868741545754 
0.16548499073744868 
0.025114467337837648 
-0.0733111022485841 
0.08098710423251307 
-0.12389638034687785 
-0.03521963293129668 
0.17940214143878966 
-0.1295791021546244 
0.07433880128013895 
-0.02100888434853379 
0.12551838920736094 
0.1624037974828196 
0.14357195018753502 
-0.11976186691327 
0.16913662206005078 
0.15324648423744816 
-0.13022884847084165 
-0.15674325995932636 
-0.09533628564761705 
0.05604090175371518 
-0.15375728283008672 
0.17862616766136588 
0.0408042582666604 
0.15063030474994663 
0.001967180152532 
-0.08958246044070654 
0.14313833020054764 
-0.04139065577180326 
-0.10373878070418883 
-0.12182423950945512 
-0.1350313999014484 
0.015311413008923691 
-0.12048206957724478 
-0.13950603608820097 
-0.0769777102395604 
-0.000504410146262895 
0.017070753381508597 
0.13141518254813125 
0.018454785186795913 
0.11276334893620135 
-0.08333387100316099 
-0.1731803053516463 
-0.01925540208677301 
-0.053376614448451654 
-0.0700073079338045 
-0.06715108642846868 
-0.02155682298123132 
-0.06254168560334672 
-0.1776066589453745 
-0.07384902479023367 
0.01819427709457888 
0.1504197975680547 
0.135390201459319 
-0.11147690425693897 
0.116659535549717 
0.16688617237281136 
3.018599127128942e-06 
