-0.00876341161093744 
-0.0002163011315309552 
0.0601936349636302 
-0.023842014542472752 
0.14025204416056844 
-0.12255669259626109 
0.00048664002285149087 
-1.8504695168000504e-06 
-9.58052694770941e-05 
-0.04165683339657759 
0.1784912029080227 
0.08317078918823974 
0.14548841896634154 
-0.001777604036512587 
0.0013540521254329276 
-0.0006716241659441469 
-0.26828341746078366 
-0.12373764609460387 
0.03350637900350106 
-0.0005653384807936291 
0.0014450446334382018 
0.0001374647550907434 
-0.00010053945323416131 
-0.15064241800495884 
-0.1257992794034041 
-0.20801273319894614 
0.02580810188112658 
0.000863900762441273 
-0.002304313710642528 
-0.00015349215560024683 
0.03235488673371575 
-0.04724718226513269 
-0.046394366882918085 
-0.03552417188478206 
0.0001379706614894632 
0.0016381020656264492 
-0.00020550106154162889 
-0.17583358285048503 
0.06063465488683297 
0.14649545045952658 
0.15662256859478882 
0.0002930574871373594 
-0.010030936085803143 
0.0001114928438850436 
0.03727379447248848 
0.1287493207796984 
0.04866615002229499 
0.08712542707811984 
0.0014114610172112486 
0.003719777807074383 
-0.0001973916980282025 
0.2500608219751354 
0.1384348456388777 
0.020914599508211628 
-0.06940448501123066 
0.0005131900419840718 
0.026018109793745154 
-4.55917056584223e-05 
0.01322542718807418 
0.1446498983849566 
-0.06007311566798296 
0.1608781806020588 
0.0031589315231010254 
-0.00018457028146553683 
-0.00019513550375046835 
0.032142278530764505 
-0.10230729546247139 
-0.07984161349652442 
-0.0923238802765935 
-0.00020900211029264548 
-0.019962153343652433 
-0.09538622741131429 
0.06282513793241419 
0.08976822336217542 
0.06165087853640624 
-0.0903449106420211 
-0.0027136600513007793 
0.12831002713404438 
-0.0009099940351736303 
0.12362378558939807 
0.11295403449931861 
-0.08606853328012916 
-0.10939166233492086 
0.0006522403229225513 
0.06584760512807239 
-0.8022348793152714 
0.08544316000152047 
0.1919904048432188 
0.05535619313072669 
0.11483570362672973 
0.002024488107678005 
0.058929578048701595 
-0.0008132044632588591 
-0.1258712572551973 
-0.0713721856872942 
0.1503851689241681 
0.10913026189513816 
-0.0008733315924291247 
-0.11555203085844652 
-0.09528474501601347 
-0.09039049931311674 
-0.1783108603022002 
-0.08162245696387996 
-0.009186809338665754 
7.607115401426556e-05 
-0.1364232933331284 
-0.052524753046644404 
-0.018210101370477974 
-0.10551271583857062 
-0.19022656731915336 
-0.05622673404048244 
0.005273329718556721 
0.0629287055216356 
-0.053529692182074595 
-0.08384336814471081 
-0.09071300011308277 
0.15271203874664896 
0.044428528709607916 
-0.18225868116301805 
0.17633323953448138 
-0.021365270285654634 
-0.11322384053025798 
0.125090979765531 
0.1509467534740997 
0.06406424455167255 
0.026564851583495825 
-0.003986413835283462 
-0.049693168876797235 
0.1806911873340682 
-0.0025279579187196415 
-0.14851545845945074 
0.11349938118123447 
-0.09527450200352873 
-0.13237221701959692 
-0.1368249072650646 
-0.05749170938439139 
-0.14992879038882756 
0.09073292252466314 
-0.0033316334546919916 
-0.11900107871680604 
-0.011779992047471455 
0.0531015673591773 
-0.1279753524590616 
-0.16586680501269022 
-0.03886506081458455 
0.10848571674216331 
-0.006647821253973901 
-0.10792527465515347 
0.053354835902304984 
0.08198558468380461 
0.028285332784309003 
0.1624595934964717 
-0.06975320521530524 
0.18254674260295647 
-0.13385587796703063 
0.022859229149542987 
-0.07673913262648181 
-0.12733812926449284 
-0.082535620742706 
0.17527634752934818 
-0.027511699285508315 
0.047038025382536985 
0.04952090631682498 
-0.13607121190394528 
-0.04341652710548169 
-0.06716312670095105 
-0.12124135352637315 
0.09458963563456475 
0.06959991049143752 
0.1375411407785125 
-0.07701445724762249 
0.012060797191233628 
-0.059849080475131565 
0.11239732506228613 
0.1186899955952039 
0.0268024721958739 
0.015283435805041119 
