0.13685925642306337 
-5.5989743209109705e-06 
-0.09035162984301623 
0.005651678758751631 
-0.033804881242209484 
0.17173095842273386 
-0.00028749628919403345 
-0.00018502074572000806 
6.209486969039362e-06 
0.07874519289443728 
0.1543609349041952 
-0.04684586333073953 
-0.1388799064451118 
-0.005641182044314453 
0.00030463055550888544 
-0.0005455780407427895 
-0.06558911435096508 
0.14680745893815994 
0.06256591168829169 
-0.1627241258517513 
-0.16998022371699 
-0.001328878177656417 
2.453551022467563e-06 
0.1104139823437806 
0.05578164314911401 
0.14887227797116948 
-0.15667924312608625 
0.004935127291014422 
0.0001151221053566209 
1.1977752642000254e-06 
0.0189841618130433 
-0.17250546671457154 
-0.021231116588786087 
-0.14436932038994155 
9.81949127376114e-05 
-6.804229660017274e-06 
3.607756527562984e-06 
-0.07915631968467453 
0.13638454219860507 
-0.0035302410754906744 
0.15015025233222493 
-0.00010682734818879178 
-0.007790004084573861 
-1.134670748732863e-05 
0.20387713222434176 
-0.07281999339358598 
-0.05393857497114359 
0.08938620025179563 
-0.07050434870479391 
-0.1231822422392137 
-1.4044318524781991e-05 
-0.03919687018292435 
-0.02640524909344304 
0.05983279648230621 
-0.06997838981927727 
0.04426217651462819 
0.017125950859566863 
-5.468904625467037e-06 
-0.057599846880099705 
0.09145476807336146 
0.003520510426598404 
0.06363267192494444 
-0.041136308877669836 
0.1323151782466598 
-1.1056925286065784e-05 
0.012038051689731337 
-0.016368818402793157 
0.0014965208426928197 
-0.03842123529485182 
2.0686863237978154e-05 
-0.002896735230032879 
-0.0010755684761062116 
-0.10389404085441403 
-0.013096892395160488 
0.023112896156993946 
0.06499645051661428 
0.0014737281905468807 
-0.07308098156282747 
8.955212706658385e-06 
0.08083738968476002 
0.0523812918348625 
-0.03655716490215354 
0.11401288925966054 
0.040086539076857185 
0.04046488274188125 
-0.9968468218570499 
0.19474519549918287 
-0.053421166089180364 
-0.07183660394571939 
0.05747624026531377 
0.12726660932645922 
0.030098031861590085 
8.841213300317252e-06 
0.16351650015257324 
-0.10572808439781042 
-0.14106177962617306 
0.1310382503730331 
0.026838751164969414 
-0.042549985581789934 
-0.0010802827854623092 
0.12513537454826038 
0.09593047167005175 
0.04938371693862479 
-0.075302762788891 
-0.0006481822392465363 
0.040172249095335046 
-1.980783990021803e-06 
-0.042565368388940185 
-0.08120541760777526 
-0.04191604219890382 
-0.01051336760329544 
-0.0004380863925318098 
0.03396463989841023 
7.806722041524549e-07 
0.03878600501120777 
-0.15150394249688817 
-0.05344935654664162 
-0.14983422518145698 
0.05812287716854972 
0.007052119150902971 
1.6698876923351088e-05 
-0.09625555682793889 
-0.09676672733178455 
-0.1508571006944229 
-0.09048994408572125 
-0.035940633007189755 
0.00041807357301544145 
9.633977430092189e-06 
0.003731709436616766 
-0.005350173988233019 
-0.043528966791294955 
0.09009749104331384 
0.020962570215747232 
0.0038939543712381715 
1.0591307512696916e-05 
0.1417724410280648 
-0.13746846685321532 
0.02004202745980887 
-0.014557156547369384 
0.0005462371980416751 
-0.031884775566823925 
-6.06116894820662e-08 
0.005045960407080492 
-0.08273993466197586 
-0.01317390787556024 
-0.1730970274549516 
-7.68818842860644e-05 
5.588903889516399e-05 
3.858525273921696e-06 
0.1360516816351434 
-0.06606323936877616 
-0.04859949382979973 
-0.03516876787327855 
-0.02648466000577636 
-0.0004368666462933973 
-0.00042990617506929074 
0.18113198374863987 
0.1769454855625037 
0.1927336535306648 
0.007195270258246957 
-0.003787361429062111 
6.648966430399444e-05 
-2.2921954902637273e-07 
-0.14540453432649972 
-0.12311334835818973 
0.002554941828059448 
0.015246134164979297 
-0.02141250838295016 
-0.0005616816967008904 
5.003798066851524e-07 
-0.14620485439514633 
0.17197507201688145 
0.14472748536507785 
0.06784125975329501 
-2.5940066489310123e-05 
0.00016080384433203297 
-0.007822374877932978 
