-0.09747452098423627 
0.07213747238293347 
-0.1279593806440418 
-0.14661662486636123 
0.02321787947760276 
-0.04722267420397977 
-0.08247765678883912 
-0.08128503111007333 
-0.06882450928475074 
-0.13747277467874836 
0.060623851835473364 
-0.04669602441033466 
-0.15598073289807385 
-0.09427369845404804 
-0.06808632972523436 
-0.0005222151098502654 
-0.14128147984425488 
-0.013221368139465534 
0.1477931213452026 
-0.009621261274653153 
0.036191599882969355 
0.06029769458372272 
0.04836997083330152 
-0.009427354707043034 
-0.044790391435935856 
-0.06501631518091543 
-0.00988721887698113 
0.11989652496338729 
0.15077669363828825 
0.166838077682658 
-0.1334282408325096 
0.04061253569339224 
-0.11964129083110452 
-0.156934376131596 
-0.004964879987635035 
-0.07416763624499316 
-0.15399118471302584 
-0.1561641085916804 
-0.11763877795383973 
-0.033580695838929586 
0.09635950064392237 
-0.04216775216469609 
0.04627744404218517 
-0.13789182239426326 
-0.11720528454123663 
-0.05868507989331781 
0.04111928762833844 
-0.019568408834516465 
-0.09414135923179237 
-0.06912881384017455 
0.07100659900428538 
-0.07541812242731595 
0.18042216555405802 
0.057762303887050725 
0.006342813839968847 
0.07344347058649478 
0.1799634431683451 
0.06564243713135776 
-0.08126007558344492 
-0.12337844499750585 
0.17254369675110712 
0.020022890875666916 
-0.004877530413372272 
-0.02029669560772948 
0.15965625750762022 
0.11417416311306658 
-0.006182657304654365 
-0.09007765550171086 
-0.14728087201469936 
0.16628658934428156 
0.11772897545696667 
-0.0006192478003006678 
0.10383025197181897 
-0.17421878275378644 
0.12625898231378332 
0.08782950740974135 
0.12107782321983643 
0.14872948939665884 
0.12682080145014232 
0.05032291625796667 
-0.16489208258661409 
0.09297878901778242 
0.08735345341797471 
0.0997420476949312 
0.16970089866582375 
-0.9977737323981523 
0.13630689449411434 
0.10077738857042381 
0.0030589596217769632 
0.11286918549131955 
-0.16053039519647103 
0.004453763902839469 
0.02836840216192829 
0.003319027601078911 
0.07872370015772526 
0.1757526079212319 
0.006610633262297189 
-0.13628494239198696 
-0.04072342875415719 
-0.0006105706355858727 
0.061035181502227365 
0.024077244435203177 
-0.16948607131645957 
-0.08565895258970305 
-0.1417723494551293 
0.0939287811545634 
-0.15752225296630934 
-0.15205938289675813 
-0.14047487170999012 
-0.1220203409469813 
-0.16793814945207583 
0.02751244084159918 
0.06378661168708655 
0.1753721377093175 
0.01486764381600858 
-0.07327088968546736 
0.07487859313648912 
0.13060388413502946 
-0.07437396348322022 
-0.17880932715472778 
0.050688332216643234 
0.08587246462304518 
0.11914198034397175 
-0.12494343771834207 
-0.1533119710022553 
0.1701101785695033 
0.15284025250861796 
-0.05434895658734509 
0.04941985794055462 
0.16352074016895643 
-0.11418989729624932 
0.12782593321005822 
0.0819821401751619 
0.025028969917842425 
0.14127461878077316 
0.0920777059812716 
-0.16922214227239007 
-0.11899754712191583 
-0.1643765843376032 
0.1594138039000492 
0.029087249019545625 
0.17889380030571347 
0.05214301363571086 
0.17624177032455238 
0.14882377835608826 
-0.11971798027794363 
-0.16922407740053338 
0.06796314692537034 
-0.17235405851922206 
-0.06392434983723484 
0.18114064938006522 
0.09834154855791119 
-0.1620947132707753 
0.12579403607974962 
-0.12864681863887129 
-0.0004736540723676177 
0.16683347767104742 
-0.062266729922021244 
-0.025199469328081703 
0.09622579767137326 
0.08689702842583716 
0.11271842059038592 
0.13923205666058827 
0.1131541051093968 
-0.13881065863736117 
0.15591491456193354 
-0.16815077876576673 
0.0363702328533774 
0.1107580372709975 
0.09062884035891008 
0.04976199250723959 
-0.12986488998480678 
-0.03201220571666949 
-0.16357844828943813 
0.1779260050280865 
-0.09829631249340108 
-1.447510544603468e-06 
