-0.15160197157197772 
0.008062431418625393 
0.11362936514821001 
-0.009425381141105832 
-0.043763999133362014 
0.10389005810862359 
-0.030935785922869524 
-0.10309459343690233 
0.008219595225293835 
0.051699516850890886 
-0.18079864966884668 
-0.13285244850738584 
0.09453717304788165 
0.07651223280214561 
0.16839538322347267 
-0.0004914704969260113 
-0.13881582452280783 
0.17481816612903603 
0.18221503277961396 
-0.12500599839965998 
0.16979633936042962 
0.09775616033605547 
-0.11837813360919232 
0.1541781345572776 
-0.12167774128568501 
-0.09025886688729597 
0.017068999306742688 
0.00404657979690376 
0.17498118038669022 
-0.014718697863733976 
0.1253489546950544 
-0.17842092736520201 
0.023919294611674607 
-0.02550492073065186 
0.15798230214062467 
0.014218562582208466 
-0.18159940386018494 
-0.15765520592199903 
0.07317355355852259 
0.11265695000244488 
-0.10614017641998306 
-0.03544896002431419 
-0.17872377369205739 
0.030911849228040827 
0.008064445256384417 
0.15951349390070876 
0.15816465484310074 
-0.12604554828042946 
-0.0552327078541362 
-0.10781155422622571 
0.07546734895094123 
-0.13239653942517665 
0.06714352420601813 
-0.12068890906876183 
0.11855460479628857 
-0.17637201282899978 
0.15955543470359737 
0.15271129474424752 
0.16349763580285895 
0.050158544966355356 
0.08626386616429019 
0.09456785301616413 
-0.13996356723192194 
0.1394304583121254 
-0.045728197143620974 
-0.09599910617734171 
-0.11996322861646061 
0.09825935976180253 
-0.1397569870857807 
-0.1592970216572229 
-0.11591742684776643 
-0.0005366761697749728 
-0.0775989233825452 
0.16984218278888932 
0.011901929417384799 
0.14225234784241383 
0.01990695341778012 
-0.01895283145331289 
0.04965377379696448 
-0.09196320257997241 
-0.15750581263488556 
0.019124605057265154 
0.1109323446196572 
0.05552640833159683 
0.14273944781423173 
-0.9979059817473599 
-0.09856460707641947 
-0.1364800081329901 
-0.13385181818630387 
-0.09280375222869482 
-0.09629956917194853 
-0.15295836691770162 
-0.0642003704128453 
0.034910353484643525 
-0.07361413120983017 
-0.03894965578206025 
-0.019284783105335795 
0.11847581247702973 
0.16519448231315406 
-0.0005382483392247866 
0.1683319040061386 
0.1376964331243333 
-0.10900035498288616 
0.03507934518139305 
0.08558631756326637 
0.023053095952754732 
-0.012580957896233896 
0.07682668427757086 
0.10240310379383707 
-0.000982929538466043 
-0.1789441151745046 
0.031040156970763677 
0.11825497090656165 
-0.041284984896306554 
-0.03954408356184 
0.1326871531551904 
-0.17954560007810655 
-0.0178278625069776 
-0.15447213304165652 
0.1714536887814259 
0.1780103142288744 
0.05633666686390973 
-0.059710675016956594 
0.0451976249321846 
0.08098196663670956 
0.13080786438845252 
-0.10924122825419022 
-0.043052897300341564 
0.0642723099367579 
-0.14157237379956158 
-0.08054235784801808 
-0.05818039552367807 
0.13811777064789374 
-0.07636543669583148 
0.04961799294515315 
0.0863191729270226 
0.1138921889974627 
0.014621685459433792 
-0.12377377008700594 
0.11452149737477793 
0.08545678013140953 
0.10621649764347948 
-0.1479083022837327 
-0.08856079047557334 
-0.14887783302102506 
0.12355172223930874 
0.00538357903556011 
0.030882970940109222 
-0.001788614071856015 
-0.07233471082659666 
-0.13285151693387764 
-0.04115133632057194 
-0.03588369084281251 
0.17294728331703893 
0.1251990180238768 
-0.0005226270058301054 
0.008443449350995696 
0.04089525242146058 
-0.10521866990711083 
-0.006542168986809177 
-0.0746143207727134 
0.002160568426832765 
0.14538444864386038 
-0.08000515648155394 
0.11302275729094938 
0.004646049868975238 
0.09792958366200191 
0.03253485601471706 
-0.17878781422818926 
0.0391344185263548 
-0.15311340771488322 
0.09880000365351013 
-0.0015808905966808728 
-0.08845473444848588 
-0.036882996317139316 
-0.09117133047821388 
2.318210750590744e-06 
