0.08857457486591083 
-0.10359637891792811 
-0.06398694792465505 
-0.0039017323670317017 
-0.14373694614014473 
-0.1670513531250687 
0.027985195493810455 
0.0926007914032306 
-0.0038614020656975723 
0.09726327756433836 
0.05224384674146265 
0.06408779810422024 
-0.0838201325099968 
-0.052820192707501046 
-0.14321400048711147 
-0.0004946051355706372 
-0.12050664804940842 
-0.04727835014183715 
-0.10468136585926642 
-0.09404070027901087 
-0.1651944547256731 
-0.015736728965627195 
0.06289949463897276 
-0.01096197377535757 
0.05297498391431671 
0.03965505394687863 
0.07526181654003519 
-0.058172486807222784 
-0.17308186080881846 
-0.13037190728399045 
-0.18057303450441312 
0.08205788999116934 
-0.06162952129641269 
-0.04610391794731855 
0.11913309173682715 
0.088769309895629 
0.1380830222998736 
-0.017381742957459312 
-0.09889692289432712 
-0.1024965336119743 
0.13912978810855678 
-0.09373387206612988 
-0.1662087152682875 
-0.15992098324960405 
-0.05160526288420611 
-0.041205348857788676 
0.03902825851439265 
-0.13080346445257482 
0.017811996822719167 
0.06994054314019457 
-0.0299505239291048 
-0.14561972040590493 
-0.08205625791274797 
-0.12780573104913084 
0.06370993234371364 
0.158713875651361 
-0.1513711216089381 
0.11263241003504895 
0.047458795791683106 
-0.023131291859855213 
0.09262742969967128 
0.017767882716584388 
0.08080855489174413 
-0.18066864283418474 
0.12821400281897874 
0.1374180393922292 
0.11778035351754193 
-0.006962010375499206 
0.004480709665103139 
-0.0896271978088986 
-0.07720562082854951 
-0.0005255274187165264 
-0.03408100246563375 
0.18290048323391536 
-0.06742944349918344 
0.17402225259063117 
0.09501233408611479 
0.08318228424319887 
0.0049004642296908985 
-0.0497377023933708 
0.14704404692037173 
0.17435469097007653 
-0.14746135385618245 
-0.134999462247542 
-0.03231588045114106 
-0.9979272165559222 
-0.17654921056144726 
-0.16798226797264612 
-0.10577140323673895 
-0.10007115042900311 
-0.18169276589447317 
0.1216116464975274 
-0.0932144797326905 
-0.03646962339647436 
-0.1399320502554123 
-0.13274940106903865 
0.14204399836497292 
0.17325006859656064 
0.14082884978786694 
-0.0005182461020697506 
-0.08113131382948856 
-0.121362110953268 
-0.16588257788252445 
-0.1492312136169982 
-0.12926956097433834 
-0.061587712632343736 
0.14707060889814969 
0.047486877172887326 
0.007894002843310877 
-0.05642934145739337 
-0.019311166259441293 
-0.04508418591868357 
-0.14698576119441992 
0.052498333796038826 
-0.012065310541519991 
0.09213441357610144 
0.17446497244637008 
-0.05631689181172697 
0.07050989987928072 
0.022774448770439465 
-0.16666683511092284 
0.01355046583520525 
-0.03432962745028684 
-0.1686860608361831 
-0.14375264257012121 
0.016430037440961193 
-0.13344440850199624 
-0.13546921731902262 
0.06666769781475226 
0.12116417041345232 
-0.015762755697542485 
-0.11072078792687998 
0.03885537728709512 
-0.11196474255339985 
0.03895250796841257 
-0.1262125715109322 
0.09305592075603678 
-0.09066388114089408 
0.17205211738047485 
-0.07551599824579194 
-0.11442692381739773 
-0.02937097080057771 
-0.1341897151157977 
-0.07274961427134786 
-0.02951751545681297 
-0.056099724797254585 
-0.14968027839886383 
0.1319814399132829 
-0.15818066088699825 
0.09911132599209863 
0.09733183182938973 
0.13212608646204613 
-0.08105812485550941 
-0.13881993595336461 
-0.1480875291466045 
-0.0005278840174739901 
0.04915447913374349 
-0.04481359676940724 
-0.17252346571833177 
-0.028079418101097986 
0.02662419573268965 
0.15019129773674952 
0.04319204330160109 
0.006301570448726562 
-0.17756406147944379 
-0.07460143962606147 
0.09019660762338241 
-0.10471907978517032 
0.044312920280713014 
-0.1044042373668954 
0.0508147511870857 
0.1267148104132482 
0.1279784726484857 
0.14854487918158568 
0.15316010991235515 
0.026780011911491958 
-1.1448728584130673e-06 
