0.15351931415128892 
0.10423870314380643 
0.07090599917609816 
0.01290866177484476 
0.17077418094183042 
0.030155799620702778 
0.17914115710665782 
0.17268184391968808 
0.008917340071038726 
-0.1359205993485362 
-0.08483397908443518 
0.1290790916857749 
0.13410166796313508 
0.07032924854746628 
-0.16076750708936377 
-0.0008942176243239532 
0.09800030395806744 
-0.1585494645220815 
-0.14901251177526756 
0.15389927364615633 
0.006285521815410394 
-0.022193092436437245 
0.13198937439508338 
0.06772643787927493 
-0.0018039465495465756 
0.16421058226236854 
-0.1607585601660072 
0.014712486114334261 
0.13026596450601166 
-0.022200029754999795 
-0.031217359763163005 
-0.10540488875789879 
-0.02750231038290732 
0.09457321205999028 
-0.13586313301148548 
-0.1527716612467389 
0.1380110887860533 
0.10668314647256341 
0.08820079113465215 
-0.06713381171526199 
0.009730436117994928 
-0.1290152538970577 
-0.1510983480607761 
0.05837617796368538 
-0.04778906652110296 
-0.043132088404520125 
0.012576606892152675 
0.02958610753756591 
0.05898601562685557 
0.02587313091308388 
-0.14267820967845846 
0.16702001786844053 
0.1713950129469545 
-0.03926519471414805 
-0.035734056652496515 
-0.1161640772694292 
0.015544261739294574 
0.1337629891078342 
0.005277140607377495 
0.02725821340346024 
0.0773224383314581 
-0.18277232852849606 
0.17075150293187694 
-0.026725422567096202 
0.15191180425805081 
-0.0910844581248552 
-0.06844060498632601 
-0.11729190207742048 
0.1431221877118303 
0.08317038997188367 
-0.041352763219947325 
-0.09600347830113899 
-0.13038837341527937 
-0.1275446716921727 
0.10427892667266966 
0.0785881543402687 
0.1276185570772221 
-0.1401038446276834 
-0.05300188353461521 
0.1759186304937468 
-0.017799253523578723 
0.007498629909374416 
-0.10822441619128573 
-0.13739936451046164 
-0.17644013930471508 
-0.8028719919436313 
-0.04924998048404508 
0.11471416743694982 
-0.16896910611031557 
0.006282880558187237 
0.08288994910282735 
-0.13913954260451783 
0.004486731400787314 
-0.04274726253434141 
0.1305749396602313 
0.1344402304292189 
0.018832548370538105 
-0.14747204088389185 
0.11858350845936874 
-0.09622486874085857 
0.045628945075318256 
-0.018310073902360058 
0.1333760066287715 
0.009135203673290737 
-0.0516363812365066 
0.05310071675256489 
0.06280294078256884 
-0.09489246576407437 
0.1486412097093883 
0.03290206405309898 
0.09528615374737795 
-0.09370786846577063 
0.016862286002001348 
0.1628140126192256 
0.02696522097543408 
0.06268804766493494 
-0.012940230927382917 
-0.11170224560466648 
-0.0769627528838226 
0.045968287897185295 
0.13894402719723545 
0.1510557295679382 
-0.014817078977713699 
-0.031080451215468485 
0.003900836810497438 
0.12125768183134364 
-0.17895573642301885 
0.04746573396227052 
-0.011482352134708912 
-0.12359441757397438 
-0.15952285065732827 
-0.11798570289704358 
-0.14529438692463098 
0.035579666533594734 
-0.10458344533574934 
-0.02366014303935582 
-0.173510922618957 
0.10215323156191156 
0.028041978999124306 
0.17083971203391593 
0.1037350001485102 
-0.16676307188881628 
0.12565960340762342 
0.17722110094661056 
0.1016515907627307 
0.042816114752682766 
0.08291331907105168 
-0.12961200734259387 
-0.10318191204308773 
0.046334767323762405 
0.036363091423517624 
0.16243427558549497 
-0.12646353228535023 
0.13252006535607128 
0.16261098426596518 
0.0018952070125883955 
0.05321945547732243 
-0.13509861656089936 
-0.02399493136813463 
-0.023628353778725047 
-0.09466276864568475 
-0.11628074184296265 
0.024205143786651256 
-0.05914575310164037 
-0.056101915486592574 
-0.09293429045085302 
0.12320045372723257 
-0.056242037045092064 
0.006443638694763221 
0.0016988931433406518 
0.11773039013400197 
0.15054419186477938 
-0.04084973216465937 
-0.15071884240512634 
-0.11734398282016928 
-0.07359008313035874 
5.79174927585089e-05 
