-0.008916938619886095 
-2.764620052761515e-07 
-0.10621662676888687 
0.06566459591565808 
0.024386301411976487 
-0.007754863849691256 
7.3595743354172e-05 
8.125952379531001e-05 
-4.7663826990344055e-06 
-0.19268148113330422 
-0.13460912455904359 
-0.03761226658462623 
0.07287583904906825 
-0.09252200501966708 
-0.0003609033366143172 
-0.0005334857929348399 
0.09879036123211388 
-0.04548140548930468 
0.01560240238851647 
-0.1417393222659619 
-0.013760984362400723 
-0.0001282496853038124 
2.0460813802649964e-06 
-0.02038366593536921 
0.1459826001498314 
0.0719764141831612 
-0.15216917349685172 
-0.0809943350105551 
-0.00025119902117925753 
3.935205304465482e-06 
0.02770253221239581 
-0.06913457688644635 
-0.02037287299127162 
0.00962141469757886 
-9.93695202367146e-05 
7.432595075822389e-05 
5.381787426814467e-06 
0.1668525746275285 
-0.015787264559754207 
-0.060540958011768335 
0.14588186885263943 
0.0006750225630201157 
-0.05994862150261929 
-1.2799687639547007e-06 
-0.11303645408601067 
0.09763320536328518 
0.018169281072014615 
0.06347991567923186 
-0.06038241446699335 
-0.009102023849430143 
-1.1209355416910537e-05 
0.11870577484846775 
-0.18302034920516244 
-0.09035111203733458 
0.09139194753198383 
-0.03893892832998063 
0.007387942691723242 
-4.316440739916936e-06 
-0.1693229158543404 
-0.02953904973371611 
0.05460794458272 
-0.1690974966842765 
-0.037545600589231315 
0.008611571131633165 
-4.809735184532127e-06 
-0.14065877864780693 
0.1592998414941387 
0.08408359539784908 
-0.08545106482420856 
-0.0005302931589675642 
0.052255203548095236 
-0.0007666431234082962 
0.03644343187922155 
0.1551414340212107 
0.09639252949668355 
-0.06839305427888451 
0.0007896779204698603 
-0.04388882805814437 
-2.151490378160115e-06 
0.00808687429780556 
0.13023658189566512 
-0.10076375144167124 
0.13181584399729332 
-0.05580177921624283 
-0.0284555170747783 
-0.9974546523351598 
-0.0548565345897076 
-0.03059915270553378 
-0.04440284812752473 
0.0029140975723378187 
-0.09360132196898086 
0.01614127121510158 
1.6550945555059494e-06 
-0.2000595983165079 
0.0016714245033670944 
0.136386312991894 
-0.06451015794775372 
0.04144240356049534 
0.028625310850202614 
-0.0007905767632082138 
-0.0844468494542544 
0.08525536126151624 
0.016411578749610786 
0.09997109530763454 
-0.0005800021975024602 
0.027223840626903445 
-5.090198805562283e-06 
0.09804961740288028 
0.0362298242683272 
-0.020702110827019216 
0.05138420033565441 
0.001989942071830469 
-0.1190084451061619 
6.627325688929905e-06 
-0.1071673927090341 
-0.07754714384250527 
0.002708167639121619 
-0.005996928195716508 
0.052781797861084646 
-0.07480987508491464 
1.4370614242624486e-05 
-0.06711806372105378 
0.13939117777595525 
0.07251232672992762 
0.04542690577810658 
0.03518425663112476 
0.09657012446240346 
2.107171185469825e-06 
0.056939925121638715 
-0.1248983113801242 
-0.026000305901824155 
-0.12967311564570735 
0.033360772710040384 
0.07591494164732018 
8.714310136416875e-06 
-0.08916198282521454 
-0.060705886173606824 
-0.011857074909734318 
-0.053905887943502796 
-0.0002966029654908019 
0.02314519876214191 
-2.6334848311425794e-06 
0.0362331850583024 
-0.03355749331335844 
-0.009119329281757427 
0.042156603322239736 
-6.56565616642522e-05 
-1.5543196921564684e-05 
-8.369331130316999e-07 
0.12804418598497574 
-0.0028404467902808884 
0.013475832142700001 
-0.04838350079429653 
0.12236204879997903 
0.0011941696561108236 
-0.0004496040719018668 
-0.08055751584517808 
-0.10357229688051246 
-0.026399324627032084 
-0.10143155215019915 
0.07496888705482833 
0.0007104512291105886 
-1.1597979665046685e-06 
-0.01102799099193015 
0.0055487449908867646 
-0.0174063152656457 
0.04175818502492708 
0.022871462847128064 
0.00025899272734423995 
-5.381679426946819e-06 
0.07111920524166174 
0.10936964832942987 
0.023490607947573648 
0.05280261061177241 
2.090958349644789e-05 
-4.2737232944209326e-05 
0.019051340642981765 
