0.11847337188825843 
-1.3716549624826685e-05 
-0.37070117520507817 
0.005250602965477148 
-0.00959087706705139 
-0.10057026477175096 
2.6939762893011443e-05 
-2.676105467741997e-05 
1.7577770030498933e-05 
-0.1710437605907888 
-0.075143481293433 
0.03980499932426161 
-0.08240567978918753 
-0.029265060113844464 
0.0005547721073270724 
-0.00042205325062594955 
0.06224714896789512 
-0.0889194806313678 
0.006915718244220917 
-0.0661636608327412 
0.05014198633969576 
-0.0008800638007862846 
-1.6448845360205332e-05 
0.3667145170794101 
-0.10883131546796172 
0.06398681450379386 
0.04707496290731936 
0.04780382102317065 
-0.0009242164977198977 
4.0515911313873825e-07 
-0.24788271722145627 
-0.024768365350725463 
-0.019996280983178676 
-0.10831405386710176 
-8.541442287144975e-06 
-6.773276855156468e-05 
5.736624424984999e-07 
-0.00427928083644005 
0.05765722722195142 
-0.05351331013335788 
-0.00706363899191392 
-0.0009853829887957195 
-0.06668539995904302 
-9.597332520214303e-06 
-0.19930517877748885 
-0.009403771153710045 
-0.07281562813822869 
-0.1417069555133647 
0.03239284130496758 
0.11384293078210324 
8.327157314394076e-06 
-0.04378009558932328 
-0.08971402472328995 
0.017892443002292483 
-0.0784307622097821 
0.08417995233422311 
0.17467763399316721 
1.0732864483645055e-06 
-0.10636071380404397 
-0.08592881103614546 
0.11530257485800574 
0.027038212260631526 
-0.05354442172336286 
-0.11357106192321167 
7.8342055859661e-06 
-0.03803342478726149 
0.017657419606640235 
0.11576813618296672 
0.14684724392143658 
-0.0016798928061682054 
-0.10918096224908554 
-0.0013918377529544093 
-0.028545354738852106 
-0.10007710460333864 
0.017215910387433676 
-0.08072083385796745 
0.0007883287345900363 
0.05004480973986201 
-6.421609875004694e-07 
-0.1463865215112332 
-0.006552462658287367 
0.10484826959678557 
0.11713801438272196 
-0.0603320074998463 
0.1341139248355359 
-0.9962438967487296 
0.024496446723415145 
0.07324572855606046 
-0.16659990177446687 
-0.16696953642741355 
-0.05178633407055541 
-0.13409508403104473 
-8.987156340106087e-06 
0.11370818023644841 
0.07388822004752003 
-0.0872175689273901 
-0.030576731083917518 
-0.0969161153598758 
-0.13226899477338 
-0.001383517936122362 
0.08014561852569924 
0.13555871105152326 
-0.06732173757833469 
0.05331978546264347 
0.0013994652485993639 
0.08465232599032452 
-1.1567525474883873e-05 
-0.0789843575817389 
0.11146153367663675 
-0.015877828799261362 
0.06684066755328424 
-0.0021512514202165927 
-0.1293491952636894 
8.777682487607306e-06 
0.03460498931510356 
0.13661319602770833 
-0.15720737508946245 
-0.13953928045665762 
-0.039495547688058553 
0.025882650540770578 
-3.0567856086688574e-06 
0.14075601343248856 
0.0029252383932755507 
0.07483185643629511 
0.16616695427271314 
-0.1048623965356505 
0.09537840155857229 
1.9252054900280463e-05 
-0.15243378809314362 
0.18069575084621867 
-0.032520884921479684 
0.09106395850225935 
0.06714002526263609 
-0.02616801315506282 
3.3754964157239145e-06 
0.01656701973822069 
0.06277785842434137 
0.01664206877943744 
0.09607650677019496 
0.0005840366022653316 
0.03502815890220972 
1.97850832546654e-06 
-0.1290586004961245 
0.020531241746700624 
-0.07212056908899775 
-0.16374180107389685 
-4.653792154330305e-05 
1.5349928409774987e-05 
-4.928910238378852e-06 
0.1458785978499784 
-0.05636313590675199 
0.07327164439544107 
0.13381150015394178 
0.12841104008759108 
-0.0010775600860825536 
-0.0005479998026428577 
0.18774172336095638 
-0.04561634087441603 
0.0717962191374352 
0.14985159964145547 
-0.025405460675909642 
0.00022266358791395705 
1.2882269312539828e-05 
-0.08385291963736048 
0.037659534877111774 
-0.017183422062587512 
-0.016980900116125644 
0.03472641599584102 
-0.0002494237417338829 
-4.901137330799097e-06 
0.11453087686779678 
-0.021115177004045634 
0.07771568755823863 
0.1724574841921645 
1.4700887040504092e-05 
-2.6687612326124016e-06 
0.005036195503143563 
