-0.10548518304085638 
-5.390849393266562e-06 
-0.0741488619229468 
-0.11925170959369885 
0.04475747010139512 
0.1053817688199961 
-5.796418550959269e-06 
-3.6096159055162895e-05 
-8.576797335569663e-06 
0.17230310028910215 
-0.17087083546574505 
-0.009185744080686951 
-0.16709587635686857 
0.1942273821414444 
-0.0006083507174787192 
-0.0005082312187428863 
0.12956418685874493 
0.0035602106600527046 
0.020039553270969138 
0.1562780199860679 
0.005565215126548855 
-2.5312245910645506e-06 
-2.799095167682309e-06 
-0.12411321638150746 
-0.027855585789891585 
0.004769196497586175 
-0.0407856194099784 
0.04938784397434171 
-0.00015113470448479993 
7.709268820734451e-06 
-0.04163112631660153 
0.18466312906184132 
-0.03340383072873545 
-0.014025776675217677 
-9.306608551439965e-07 
1.675165550454375e-05 
-1.1552121812701297e-05 
0.12449798971035374 
0.19175040960967296 
-0.02974915917389078 
0.00920021568365212 
0.000911137655152223 
0.10661155056165164 
6.998006511213192e-07 
0.1448613259536875 
0.0032451092470623705 
0.01363997679043147 
0.17111118693428998 
-0.13460850606312122 
0.0033861360927895483 
8.44877152580403e-06 
0.06706184402983364 
0.09414916818456104 
-0.028319789991785624 
-0.10036724635373993 
-0.029192930631271728 
-0.07941581142317235 
4.401550442928509e-06 
0.06008447962361368 
0.19104131089618803 
-0.03107693086316759 
-0.028032720476715203 
0.19515935028426032 
-0.003487194800449944 
-5.242411881672541e-06 
0.07488486693114814 
-0.0907326005104486 
0.017579913079347774 
0.07784268180629345 
-0.0002849257786939145 
-0.027088115182943472 
-0.000529961942887408 
-0.04261839915962053 
-0.10973867420878831 
0.015578001031718825 
0.06983198329050394 
-0.00038672475635650176 
-0.07035927770115144 
-6.566760462954755e-07 
-0.0057927171579034015 
-0.10568388844522522 
0.01571417073517653 
0.10831943061901406 
-0.20814428093172727 
-0.014731484483342331 
-0.9979258510625666 
-0.17447136628623394 
-0.18463847675585848 
0.015237813190678835 
-0.10695476432274093 
-0.10229618930464994 
0.1725146078398655 
-8.800100683156203e-06 
-0.09579732062243308 
0.0061585908129089635 
0.008596170567965413 
0.05239758793651362 
-0.15351259183146324 
0.015111552435242665 
-0.0005138957115577896 
0.11056315292061095 
-0.11610396170967859 
-0.0030882171640110876 
-0.07510403278531763 
-0.0005900610646522752 
-0.10200297189939703 
2.399578806656997e-06 
-0.016697146206962447 
-0.13681679662987545 
0.009334797292496422 
0.20650812309674896 
3.2186905917742304e-05 
-0.0019613252118285446 
8.119353988768202e-06 
-0.0564202827464652 
-0.0804061202749347 
0.008111104737492526 
0.1350921890329502 
0.1385156429979876 
-0.04939807442961635 
9.300325715900351e-06 
0.011338848912756183 
-0.10410820246754093 
0.006290650891420739 
0.17423095727965465 
0.0295636224301281 
-0.04961695452731789 
-3.527280399502334e-06 
0.10934916553211714 
0.03079340797621919 
-0.009472427304059753 
-0.13046631838888031 
-0.20110514284316067 
0.049413219787927065 
-6.2411581568310375e-06 
-0.13822505995993797 
0.17326940390357126 
-0.0013909296170403018 
-0.16366942689188982 
0.00021859209478210579 
0.05160587419029998 
-1.031844397110452e-06 
-0.12384529420194874 
-0.22572110249653407 
0.0038638117358971097 
-0.11127590659028463 
4.029970003401823e-05 
-3.372503770775848e-07 
9.326349728865716e-07 
-0.12954621384064263 
0.05418404932871768 
0.008708828725519785 
-0.040894254125111225 
0.0038851037117483725 
-1.3096267164605107e-05 
-0.000519552636882897 
-0.06269110440451349 
0.09750874992005625 
0.006729684260124629 
-0.049971959562679164 
0.09804012561680565 
-3.488941826465424e-05 
-8.383085478198844e-06 
0.02162767024122974 
0.01567612254628403 
0.00506573163078428 
-0.22405159047402595 
0.10270194729362149 
2.8390016037303207e-05 
-3.4783906935512038e-06 
-0.05984106282727255 
0.07300681816680585 
0.0021095152136113965 
0.11104632980724355 
0.00010089802808711557 
-3.845983625601e-06 
0.011112157662903412 
