-0.0012533122368867389 
0.1620654948250929 
0.10089540031143715 
-0.06757146697278425 
-0.1181734726807244 
-0.1704243013267507 
-0.06504428352614457 
-0.15380493025887076 
-0.1712268277358472 
0.11140723665156418 
-0.07455813635798664 
-0.17640840007404832 
0.12125666534089993 
-0.00393250492211919 
-0.050721872871225204 
-0.0005277946708009477 
-0.1512300839826891 
0.012280744470716948 
-0.01246411718209492 
-0.09548948740009552 
0.005768787896819005 
0.054281551463881306 
-0.11210122813408263 
0.128494176455105 
0.15118921762937895 
-0.019609907508740226 
0.1013485881109816 
-0.012841146935715003 
-0.12628807459779368 
0.11230371511527623 
-0.07920747892235554 
0.13515129228457415 
-0.041006186834072256 
-0.019980804480710906 
0.16256189649589017 
0.08436006534676452 
0.16843678101172951 
-0.16137265377586446 
0.15360131099303367 
-0.13636737091612444 
-0.06425534011880767 
-0.13805119714954284 
0.08405810520882998 
0.06596761576941748 
0.1496241451905009 
-0.08062937721332977 
-0.08244431653807165 
-0.18158160588135916 
-0.029880009387952156 
0.14679401865106875 
-0.06817395784300682 
0.09687859582358918 
0.013070902427881614 
0.018553560112404333 
0.15898048206419482 
0.05688958644754141 
0.12897711629198996 
0.011106962252591862 
0.07830546024004517 
-0.085294395659256 
0.13850209629690288 
-0.1253265871181901 
-0.136128899462619 
-0.01691032418350713 
-0.060188151653612326 
0.07413038194018315 
0.08540070631056398 
-0.022139704150797912 
-0.016431507369599974 
-0.024186912060672194 
0.1266693452361997 
-0.0006794602834102162 
-0.07503529981261918 
0.07609287949903096 
-0.09762917160278843 
0.11241227623071373 
-0.1440847014427944 
-0.18125343263154253 
0.14311202413338384 
0.07959609358970596 
-0.10202022494291782 
-0.10562138666126429 
0.17634680495063274 
0.04264812225338899 
0.16609252655628212 
-0.9976345180504593 
0.15866428173493777 
-0.07690177425513131 
0.10778709942129741 
0.1172351625044076 
-0.0280066846280754 
0.05646552769067231 
-0.1020736236262637 
0.06148566848809964 
-0.0719940955181999 
0.12037671084711019 
-0.10217242436633872 
-0.005740561922676468 
-0.11810151359753349 
-0.0006783561440635948 
0.13346144714109873 
0.011095331697670852 
-0.18174351699486016 
-0.062006696700518435 
0.1341109012185838 
0.07172738318969626 
-0.13279971370339533 
-0.020460272739312557 
-0.140458937837667 
0.08661449865668339 
0.14522439001232337 
0.0776565384406395 
0.10450081751486859 
-0.1174629827369954 
0.04237929103253718 
-0.07136442560413901 
-0.14956211808462777 
0.13623754800053392 
-0.14426303794245474 
0.05463610416635836 
0.062277938811282324 
0.08307790996547629 
0.0918888808881094 
0.08057746014223147 
0.014277662617401182 
0.06515093677177844 
0.18281358510246956 
-0.08374060636787796 
-0.059039722682690365 
0.008602328323798286 
-0.17587463031457598 
-0.08847742435612051 
0.04561591752257296 
-0.07963582004630979 
-0.05343562056376666 
0.09010772452640428 
-0.013308119281889796 
0.01876468747157875 
-0.18021317439720153 
0.03790003160962804 
0.1544352032062015 
0.15701981717282085 
0.15148156910190522 
0.08539724695730852 
0.1666696268691312 
-0.08765555062014997 
0.004981169884641534 
0.10074245236538229 
-0.08903507162544523 
-0.045521521312835156 
-0.09679539300303275 
0.10564161704188726 
0.16317932368912832 
-0.1462671477267269 
0.16591245142171648 
-0.0004734996496317813 
-0.005788017663950901 
-0.11170654045895341 
0.03299267118887175 
0.16243837037478961 
-0.1232141739828704 
-0.05677341477628545 
-0.11905230820980996 
0.16934602317435102 
0.08017249072430097 
0.09293545483958673 
-0.05434076881706251 
0.10665944566202676 
0.016082796148421896 
-0.1774063030847893 
0.032091111483518286 
-0.03511845859828125 
0.09970631903955787 
-0.023550942975251482 
0.1203047606166798 
-0.024125751079319357 
-3.8451820992418914e-08 
