-0.17874108204996178 
0.08564264205839392 
0.09563849927019755 
0.02187398318641795 
0.06289234404981806 
-0.048511705342684314 
0.11312041466956915 
0.03062467549594297 
0.09222816132840764 
-0.0031503585478512564 
0.1755789877752363 
-0.02913439753176683 
0.1351679953182923 
-0.024977478072542053 
0.019829558533632524 
-0.000551365006950322 
-0.12040041446787482 
0.08187396120907339 
0.1484274795870372 
0.03753514274610206 
0.055161360073238186 
-0.17784493495602743 
-0.08911366045453499 
0.17707096170722772 
0.04342764424073864 
0.06845886386629232 
-0.04332749366297314 
-0.002129243988141266 
-0.022235314492596414 
0.17875938553938528 
0.06867879961171139 
-0.09679376928969663 
0.05933492061130405 
-0.026796616103987675 
-0.01464868202049971 
0.021979622161186735 
0.04523107851374136 
0.08465029024425261 
0.1831598265433618 
0.03577528199480329 
0.13849509298426224 
-0.15295834883481732 
0.06893904920807445 
-0.10881888327693184 
-0.10667661986188777 
-0.06617976717230459 
0.18367357232050233 
-0.10518142351704406 
0.11375577530969647 
0.1448509076758077 
0.09600214406429067 
0.06549139173364257 
0.1169083706373765 
0.10164393864469493 
0.06841656219202738 
-0.055744505636167785 
-0.08232043691516072 
-0.08041988886499611 
-0.08162951188396603 
-0.13517915606057787 
0.08326998747980643 
-0.1670372772418944 
0.03751535779069429 
-0.13911068376223373 
-0.07537014975107116 
-0.024483683809420453 
0.011589652530875239 
0.08232226400245649 
0.07793835354894255 
0.08671142140901575 
-0.1516882225619288 
-0.0009065726390762767 
-0.18190501330607592 
0.007102878822155073 
-0.13017044689984636 
0.16989238752727334 
0.09310552480592102 
-0.02549655187602287 
-0.15966680043858728 
-0.16820173542282643 
-0.02187631749263569 
-0.06624921418968584 
0.0968417313407193 
-0.1390514917107536 
-0.17150679437470517 
-0.9971996551144514 
0.11524905017126622 
-0.013593971105820252 
0.09487600125706211 
-0.12958692334050717 
0.16336805272908786 
0.07241141981165158 
0.10316780006397233 
-0.027051028786393067 
0.12684187314058928 
-0.13074892756546536 
-0.06173463225909673 
-0.1275321504521646 
0.06498917871198368 
-0.0009014487870608002 
-0.03587542493744686 
0.11344782449638904 
-0.17252670039514562 
0.16854223248731817 
0.16029624691579145 
-0.024644197458237677 
0.14570422841218503 
0.16967864206680763 
-0.12973271378619872 
0.16814052142902172 
-0.16703092603795952 
0.1639632559968485 
-0.1665164135372375 
-0.08462513081116473 
-0.044823442829904414 
-0.09767367346852755 
-0.001857769100616996 
-0.11200161131900649 
-0.036137542661837746 
0.15563197812914878 
-0.1197566763422368 
-0.08449194938799201 
0.12727177294038158 
0.09056309301840085 
0.10785234532861362 
-0.16265301596278717 
0.0775686243879137 
0.0886287239231153 
0.07392939863868872 
-0.1411136076020353 
0.00573612124791284 
0.015462875522442632 
0.01188169623880389 
-0.11278949548131582 
0.06435985249993728 
-0.03243872187937441 
0.08123766779048638 
0.1498456641581936 
0.04310582146362982 
-0.16610836122666237 
0.03513429764315246 
0.0035083022865118607 
-0.11010474341038279 
0.13522115826746403 
0.0653039440427649 
-0.05535856959658181 
0.1320103568497802 
-0.17282863686686858 
0.02249563226785664 
0.01215719980434457 
-0.020706916871983838 
-0.05832297600492889 
-0.040035019204958944 
0.08468057283472755 
0.1015703999766073 
-0.0004404731294008961 
-0.057315608613447866 
0.14683264949917282 
0.04138495574386525 
-0.016947936395874053 
-0.08645078329271981 
0.004483065956451149 
0.03709753390573661 
-0.05293687929662702 
-0.09658583567677477 
-0.0327194992974659 
-0.17220109366230993 
0.08901284886519276 
0.013625718581800728 
-0.05408751920020355 
-0.05807117831786271 
-0.13105695357157193 
-0.14394930894241684 
-0.037572013354572 
0.1484838386424613 
0.07663326095707587 
-3.6724513917843563e-06 
