-0.1904272102793963 
-5.021008641592668e-06 
0.25137054406783654 
-0.010181163464901286 
-0.07109365478438436 
0.0620864097432433 
-1.0994297103172234e-05 
3.372392670351933e-05 
9.077570190783472e-06 
0.0031690540312900657 
0.11065588976099204 
-0.10150251823330406 
0.06140851534276074 
0.012161067810144558 
-0.0005296562799385823 
-0.0003863016826674034 
-0.11589691762321294 
-0.11097799441437914 
-0.025682421848164792 
-0.17340860980407233 
0.01595656679570679 
-0.0005853699967395564 
-6.5722611296634204e-06 
0.03595453732590536 
0.0014175857579819555 
-0.10652863938272684 
-0.03621938637714208 
0.005184414970872924 
-0.00010970396301731726 
-1.239943711820797e-05 
-0.20344948527807466 
0.08607760504337926 
-0.20340483394489975 
-0.10228999628121486 
-2.3372605390986587e-05 
5.776651272341667e-05 
2.338113301875889e-05 
-0.4261147385646179 
-0.000988711431943914 
0.0788281342947567 
-0.08046320681733704 
0.0008592281298912187 
0.07412528146152571 
-4.582172887120616e-06 
-0.06617573164258814 
0.03591659539002374 
-0.09283949513209845 
-0.05109438547850635 
0.003496507026110612 
0.09774003894064939 
1.9479971415830595e-05 
-0.43230666225381714 
0.10313935369879808 
-0.053940821145634435 
-0.0728129813862709 
0.023971549044972604 
-0.04333248375895643 
-9.514940427227403e-07 
0.5375542848581202 
-0.12017479631044808 
0.05831399456680435 
0.0922761336431157 
-0.017218975412318024 
-0.097425257215371 
2.8429301560826205e-06 
0.10912937779804645 
0.040539762705994464 
0.0207446992810483 
0.09010463444851059 
-0.0003727638769602417 
-0.03158975798948574 
-0.0026595758129474055 
0.018805282806883167 
-0.04426227486987139 
0.14510756225610005 
0.09701307306141121 
9.922030375911507e-05 
0.008448764067837873 
-5.106664376886115e-06 
-0.13777742578372967 
0.05223688136203299 
0.08579056152481301 
0.0968476564552761 
-0.019408632466440312 
0.08517629833264546 
-0.9937295250387713 
-0.018146627125843477 
-0.04988629994585708 
0.13868987519313578 
0.075714177784851 
-0.06104581668188373 
-0.063321425633022 
-8.285558537453006e-06 
0.19134790484920977 
-0.018236873074671027 
-0.027294615531393562 
0.006133962093207763 
-0.0657653696099789 
-0.08352519911788683 
-0.0026139785416448005 
0.05943913396162774 
0.012387900597529623 
0.07140185123777561 
0.09495541328504287 
0.0007091605263536582 
0.05592698514691545 
1.2008014401565035e-05 
0.06567289482681339 
0.004775450508296695 
0.03798097385014473 
0.06505597398766436 
1.4690729993358127e-05 
0.0017321973308489973 
-1.968692862604673e-06 
-0.13679494331437217 
-0.02674324316606628 
0.16100416119408936 
0.1337010735437173 
-0.004840314972524573 
-0.07307110419691683 
-7.116433856252871e-06 
-0.0933038816455392 
-0.08325592609074249 
0.17461369647051203 
0.10329317722783206 
-0.0392513791392582 
-0.12806173563250361 
-1.7521396271467582e-05 
0.0020876996037717554 
-0.03487589956376 
-0.08258044342919056 
-0.13275815588867534 
0.025653968330113262 
0.07278399355905428 
-8.772478183623518e-06 
-0.005077680467205501 
-0.08834456839429086 
-0.03318662127514137 
-0.1289706458098688 
0.0019412224121993355 
0.12684360053891236 
3.431101593967976e-06 
-0.17874958462430227 
0.18249958378208214 
0.00806852337153406 
0.1566642349113396 
2.3648713307767407e-05 
-8.278678153506813e-06 
1.1882524518389522e-06 
0.10615484957749798 
-0.12079257235085473 
0.16702146588102046 
0.14763161791330248 
-0.0010921389958007855 
3.3974569815211024e-05 
-0.0006039796668061496 
0.05931708066626415 
0.026408299800688362 
-0.0399177434574717 
-0.01977358416599811 
0.044665205746953596 
-0.0005169631748326756 
8.423832533543104e-06 
-0.11140150882873256 
0.07123461954824427 
0.07751087564238736 
0.16187597387636396 
0.0773965857002257 
-0.0009201897209885784 
1.6009798508496682e-05 
-0.06107279280424084 
0.0421353326000787 
-0.02940216532971616 
-0.014186379500416343 
4.1775409315603674e-05 
1.7237227050368586e-05 
0.018101979285493657 
