0.12453851006841696 
-0.06452251799242632 
-0.17953457952502233 
-0.15590102674627787 
-0.1460386706071501 
0.11219979905747277 
-2.6996177385857356e-05 
-0.05077276675360018 
0.1268670685586731 
-0.07669628843287754 
0.08073643535061228 
-0.09796705681406066 
0.10017620404616848 
-0.059758747288351344 
0.15020215583595134 
-0.00026127311456723256 
0.08048193788078559 
0.10367386142378762 
0.03653912062648318 
0.08325082886024279 
-0.13927841345164896 
-0.09872644438976098 
0.1260499697284949 
0.012590977133573295 
0.1069613121087952 
-0.13850032669153356 
-0.06609651942400474 
-0.11699707902945507 
0.14893867774488131 
0.09670355480707829 
0.1089608649590503 
0.05767022335864405 
-0.07410516967751181 
0.12088631988432894 
-0.05288444600364145 
0.09231893947838002 
0.1637706165315266 
-0.1333607213205641 
0.0628020793650578 
0.08219133224966238 
-0.0686611451017635 
-0.021479719636232658 
0.06123086802807495 
-0.017428006334365753 
-0.07673051554754944 
0.017202300476999943 
-0.15921607687497635 
0.03622943179149149 
-0.08184553409866432 
0.06566457696670636 
0.0170133885749581 
-0.12055383679888045 
0.03935370269766422 
0.03754011527832332 
0.0229912790100959 
-0.12251555220527996 
-0.06778788228588531 
0.06461251352198386 
0.16290455597041428 
-0.1646030097265964 
0.03830832197919354 
0.11108511990555595 
0.17871542404586513 
-0.11103517968451672 
-0.07834239157236321 
-0.07331337163681183 
-0.17309077065713532 
-0.025130983780036975 
-0.09523763654328866 
0.10706325585475399 
-0.0006387393859784707 
-0.008034386194782117 
0.07896098866439646 
0.02334119410310101 
0.09382319956949145 
-0.1808381156438805 
0.09022850902881527 
0.045706721778279724 
-0.02067844835628571 
-0.1268889839117577 
0.1769840689859923 
-0.05922831441136503 
0.1444141445620172 
-0.1548797923198447 
-0.1734005497571416 
-0.9829190579774398 
0.13092967175704243 
-0.13105048038570336 
-0.024524950741855567 
-0.15825868666454135 
0.09087376571360992 
-0.1655495521459847 
0.15058139649388017 
-0.13867958227392185 
0.03278855711546644 
-0.00771694235238482 
0.10972885568595084 
0.05329318716261494 
0.05760443277089314 
-0.008030645564727571 
-0.18076855951248763 
-0.01297841971191288 
0.11345459341462702 
0.04986441780906761 
0.14175918194026907 
0.11497422759776718 
-0.0068850324745324265 
-0.017566823444223473 
-0.14431355446423752 
0.15719975739275557 
0.06849419972995205 
0.05742526530183001 
0.04977262752816419 
-0.06251171399545116 
-0.11112105591445452 
0.1225373132254032 
-0.10409388857928878 
0.14755755451595418 
-0.1368837413913056 
0.10378308425352897 
-0.11660470506765602 
0.1090173667530471 
0.1629048041903118 
-0.17968658743397858 
0.13528141748357778 
0.09677745862680773 
0.12148067390422815 
-0.017106581569852175 
-0.07692574987746255 
-0.14081997597416948 
-0.0014724859643558408 
0.15755538979420883 
-0.06703086791694195 
0.13485248640397615 
0.11353189846256947 
0.17588560233689624 
-0.06328602583642842 
0.07046491505657057 
0.023994379235693364 
-0.1652462100034425 
0.03914712465784592 
0.0866210323995982 
0.03369015714821558 
0.17831445926486914 
-0.12957791249501366 
0.11900495897687127 
0.10465571524407766 
0.10519380504103051 
0.03241718166332325 
-0.09277617538992325 
-0.054139814971762235 
-0.10621601141569485 
0.05540520039616881 
0.06404666467050416 
-0.08254639898842424 
-0.0006583777719394028 
0.09763255031534154 
0.15794805177873336 
-0.16290652846195247 
-0.04951286486269532 
-0.09099353315747209 
-0.17460083871761672 
-0.1627926525945024 
-0.11981734733321003 
-0.17554478062615864 
-0.15645223381243273 
-0.16896406056793445 
0.051415059161513205 
0.006193575713903526 
0.08451444101418112 
0.15731234898772992 
0.007597610848425973 
-0.006388896487641432 
0.0070568425286214875 
-0.13023717079711947 
0.1614131893572934 
3.64970074116385e-06 
