0.010737971258090182 
-4.35572562517657e-06 
0.05729563297833346 
-0.13222828677578885 
0.05605085433034012 
0.029989830583913007 
-3.171480340075372e-05 
1.5000811349116176e-05 
7.430853687364895e-06 
-0.16510852186357206 
-0.0904690049576774 
0.058975313427275654 
0.03273207131544323 
-0.09263916034292204 
0.0006117234923260456 
-0.00044947675515244457 
0.032102015592249275 
0.07731341914327357 
-0.06452358590202342 
-0.0887476453524666 
0.008555511260426883 
-3.743364291945487e-05 
2.2502361838961953e-06 
0.028667749243179268 
0.07477043972593568 
-0.0953255624596133 
-0.17448762453556138 
-0.06322675942382591 
0.00039093203219266626 
5.07861658424887e-06 
0.13850794390885815 
0.06569201931316315 
-0.0404845461204696 
-0.013487797096597868 
-4.143068233559896e-05 
4.53476836919334e-05 
-1.1055454669313354e-07 
0.11161193217538744 
-0.007569444995509499 
-0.01087087377467341 
-0.018027045827012114 
-0.0009685639783485925 
-0.0673440481374111 
1.6856234748546188e-06 
0.05567771297008695 
-0.0954182467804439 
0.044813560650392985 
0.06579491483600419 
-0.054228486443588256 
0.0064578305543493315 
-7.525601378226304e-06 
-0.019014966892953154 
-0.06721056143590663 
0.008262384758270593 
-0.04415834084860593 
-0.03208070104498431 
0.021503545633238082 
-1.2764514290191077e-06 
0.04780254344217864 
0.1548193419439626 
-0.09258228442586021 
-0.1410775259176309 
0.08837895363342739 
-0.006600321315905929 
1.028399254788548e-05 
0.12355247227061596 
-0.1444129876468968 
0.001713561812809874 
-0.1104977555087101 
0.0007044994964875653 
0.04601920572318774 
-0.0006081631854112576 
0.1005982245866643 
0.11521161501893887 
-0.005814324753833226 
0.1170226483389537 
-0.0004518865542795715 
-0.03509056250506686 
-2.0755645253293007e-05 
0.058211774411114935 
0.09192170529280547 
-0.057126480919566604 
-0.13286609169467617 
0.12331357536261113 
-0.02142357677417038 
-0.9977975183243317 
0.10376300083091022 
-0.02289380928031266 
-0.043053001812172684 
-0.17666760672106033 
0.06233000764291168 
0.09204454032887271 
8.007865054135694e-06 
-0.13624231249632557 
0.0802198502657062 
-0.024646265325033133 
-0.05896918880875717 
-0.0016625432584714422 
0.020946524129701265 
-0.0006054623335168298 
0.17199649435153694 
-0.026438109900964374 
0.011919016791247891 
0.06856380003238924 
-0.0007471326881918471 
-0.05718977369761983 
-2.8942723614032986e-06 
0.15399635447547266 
0.07730158921594417 
-0.06078944902724789 
-0.21112227943513784 
7.478264300218661e-05 
0.011469039051244256 
1.0818586084993149e-06 
0.10729535162041164 
-0.15072892715738798 
0.04999124106683628 
0.16105551463586737 
0.06006808823223505 
0.04137784465392057 
-1.2131513285017565e-05 
0.07074371580443567 
-0.1742731627866517 
0.053668630817906106 
0.1463427880389292 
0.03494023557391836 
-0.05465887777080327 
-1.3037614177604278e-05 
0.06754840380071493 
-0.002151248944950632 
-0.011918686491916916 
-0.04662165590952329 
-0.09761117908884824 
-0.04125944987087227 
-2.2139526248846547e-06 
0.044964185850312866 
0.02540116590183381 
-0.024255295089737606 
-0.09498635194767138 
0.0005201323551962075 
0.04307811837194132 
2.526670627148155e-05 
0.061990625086684736 
0.1934808453312014 
-0.04866930501139788 
-0.1659304434794058 
3.999703811751221e-05 
-2.258428330107222e-05 
7.073413641460175e-06 
0.09994982847692915 
0.025518932430228236 
-0.01652954740500139 
-0.06276500322647596 
-0.02090545421327764 
6.845698032029854e-05 
-0.0005173631344310451 
-0.07244736950230578 
-0.1667894317281771 
0.010489265639619686 
-0.11468704805751598 
-0.07578504583389313 
0.00019200607933745446 
9.938703093308713e-06 
0.017378036244860826 
-0.022438235353710125 
-0.013160106189771826 
-0.11931314956237088 
0.07856142248291796 
-0.00020012657766908855 
-4.066334337159719e-06 
-0.0020203118468171645 
-0.20664430873919284 
0.02563123661110997 
-0.004190102547780262 
1.8936950872178e-05 
-1.8152361709515206e-05 
0.00526816233089882 
