-0.0993183006378928 
7.382958994611289e-07 
0.09361601321739742 
-0.09227981161989589 
-0.02285432162270148 
0.003553014226043135 
-1.7454878518079003e-05 
0.00022029627404694858 
1.1211582993733497e-06 
0.12654245237011746 
-0.06341715368369771 
-0.024886612925176178 
0.017907820633679065 
-0.006760614506803346 
-0.0003889794098910552 
-0.0005228094666294064 
0.025619755557920905 
0.03493255327942711 
-0.01607332012898721 
0.11595400739414538 
0.16372672042855524 
0.0007373842529000797 
-2.6517515647416297e-06 
0.014017443347175938 
-0.006689057388937388 
-0.026986220035212477 
0.15852982868920834 
0.12302084819534806 
0.0001338156009029633 
2.7111211884793355e-06 
-0.0908381404375631 
-0.11572855692635411 
-0.027818508471203537 
0.06449583338116238 
-0.00014399224105421182 
0.0002142810580734668 
-8.2446865970002e-06 
0.1508830468393933 
-0.10069175679764168 
-0.013012033194613585 
-0.07555259134926606 
0.0002904848425250542 
-0.004021236864297839 
-1.2991260357881582e-05 
0.05365900846754229 
0.14024219057383266 
0.010159244165460135 
0.08309597811783553 
0.15625048271706807 
0.09760135887118332 
-1.8980550400659564e-06 
0.09818356438306719 
0.008724085925751057 
-0.023532238006979903 
0.07621830501407975 
-0.13447735360761698 
0.07577861001032551 
1.0579326227967185e-05 
0.06510254021788102 
0.13905507788195662 
0.04537021370738482 
-0.07627693129809716 
0.1517740364345728 
-0.09621074936080964 
-8.039237440885843e-06 
-0.055626445636959225 
0.023551225501626836 
0.016544295057950277 
-0.02792807984505841 
0.000917969463407743 
-0.07250797233642112 
-0.0006848180283319744 
-0.07702835552470456 
-0.018856625781166984 
-0.03669769981026268 
0.11616953024595623 
-0.001737523759731617 
0.1019193886470296 
2.402717105929405e-06 
0.06175528256834595 
0.01090879864626042 
-0.008807965630225553 
0.03385305107545061 
-0.051855578806687584 
-0.08706656403692685 
-0.9976156896605299 
0.02822306034432151 
0.15716275662172738 
0.027371056318033615 
0.055587600998547926 
-0.008869869427024233 
-0.004198292760026935 
-1.1227042758425357e-05 
-0.07159607641129985 
0.05364581608169639 
-0.008535770787037909 
0.10819417524004894 
0.07094728597712095 
0.08654819017705397 
-0.0006901954229318966 
0.02755096782851438 
-0.08700989601596966 
-0.08273700525311121 
0.17422461497014272 
0.0017033674676465943 
-0.09702451403104577 
-6.238907864628615e-08 
-0.10319620102151256 
-0.12871931840217798 
-0.03739908297903488 
-0.05719784022909511 
0.0008834315035057668 
-0.04332885147733236 
-1.2870051504053623e-05 
-0.171237306542174 
-0.1175895628869101 
0.01471657457221594 
-0.09535746929216843 
-0.14521832790920136 
0.10158535642370187 
1.779361769588692e-05 
-0.10676922421887125 
-0.07426003297393145 
-0.0021984308115396522 
0.0447549917220907 
0.11821341186912511 
0.17820848048579996 
-5.116682828451869e-06 
0.10535039578788988 
-0.029429130974473926 
0.02597407120322214 
-0.1725759332873645 
-0.1307300465796173 
-0.10365993209571063 
-8.279638450697705e-07 
-0.1166027850731098 
-0.1937327436590882 
-0.048840970755164116 
-0.0493698004395125 
0.002053175445368223 
-0.13399608672106764 
-1.8050070240558042e-06 
0.13757445370502575 
0.08998801775094058 
0.07119844752503479 
-0.08718647457861904 
-1.083457762387522e-05 
-4.591997908679305e-05 
-3.4242919587161408e-06 
0.07418387383928299 
0.11560993556099325 
0.004441265576867329 
0.09389068744111094 
0.05196446391151861 
0.00046175056170198557 
-0.0004606010561799179 
-0.069427684622293 
-0.13626472553233313 
-0.06505774008877376 
-0.0026854978745139034 
-0.12172931306816817 
-0.0010677058751588887 
2.195464207914314e-06 
0.18465532355732645 
0.013321844514625937 
0.04717348449866177 
-0.1296671200191906 
-0.15994285922965898 
-0.001074142452039146 
-7.410228726323597e-06 
-0.16235799669579945 
0.047983032844288835 
0.04238060449921728 
-0.0013618467625676036 
1.4734841461690045e-05 
-0.00010950142606236535 
-0.023094882990426106 
